encog,BasicNetwork,java,3.1.0,1,1363113737786
[BASIC]
[BASIC:PARAMS]
[BASIC:NETWORK]
beginTraining=0
connectionLimit=0
contextTargetOffset=0,0,0
contextTargetSize=0,0,0
endTraining=2
hasContext=f
inputCount=1024
layerCounts=7,11,1025
layerFeedCounts=7,10,1024
layerContextCount=0,0,0
layerIndex=0,7,18
output=0.0000000189,0.9177431473,0.0000040265,0.0349310585,0.994300767,0.0182152514,0.9550747278,7.4220228242,8.0994564582,7.0364297629,-6.970464305,-7.6350768588,7.6792374643,-6.7358110184,-5.5780402201,6.8945525983,-1.656682105,1,-255,-255,-255,-255,-255,-255,-255,-255,-255,-255,-255,-255,-255,-255,-255,-255,-255,-255,-255,-255,-255,-255,-255,-255,-255,-255,-255,-3.3116883117,-23.1818181818,-255,-255,-255,-255,-255,-255,-255,-255,-255,-255,-255,-255,-255,-255,-255,-255,-255,-255,-255,-255,-255,-255,-255,-255,-255,-255,-255,-255,-255,-255,-2.8021978022,-15,-255,-255,-85,-255,-255,-255,-255,-255,-255,-255,-255,-255,-255,-255,-255,-255,-255,-255,-255,-255,-255,-255,-255,-255,-255,-255,-255,-255,-255,-255,-3.1481481481,-36.4285714286,-85,-255,-255,-255,-255,-255,-255,-255,-255,-255,-255,-255,-255,-255,-255,-255,-255,-255,-255,-255,-28.3333333333,-255,-255,-255,-255,-255,-255,-255,-255,-85,-2.5247524752,-15,-28.3333333333,-85,-255,-255,-255,-255,-255,-255,-2.2972972973,2.04,-2.3831775701,-255,-6.8918918919,2.2972972973,3.9230769231,4.0476190476,2.6842105263,-5,-255,-2.1794871795,2.2972972973,2.04,-28.3333333333,-255,-255,-255,-255,-255,-255,-255,-2.5757575758,-28.3333333333,-255,-28.3333333333,-255,-255,-255,-255,-255,-15,4.4736842105,2.2566371681,4.4736842105,-4.8113207547,-2.8021978022,2.8651685393,-2.4285714286,-2.3394495413,2.7419354839,-2.0078740157,-5.2040816327,3.6956521739,2.1794871795,4.4736842105,-8.7931034483,-255,-255,-255,-255,-255,-255,-255,-3,-255,-255,-85,-255,-255,-255,-255,-255,-15,4.8113207547,-23.1818181818,2.2972972973,3.3116883117,2.9310344828,-3.0722891566,-85,-36.4285714286,-3.6956521739,3.3116883117,3.9230769231,2.6288659794,-8.2258064516,4.3220338983,-5.9302325581,-28.3333333333,-255,-255,-85,-85,-255,-255,-3.1481481481,-17,-28.3333333333,-36.4285714286,-85,-255,-255,-255,-255,-15,4.8113207547,-5.9302325581,-28.3333333333,-28.3333333333,-255,-28.3333333333,-28.3333333333,-19.6153846154,-15,-23.1818181818,-13.4210526316,-28.3333333333,-9.4444444444,3.4,-5.2040816327,-255,-255,-255,-255,-255,-255,-85,-2.6842105263,-255,-28.3333333333,-255,-28.3333333333,-255,-255,-255,-255,-23.1818181818,4.4736842105,8.2258064516,12.1428571429,7.2857142857,5.4255319149,8.2258064516,5.6666666667,8.2258064516,4.3220338983,7.2857142857,4.6363636364,6.5384615385,5.4255319149,4.1803278689,-7.2857142857,-85,-255,-255,-85,-85,-28.3333333333,-19.6153846154,-2.6842105263,-23.1818181818,-255,-28.3333333333,-17,-255,-255,-255,-255,-255,-2.5757575758,3.3116883117,-17,-255,-255,-255,-255,-255,-85,-255,-28.3333333333,-13.4210526316,2.9310344828,-2.2566371681,-36.4285714286,-255,-255,-85,-255,-255,-255,-255,-3,-28.3333333333,-85,-28.3333333333,-85,-255,-255,-255,-255,-255,-255,-3.3116883117,2.5757575758,-7.7272727273,-7.7272727273,-7.7272727273,-6.8918918919,-6.5384615385,-7.7272727273,-6.8918918919,-5.2040816327,2.6842105263,-2.4285714286,-85,-255,-255,-255,-85,-255,-255,-36.4285714286,-23.1818181818,-2.8021978022,-15,-28.3333333333,-28.3333333333,-255,-255,-255,-255,-255,-255,-255,-255,-2.2972972973,5,4.0476190476,3.9230769231,3.0722891566,3.2278481013,3.0722891566,3.1481481481,4.0476190476,2.1428571429,-23.1818181818,-85,-28.3333333333,-85,-255,-85,-28.3333333333,-255,-28.3333333333,-36.4285714286,-2.6288659794,-13.4210526316,-23.1818181818,-28.3333333333,-28.3333333333,-255,-255,-255,-255,-255,-255,-255,-4.0476190476,2.8021978022,-51,-28.3333333333,-85,-85,-36.4285714286,-255,-2.2173913043,-2.6842105263,-28.3333333333,-85,-255,-255,-255,-255,-255,-28.3333333333,-85,-19.6153846154,-2.5757575758,-15,-255,-23.1818181818,-28.3333333333,-255,-255,-255,-255,-255,-255,-255,-4.8113207547,4.6363636364,-23.1818181818,-255,-255,-255,-255,-23.1818181818,-2.2972972973,-2.8651685393,-28.3333333333,-255,-85,-36.4285714286,-85,-85,-28.3333333333,-19.6153846154,-85,-13.4210526316,-2.7419354839,-10.2,-17,-19.6153846154,-13.4210526316,-255,-255,-255,-255,-255,-255,-255,-4.6363636364,3.1481481481,-19.6153846154,-255,-255,-255,-255,-36.4285714286,-2.4285714286,-2.8651685393,-19.6153846154,-85,-255,-255,-36.4285714286,-28.3333333333,-255,-36.4285714286,-85,-255,-2.7419354839,-17,-85,-28.3333333333,-28.3333333333,-255,-255,-255,-255,-255,-255,-255,-4.0476190476,2.7419354839,-85,-28.3333333333,-255,-85,-255,-255,-2.5247524752,-2.5247524752,-19.6153846154,-85,-255,-36.4285714286,-255,-255,-28.3333333333,-85,-36.4285714286,-19.6153846154,-2.5247524752,-13.4210526316,-28.3333333333,-19.6153846154,-23.1818181818,-255,-255,-255,-51,-36.4285714286,-28.3333333333,-255,-3.2278481013,3.4931506849,-2.7419354839,-3.1481481481,-2.8021978022,-2.8651685393,-2.8021978022,-2.8021978022,2.6288659794,2.0731707317,-17,-255,-19.6153846154,-36.4285714286,-19.6153846154,-28.3333333333,-15,-36.4285714286,-19.6153846154,-13.4210526316,-2.3394495413,-9.4444444444,-10.2,-28.3333333333,-19.6153846154,-255,-255,-255,-85,-255,-255,-19.6153846154,-2.0078740157,2.0731707317,-2.2173913043,-2.3394495413,-2.4757281553,-2.2566371681,-2.2173913043,-2.3394495413,-2.1428571429,2.8021978022,-8.2258064516,-28.3333333333,-36.4285714286,-28.3333333333,-85,-85,-85,-28.3333333333,-23.1818181818,-19.6153846154,-2.6288659794,-13.4210526316,-19.6153846154,-15,-17,-36.4285714286,-19.6153846154,-15,-36.4285714286,-36.4285714286,-7.7272727273,2.1428571429,-2.5247524752,-8.7931034483,-15,-11.0869565217,-8.7931034483,-10.2,-10.2,-7.7272727273,-7.7272727273,-2.7419354839,2.7419354839,-5.4255319149,-9.4444444444,-9.4444444444,-15,-13.4210526316,-19.6153846154,-10.2,-13.4210526316,-13.4210526316,-2.2566371681,-12.1428571429,-17,-13.4210526316,-10.2,-255,-23.1818181818,-255,-28.3333333333,-85,-2.8651685393,3,2.6842105263,3.1481481481,2.5247524752,2.6288659794,2.5757575758,2.6842105263,2.5757575758,2.5247524752,2.5247524752,3,3.2278481013,-2.3394495413,-10.2,-28.3333333333,-19.6153846154,-15,-36.4285714286,-28.3333333333,-19.6153846154,-19.6153846154,-2.3394495413,-8.7931034483,-15,-15,-28.3333333333,-28.3333333333,-255,-255,-19.6153846154,-36.4285714286,-2.04,2.3831775701,-8.7931034483,-8.2258064516,-13.4210526316,-7.7272727273,-6.5384615385,-8.7931034483,-11.0869565217,-10.2,-7.7272727273,-6.5384615385,2.1074380165,2.1428571429,-13.4210526316,-19.6153846154,-15,-15,-36.4285714286,-19.6153846154,-19.6153846154,-36.4285714286,-2.4285714286,-10.2,-15,-15,-19.6153846154,-19.6153846154,-255,-15,-9.4444444444,-4.8113207547,2.4757281553,3.0722891566,-5.2040816327,-4.3220338983,-3.6956521739,-5.2040816327,-3.3116883117,-4.1803278689,-4.1803278689,-3.4,-3.3116883117,-3.1481481481,2.8021978022,2.8021978022,-3.3116883117,-3.4931506849,-10.2,-13.4210526316,-8.7931034483,-15,-15,-15,-2.6288659794,-8.7931034483,-10.2,-13.4210526316,-13.4210526316,-28.3333333333,-23.1818181818,-255,-2.8651685393,2.9310344828,3.0722891566,3.3116883117,2.6842105263,2.3831775701,2.5757575758,2.3831775701,2.0078740157,2.2972972973,2.7419354839,2.3831775701,2.3394495413,2.3394495413,2.2566371681,2.2566371681,3.4,-2.8021978022,-15,-13.4210526316,-19.6153846154,-15,-15,-28.3333333333,-2.2972972973,-10.2,-13.4210526316,-13.4210526316,-15,-11.0869565217,-15,-11.0869565217,-2.5757575758,2.8021978022,-5.6666666667,-6.5384615385,-5.2040816327,-4.6363636364,-5.4255319149,-6.5384615385,-5.2040816327,-6.5384615385,-5.2040816327,-4.1803278689,-5.6666666667,-4.1803278689,-4.8113207547,-5.2040816327,3.2278481013,-2.0731707317,-8.7931034483,-8.7931034483,-13.4210526316,-15,-9.4444444444,-9.4444444444,-2.5247524752,-9.4444444444,-10.2,-13.4210526316,-8.7931034483,-15,-255,-255,-2.8651685393,4.8113207547,5.4255319149,6.2195121951,6.2195121951,6.2195121951,6.5384615385,9.4444444444,5.4255319149,6.2195121951,4.0476190476,4.3220338983,5.4255319149,3.8059701493,5,5.6666666667,4.0476190476,-2.6288659794,-8.7931034483,-15,-19.6153846154,-13.4210526316,-19.6153846154,-28.3333333333,-2.5247524752,-9.4444444444,-11.0869565217,-13.4210526316,-15,-19.6153846154,-36.4285714286,-255,-19.6153846154,-7.2857142857,-5.9302325581,-8.7931034483,-7.2857142857,-8.2258064516,-6.2195121951,-5.2040816327,-7.2857142857,-7.2857142857,-8.7931034483,-10.2,-8.2258064516,-8.2258064516,-13.4210526316,-9.4444444444,-10.2,-11.0869565217,-10.2,-13.4210526316,-11.0869565217,-11.0869565217,-15,-11.0869565217,-2.1428571429,-9.4444444444,-15,-10.2,-11.0869565217,-19.6153846154,-28.3333333333,-23.1818181818,-19.6153846154,-19.6153846154,-15,-19.6153846154,-19.6153846154,-28.3333333333,-28.3333333333,-13.4210526316,-15,-11.0869565217,-17,-11.0869565217,-19.6153846154,-9.4444444444,-10.2,-15,-10.2,-10.2,-15,-10.2,-11.0869565217,-15,-13.4210526316,-10.2,-2.2566371681,-8.2258064516,-7.7272727273,-8.7931034483,-9.4444444444,-23.1818181818,-19.6153846154,-28.3333333333,-36.4285714286,-19.6153846154,-28.3333333333,-19.6153846154,-28.3333333333,-36.4285714286,-15,-19.6153846154,-19.6153846154,-15,-23.1818181818,-15,-15,-15,-19.6153846154,-13.4210526316,-15,-17,-15,-11.0869565217,-17,-11.0869565217,-11.0869565217,-9.4444444444,-2.2173913043,-7.2857142857,-15,-11.0869565217,-10.2,-5.2040816327,-5.2040816327,-5.2040816327,-4.8113207547,-5.2040816327,-4.8113207547,-4.8113207547,-4.8113207547,-3.9230769231,-4.6363636364,-4.3220338983,-3.9230769231,-4.1803278689,-3.9230769231,-3.6956521739,-3.6956521739,-3.6956521739,-3.8059701493,-3.5915492958,-3.0722891566,-2.7419354839,-3.4,-3,-2.6288659794,-2.7419354839,-2.7419354839,-2.5247524752,2.04,-6.8918918919,-8.7931034483,-8.7931034483,-7.7272727273,-5.6666666667,-6.2195121951,-7.2857142857,-6.5384615385,-7.2857142857,-7.2857142857,-6.2195121951,-8.7931034483,-7.7272727273,-8.2258064516,-8.2258064516,-8.7931034483,-7.7272727273,-6.8918918919,-13.4210526316,-8.2258064516,-8.7931034483,-10.2,-8.2258064516,-7.7272727273,-9.4444444444,-8.7931034483,-8.2258064516,-10.2,-7.2857142857,-6.5384615385,-8.7931034483,-7.2857142857,-7.7272727273,-11.0869565217,-10.2,-8.7931034483,-28.3333333333,-36.4285714286,-19.6153846154,-19.6153846154,-15,-15,-19.6153846154,-19.6153846154,-36.4285714286,-15,-19.6153846154,-19.6153846154,-11.0869565217,-17,-15,-13.4210526316,-10.2,-11.0869565217,-11.0869565217,-15,-15,-11.0869565217,-10.2,-8.7931034483,-12.1428571429,-10.2,-10.2,-8.7931034483,-9.4444444444,-15,-10.2,-9.4444444444,-15,-15,-15,-15,-15,-13.4210526316,-11.0869565217,-15,-15,-11.0869565217,-11.0869565217,-11.0869565217,-11.0869565217,-13.4210526316,-9.4444444444,-15,-8.7931034483,-8.7931034483,-10.2,-11.0869565217,-10.2,-7.2857142857,-10.2,-9.4444444444,-9.4444444444,-9.4444444444,-7.7272727273,-7.7272727273,-7.7272727273,-6.5384615385,-8.7931034483,-7.7272727273,1
outputCount=7
weightIndex=0,77,10327
weights=##0
##double#10327
   -1.9216003521,2.0636163897,1.4983249143,0.1533420445,0.4743766969,-2.5036750426,-1.6545169263,3.2106874262,-2.3103028648,-0.0603708575,-24.4214352352,0.7962297264,-2.0184093859,3.1564658605,-2.3929945372,5.4690552399,1.2459580463,-1.2927219185,-2.1514009573,-1.0446092576,-1.3258193978,2.5272239733,2.1054324305,-2.4203160813,-3.0872399183,-0.8942577256,-0.9661763378,0.1202735119,-0.4001992888,2.7699197265,0.2502171673,-0.0534096628,-37.4995845676,-1.8501345653,3.1455352682,0.5913016777,2.7515567764,0.1124622494,-0.3326750962,2.2980208585,-1.4664758148,2.3631650203,3.0073404885,-1.6193128221,1.3060220732,-1.9151023566,2.0576680109,1.8428179466,2.5876968148,3.8350879964,-0.3320517348,-0.1864182918,2.8815074158,2.9930279446,-3.7897748509,1.4282480642,1.9461562827,-3.3627074245,0.1614910968,0.6919198601,0.0961536082,4.0821251009,-3.7438653862,0.1025452265,-3.0687558644,-20.9526314611,0.2250146754,0.5811342292,0.3421854775,-2.6358916944,-0.9070307454,4.1508637344,5.5347129691,0.4037464969,-1.5874222538,-0.9581008764,0.0463928061,0.0163344177,-0.0746397434,-3.0770695096,-0.246705823,-0.0266591434,-0.0037355099,-0.0070664289,0.0292246832,-0.0057843729,0.0447510191,0.026544192,-0.0452737809,0.0290759495,0.0173673966,0.0364197906,0.0331564452,0.0181328086,0.0266958497,0.0333691034,0.0277594277,0.0210394342,0.0131784929,0.0129597626,0.0125344269,0.0143106229,0.0006769332,0.0357124154,0.0428632047,0.0303133109,0.0961921829,0.1877447445,0.0730433473,0.0200260107,-0.5137293515,-0.0574967378,-0.2322129664,-0.1193983569,-0.1161913684,-0.1209673053,-0.1210370294,-0.1215903743,-0.1207713839,-0.116686174,-0.1246703481,-0.1198983169,-0.1250137576,-0.1164834332,-0.2271808502,-0.133212214,-0.2109366519,-0.1196591439,-0.1189642791,-0.1196226718,-0.2113449405,-0.2280103943,-0.1182689687,-0.2142968243,-0.0629210508,-0.2248766729,-0.1594197235,-0.1216255876,0.2239293416,0.2455924091,0.6524899238,-0.0326509083,-0.0256067365,-0.0694929208,-0.0751225307,-0.0231341226,-0.0448180801,0.000687698,0.0005918147,0.0166670396,0.0154013376,0.0134781458,-0.0078008806,-0.0025247337,-0.0147740877,-0.0436651601,-0.0045438561,-0.0744623537,-0.0091775459,-0.0794039741,-0.0567456429,-0.0061991287,-0.0059292155,-0.0470979275,-0.0062824912,-0.0056239485,-0.0679851811,-0.0782943693,0.0165610092,0.0010422448,-0.0040180816,0.015821619,0.0290854928,-0.0359038393,-0.037960819,-0.0756153822,-0.0476019178,-0.0260899439,-0.0261939256,-0.0256881701,0.0146684869,-0.0052600833,-0.0056036485,0.0005713537,0.0009710659,0.0010721457,0.0034002524,-0.0038396389,-0.0032658772,-0.0032497004,0.0010404385,-0.0024483858,0.0006403036,-0.0007596635,-0.0059575909,-0.0055620005,-0.005633463,-0.0448031801,-0.0138164941,-0.0137331056,-0.0311286837,0.0220261038,0.0014341063,0.0407770829,0.0307080812,-0.0855693059,-0.0476109416,-0.0489518203,-0.0259894046,-0.0262313064,-0.0261080687,0.0008618555,0.0005041776,-0.0055521892,0.0216824702,-0.0257671804,0.0217809474,0.0003498063,0.0227570475,0.0023291445,0.0083674427,0.0030945051,0.0051370498,-0.0024067483,0.0012063709,0.0011699972,-0.0054802456,-0.0059113526,-0.0055046749,-0.0056248231,-0.0054992708,-0.044728686,-0.0312442963,0.0224906146,0.0021393737,0.2766017725,0.037540745,-0.0350715762,-0.0299156029,-0.0479802967,-0.0264021282,-0.0256743872,0.0002320229,-0.0010672985,0.0007097968,0.0004827545,-0.0272852827,0.000814554,0.0002388931,0.0005182279,-0.0273647803,-0.0001655849,-0.0009490504,0.0103000754,-0.0256905868,-0.0362489297,-0.0251810854,-0.0258876705,-0.0065979608,-0.0055554692,-0.0069808281,-0.0687832368,-0.0682712639,-0.0684183551,-0.0008584791,-0.0277964063,0.0009559154,0.0375477313,0.0015505356,0.0270024418,-0.037986457,-0.0474177348,-0.0262189185,-0.0256445367,-0.0099488468,0.0005354156,0.0217991566,0.0010884766,0.0009026413,0.0801891127,0.0352541125,-0.1599541093,-0.1647412104,-0.0429269691,-0.0526154488,0.2364307632,-0.0175745737,0.0059605186,0.0007175108,0.0008963262,-0.044683264,-0.006863737,-0.0448446208,-0.0416156384,-0.0061049261,-0.0446669974,-0.0008353306,0.0219213539,0.0650305529,0.0095286933,0.0002275055,0.0289136726,-0.0319081751,-0.0459980793,0.000558435,-0.0277670301,0.001130119,0.0218666232,0.0024081699,0.0217857817,0.0002101936,-0.0524932533,0.0000627395,-0.009821624,-0.0461556613,-0.0096190152,0.0152917974,-0.0559362359,-0.022754062,0.0791183652,-0.0011869166,-0.0002582346,-0.0480606821,-0.0452224481,0.0171527089,-0.0165665403,-0.013728416,-0.068409741,-0.0008976285,-0.0265243267,0.0009301127,0.0281275397,0.0005683752,-0.0400746949,-0.0290452006,-0.0473932411,0.0004726472,-0.0256050258,-0.0009109012,0.0816652862,0.0017985852,-0.0000082909,0.0008644024,0.0212416584,0.0004256647,-0.0370498466,0.0002277616,-0.0348253204,-0.0507613997,0.0074167996,0.0129995679,0.0148483977,0.0006953163,-0.0029279364,-0.0072334988,-0.0065814099,-0.0062272947,-0.0144175287,-0.0137182682,-0.0684245743,-0.0016350936,0.0200614589,0.3544490006,0.1469803821,0.0016838371,-0.0385913988,-0.0523311277,-0.1034676103,-0.0258561181,-0.025636828,0.001142906,0.0011322818,0.0829756408,0.0007677314,0.0454146337,0.0778027047,-0.0006367564,-0.0299966458,-0.0259676759,-0.0727909524,0.0028531326,0.06452939,1.4981049777,0.2907661121,0.0183937685,-0.0269753286,-0.0482641405,-0.0458262036,-0.0051207069,-0.0689811415,-0.0684118856,-0.0683675723,0.0004545583,0.13802482,0.0250191655,0.0228102821,-0.0380908116,-0.0805287663,-0.0362506142,-0.0478047557,-0.0474297851,0.0315791426,-0.0008350957,-0.0014309885,0.0046861417,0.0066156821,0.0019871259,-0.0006924678,-0.0303364385,-0.078998961,-0.076446402,-0.0727331271,0.0005746966,0.0246878773,0.308070093,0.0037355676,-0.0452733896,-0.0076368695,0.1130588221,-0.0066234916,-0.0145151941,-0.0749568811,-0.068891521,0.0162081003,0.006928242,0.0010666985,0.0008523183,0.0197155475,0.0047949621,-0.0452428874,-0.0256203905,-0.0459532473,-0.0453894842,-0.0452520604,0.0008972797,0.000986627,0.1344117351,0.10383875,-0.1142393947,0.0002988435,-0.0081017902,-0.0448677971,-0.083668266,-0.0145054716,0.0314719081,2.1671461248,0.4254983777,0.0287519026,-0.0155009068,-0.0074706951,0.0456528994,0.0107526377,-0.0180847857,-0.0746886012,-0.0164062746,0.000577362,0.0211148562,0.0219981472,0.0217877367,0.0621973184,-0.0381478913,-0.0425229671,-0.0373000845,-0.0694946722,-0.0454746443,-0.0472571362,-0.0057297983,-0.0009976731,0.0173718739,0.1847101901,0.0074242123,-0.0070256808,-0.0644083906,-0.084266993,-0.0652888167,-0.081975706,0.0513452354,0.0495806681,0.0666957392,-0.1741502875,-0.0144279451,-0.0063945266,-0.0005484273,0.1004459364,0.0072486924,-0.0752010337,-0.0142123524,0.0018002517,0.0055285534,-0.011810357,-0.015276863,0.0244524798,-0.0540859195,0.0217917605,-0.0754023874,-0.0478249615,-0.007070483,-0.0055431312,-0.0141307356,0.0010815842,-0.000223902,0.0537937657,-0.0112840032,-0.0314117798,-0.0462171544,0.0312229255,-0.1218175523,-0.4506847389,0.1151240957,-0.9613895575,0.0705913021,-0.3656662156,-0.0143231525,0.053086545,-0.0094250016,0.0919227641,0.0963065693,-0.0747443528,0.0387327729,0.0022577661,0.022931642,-0.0000835565,0.0295684858,-0.0004573676,-0.0405846494,0.0104198927,0.0171694656,-0.0754415091,-0.0477861837,-0.0686200496,-0.0056817792,0.0009105792,0.0026976745,-0.0118638219,-0.0089115582,-0.0045231731,-0.0064776196,0.010472514,-0.0196187809,0.0045323174,0.0643894107,-0.013852004,0.0677183133,0.6323114125,-0.0138765051,-0.1013715809,-0.0151271938,0.1145617861,0.0040434903,0.0423472955,-0.0088965283,-0.016653558,0.0004098833,0.0005741576,0.0245553475,0.0261588394,-0.0410717867,0.0177122963,-0.0325701262,-0.0696708568,-0.0691809733,-0.0780308737,-0.0140005258,-0.0017483231,0.0020066905,-0.0139030576,0.0201833454,-0.0055066887,-0.0129619345,0.0148846389,0.0044890168,-0.0091805158,-0.0296320124,-0.2241488478,0.0673112347,0.0590677031,-0.1150308562,-0.0160792677,-0.0083696277,0.0132261455,0.012672217,-0.0035750027,-0.0156286542,0.073415939,-0.0010881335,0.0041325791,-0.0027726776,-0.0413842943,-0.0377742622,-0.1389508899,0.3949467441,-0.0458633906,-0.0071086395,0.1001479949,0.0830070484,-0.0054715976,-0.0011386216,-0.0139466967,-0.0076233873,0.0316460102,0.1180124347,0.0446053795,-0.0453348149,0.1147627372,-0.0185931341,0.3613788654,0.0663266495,-0.0159836234,0.0462071537,-0.0054503782,0.0071784369,0.1391758247,0.1211869598,-0.008845436,0.0032531974,0.0755998106,-0.0021019393,-0.0001487993,-0.0022048845,-0.0386933259,-0.0159413987,0.0294693074,0.0457966241,-0.0696908993,-0.0061057651,-0.045219899,-0.0258433841,-0.0052079426,0.0638070061,-0.0151821683,-0.014962758,-0.0108593105,-0.0382600193,0.0130355269,0.0678364199,-0.0050872284,0.0020315574,1.3644868941,0.5203305095,-1.1822209739,0.0128164988,0.0118676668,0.0120061607,0.563871386,0.0142421387,-0.004591761,0.025226701,0.075164312,-0.0023149183,0.0005738115,-0.002793524,0.0071347873,-0.0430256972,0.0287320181,0.0232780872,-0.0492219447,-0.0062224029,0.0895714929,0.1134935785,0.1147957333,0.4324533849,-0.0057393444,0.2379092193,0.0239223975,-0.1008323652,0.1329011539,0.0004868031,0.0210516906,0.0696133918,-3.5356692798,-0.1974622072,-0.0386161258,0.1649829279,0.1661040218,0.1663343699,0.1736850809,0.1692491718,-0.05788888,-0.010645144,0.0760153678,-0.0021115582,-0.0023799175,-0.0023000168,0.0103342416,-0.0413927136,-0.0300195694,0.4528664902,-0.0776595036,-0.0061987283,0.0861270926,-0.0003683028,0.1325585553,-0.0022478311,0.0201186658,0.0131195512,0.0194173223,-0.3920244252,0.0218212872,-0.0020248052,0.0225528653,0.0844706925,0.1250898598,0.0727114493,-0.5145760507,0.1661111612,0.1662594947,0.1663328052,0.1670791021,0.165826422,-0.0055313605,-0.0102614994,-0.0016258217,-0.0466342262,-0.0001874972,0.0000158508,0.0007339017,-0.0038549639,0.0329071767,0.0234271306,-0.0772439818,0.0003677808,-0.0342250081,-0.0004362287,-0.0018231652,0.1271111339,0.0164298998,0.0215540745,0.0192844814,0.3510719732,0.0014278004,-0.0155079784,-0.773867812,0.367688104,4.0630843279,-0.4547559865,0.750198844,0.2169337865,0.0128621966,0.1939552898,0.1754397993,0.1697254993,-0.0027080544,-0.0693789365,-0.0024258452,-0.0028719237,-0.0025381231,-0.0005799092,0.0065342118,-0.0430506577,0.0284934859,0.0261402016,-0.048197952,0.000181836,0.1011651525,0.0333119988,0.1236051707,0.1871136897,-0.0137783214,0.0104000089,0.2567885789,0.030121636,-0.0025197464,-0.0015505025,0.0709086525,0.0534947166,1.1168844018,4.1914649865,0.0070489744,0.1773639517,0.118368458,0.0128786292,0.0127041737,0.0129314253,-0.0097499483,-0.0453487546,-0.0017556929,-0.0464073124,0.0018673989,-0.0016829323,0.0156648479,-0.0455992397,-0.0445202294,0.024196271,-0.0763463621,-0.0592922327,-0.033900698,-0.0022112553,-0.0016599118,-0.005787179,-0.0221161416,0.0814601574,0.0464432401,0.0126321657,-0.0023690166,0.0284573962,0.0582398261,0.0598501465,0.5406578186,0.2553144834,0.3322422064,-0.0120317129,0.1335669117,0.1717233444,0.0128993948,0.0096615306,0.0988118464,-0.0760334161,-0.0022016597,-0.0054458142,0.0004699605,-0.0027588473,0.0002877724,-0.0433207933,-0.0564279172,0.0260324776,-0.0343301573,-0.0613612586,-0.0010905773,0.1235408604,0.079388053,-0.0060825835,-0.0256068533,-0.225234681,-0.8924616235,0.0049501346,0.0686104185,0.0037446906,-0.2178341014,0.0066526877,0.0000951276,0.009808214,0.0579765136,0.1190673992,-0.4128076545,0.3125297937,0.1554065045,-0.0111012862,-0.0767397874,-0.0757709787,-0.0346271102,-0.0336636198,-0.0027024507,-0.0018057708,0.0018137846,0.0822921831,-0.0574969474,0.0311114884,-0.0446698719,-0.0005862711,0.0806224302,0.1225388004,0.006833733,-0.0031179086,-0.022857755,-0.0626519256,-0.9759343245,0.4893481294,0.6140764955,0.1514328461,0.1700969782,0.1634182443,0.6624192538,0.3925711763,1.1556058762,0.3666918519,-0.677920273,-0.0410185264,-1.1902175377,-0.2097993205,-0.1424207571,-0.0381914306,-0.0033060326,-0.0334756655,0.0010504668,-0.0019419707,-0.001115055,-0.0431518963,0.0111140759,0.0238593275,-0.0445331948,-0.0334289169,0.1037376424,0.0003407977,0.0089419288,-0.0014763035,0.0007255179,-0.0557558177,-0.1298190483,-0.0144555548,-0.0322692919,0.0005333961,0.0199117574,0.0728204212,0.0540074185,-0.0247293308,-0.026930375,-0.0288981752,0.3216857481,0.1128725177,-0.0116030305,-0.0436716828,-0.3444904694,-0.3945785931,-0.0344528637,-0.157912497,-0.0400588581,-0.0028038818,0.0087436006,-0.0437496646,0.007245752,0.0320284379,-0.032172015,0.0993070129,0.1032559506,0.1315621685,0.000264815,-0.0022892494,0.4407386295,-0.0006030208,0.0592155895,0.1351119693,0.3612003564,0.0136991498,-0.2512445462,-0.0287834634,0.1223477148,0.1235934739,-0.0040045812,-0.0083377313,0.124561551,0.1315899454,0.1330947385,0.1120754988,0.1381889649,-0.2616557662,-0.0027924029,-0.0243286948,-0.0020704075,-0.0024315359,-0.0011866018,-0.0437915733,-0.0449231327,0.0261971567,-0.034725375,-0.0329915612,-0.1853297737,-0.0010337032,0.0118506339,-0.0025024614,0.0945479845,0.0085308066,0.1227858776,-0.0409071107,0.0383343927,0.0283107633,0.0005193273,-0.0179264005,-0.0674099699,-1.1181481223,-2.5574718592,-0.0440436027,-0.0202425508,-0.0270281771,-0.083896248,-0.0974207061,-0.0082776828,-0.1511280268,-0.0442542052,-0.0034124927,-0.0214769359,-0.0173857143,-0.0018391437,0.0832046049,-0.0564450219,0.0021198467,0.0366026316,0.0912630436,0.0093081191,-0.0000929812,-0.0275596944,0.0364419766,-0.0111841578,0.0288633988,0.0304003522,0.0350842273,0.074837381,-0.0193060847,-0.0324705605,-0.0206087966,0.0118233149,0.0023002548,0.0137102115,-0.0021755996,-0.0025642479,0.0317431136,0.0296410379,0.0306884511,-0.0943913255,-0.0473911296,-0.0346887612,0.0637824538,0.0529945078,-0.299633558,0.0480853678,0.0861588278,0.0372357562,-0.0570105037,-0.086477723,0.1011991231,-0.0276748098,-0.0540510881,-0.0541038838,-0.0558308473,-0.0019773037,-0.0472090728,-0.0467608291,-0.0468490411,-0.0451917668,-0.0471391335,-0.0472426921,-0.0471897929,-0.0249514461,-0.0436260594,-0.0469744908,-0.0470120266,-0.0448785426,-0.0474803715,0.0804298153,-0.0473183847,-0.0565339574,-0.0575865478,-0.0464057613,-0.0815250747,-0.1556533354,-0.0237528294,0.0160263121,0.0608082549,0.0156006821,-0.0429435639,-0.0470539678,0.0677533456,0.0649153574,-0.0172290557,-0.139581533,-0.0396603815,-0.0551310806,0.1111441248,0.0633704331,0.1082784901,-0.0159684931,-0.0196711014,-0.042556415,-0.0255599031,-0.0201148592,-0.0183521856,-0.0165294159,-0.0554462478,-0.0549159921,-0.0514743772,0.0677369447,-0.0614693253,-0.0570689081,-0.0598419949,-0.0536311558,-0.5175448565,0.1096989131,-0.0569816878,-0.3200406645,0.2579598962,-0.0007925326,0.0476908297,-0.0325369155,-0.0566034408,-0.0461048842,0.0676199686,-0.0653872895,-0.0573804936,-0.06504971,-0.0669530259,0.097366948,0.0686787915,-0.0562685034,0.0972293075,-0.0678601207,-0.0700753435,-0.0850305745,-0.0303164243,-0.0650727555,-0.0224937493,-0.0667329952,-0.0544798218,-0.0762355233,-0.0425151347,-0.0551747289,-0.0319790632,-0.045107517,-0.0675101782,-0.1742416912,0.8295964561,-0.0424431931,0.2358508855,12.5072500106,-0.4323621346,-2.8078549786,2.4790182079,0.330016087,0.0593168812,-0.0119086627,0.085463001,0.0623685719,-0.0755330338,-0.0860852891,-0.0771546142,-0.0754197629,0.1489899729,-0.1218197577,0.1951506682,-0.0886819481,-0.0839940072,-0.0475746046,-0.0263092918,-0.0308952409,-0.0478786958,-0.0087288644,-0.0342126324,0.1302379276,-0.0218659215,-0.0495045707,-0.0354607264,0.262911605,-0.0420737284,0.1261707848,-0.050055221,0.0002616935,0.0426570307,1.7932929301,0.2549864633,-0.2187449514,-0.3859488067,-0.3814601704,-0.3232291525,0.3875995811,-0.3842088783,-0.3826415223,-0.3890426913,-0.3979587599,-1.2059401767,-0.3863600238,-0.3832815995,-0.2121627877,-0.2644820998,-0.3873258225,0.1053676027,-0.3795330005,-0.392830232,-0.2378121576,-0.384814303,-0.2763630902,-0.2738115413,-0.307235968,-0.2561996255,-0.5467900271,-0.205746232,-0.2017595154,-0.061255427,-0.4948787296,0.1424150657,0.0214390159,-0.0870758817,-0.0885862388,0.0423131742,-0.0134366046,-0.0119257555,-0.0108319945,-0.0131102776,-0.0137600879,-0.0091557808,0.0222376107,-0.0160839488,-0.0143063424,0.0171140442,-0.0095801243,0.014716336,-0.0080537455,-0.0093815125,0.0575697752,-0.0073890999,-0.0141279617,-0.0109241755,-0.0136945419,-0.0129117316,-0.0110391097,-0.0100427368,-0.0148195645,1.1914616896,-0.0115678784,-0.0114594488,-0.0127830234,0.0333559186,0.0129665241,-0.0916212652,-0.079910069,-0.0840734081,-0.0105761001,-0.0100549303,-0.0185532828,-0.0312351026,-0.0128005779,-0.0141513919,-0.0078021232,-0.0007704473,-0.0178161669,-0.0080568041,-0.1763258684,0.0020761166,-0.0064791421,-0.0222297321,-0.0054718232,-0.0076984507,-0.0161427223,-0.0114442177,-0.0072575773,-0.0097739429,-0.0145872875,-0.0140820298,-0.0132310435,-0.0132535313,-0.0139534361,0.0358045235,-0.0087981627,0.0380171345,0.1000740701,0.2899269944,-0.0877452506,-0.0870917356,-0.015869573,-0.008409834,-0.0098339051,-0.0117868946,-0.0136901332,-0.0085242539,-0.0045700639,-0.0118153433,-0.0097281758,-0.0225290138,-0.0753963323,-0.1707771554,-0.0067347739,-0.019962548,-0.0111782915,-0.0094675111,-0.0142407491,0.010188769,-0.0139168196,-0.0112447248,-0.0059187794,-0.0137548457,0.735778757,0.0705521364,-0.0057278751,0.0358763344,-0.0054300157,0.0554896298,0.0764589816,-0.0792460771,-0.0870950682,-0.0878257572,-0.0056992622,-0.007684462,-0.012015274,-0.0054509599,-0.0061964819,0.0472532421,0.0256777988,0.0552495366,0.0018593447,-0.0019230345,0.1125127046,-0.0036334264,0.3103688925,-0.0188704463,-0.0324073982,0.0761473302,-0.0075316293,-0.0021755687,0.0163813094,-0.008823592,-0.009582247,0.2467141073,-0.0089693633,0.0312914851,0.2218761998,-0.0047027635,-0.0097988225,0.0788473618,-0.3576914795,-0.091667828,-0.0910565061,-0.0879616155,-0.0123074459,-0.0126935482,-0.0144283513,-0.0144241809,-0.0071654706,0.0605446824,-0.0409864055,0.3376456804,-0.0198473289,-0.0499141854,1.2135998996,-1.0601299103,-0.0027830222,0.0172620503,-0.0077929213,-0.0611795426,-0.0142927911,-0.0131954933,-0.0913536125,-0.0128008295,-0.0000572262,-0.0901684307,-0.0137071579,-0.0039198558,-0.0104346878,0.0365464449,-0.0120274307,0.0506101246,0.0063907916,-0.0750996463,-0.0911995948,-0.0874894957,-0.0127528442,-0.0165485449,-0.0658298004,-0.007425892,-0.0113300042,-0.0105258273,0.0357167697,0.4220316749,0.0216039712,-0.0695094575,-0.3266046784,-0.040122411,0.4789143064,0.1265744544,-0.1563724403,-0.0004531097,0.4165396634,-0.0121569378,0.0574462138,0.0145291868,0.1791293862,-0.0520445474,-0.0104149297,0.128857774,0.0042036346,0.1316977867,-0.0099664917,0.0244108471,0.0090193618,-0.0876146718,-0.086143819,-0.0904479527,-0.0168833016,-0.0195641689,-0.0207012517,-0.0122474617,-0.0123539964,-0.0033834371,0.003796719,0.0756644295,0.1891845924,-0.0629992205,0.1222296677,-0.0079586511,0.0766835913,-0.519825275,-0.5787969473,-0.0311418403,0.0999780193,-0.0046845219,-0.0084801741,-0.0064768292,-0.0029069618,-0.0874580619,-0.0034121466,-0.0048977996,0.0050152946,0.1311440503,-0.0074720183,0.0270706608,0.3782507743,-0.0901086311,-0.0892602384,-0.1014759332,-0.0126833951,-0.0334057764,0.0183128849,-0.012396827,-0.0123189903,0.0569091263,0.0219656912,0.1013660258,0.1535325457,0.1238855926,0.0508520932,0.2037917355,0.0859320769,-0.1474444824,-0.7378172785,0.1549732954,0.1477908784,0.4452724638,0.0674028529,-0.0920180742,-0.0833333793,-0.0484012733,-0.0121619593,0.0708778064,0.0033637679,0.0404408501,-0.0316736043,-0.2450481982,0.0014304212,-0.0822058057,-0.0833227493,-0.1011780722,-0.0126643312,-0.0115900647,0.0176636933,-0.0070269196,0.037097789,0.1855586985,0.1089405086,0.0815508624,-0.0584343578,0.0643809242,0.0236501967,0.1053509286,0.0985646894,-0.080060558,-0.0097531697,0.2758843789,0.0555410932,0.0026692718,-0.0127646823,-0.3844310228,-0.0172885166,-0.0116642209,0.0143098213,0.0037102207,0.1967726622,0.0670567368,-0.0074897631,0.0189635444,0.030999787,-0.0991587699,-0.0929525875,-0.0413763118,-0.0153411213,0.2342381322,0.046679911,-0.206983624,-0.1383417006,0.0199845934,0.2314955087,0.0182261679,-1.1601963201,0.3029898541,-0.0921305798,-0.0180458867,-0.0143094106,-0.1021132993,0.0234038526,0.1747101999,0.0520364653,0.3412877046,-0.0054300028,-0.1154573964,-0.010872925,-0.0218647043,-0.0152935728,-0.0035365278,-0.0161085154,0.0145011739,-0.0356332562,0.0333680793,-0.0096410107,-0.0951502493,-0.0886269533,-0.08694793,-0.0115020288,-0.0110403076,-0.0095860324,-0.0147738343,0.004713488,0.0341661863,0.0682733703,0.0608195272,0.1895711504,0.0146325384,0.0269433434,0.0028420983,-0.0067082553,-0.0301148,-0.0831912673,-0.0280671312,-0.008997486,0.3538281478,-0.0456327157,-0.1204477042,-0.0093191829,-0.0160768311,-0.0086748411,-0.0005509781,-0.0117126207,0.05702884,-0.0357409073,0.0319896844,-0.0079140147,-0.1238599824,-0.0384806157,-0.0919317567,-0.011591503,-0.0121752125,0.1037702598,0.0108338283,-0.0085602671,0.0009212244,0.0187742107,0.2303790615,-0.0041477,0.0140650611,0.0045611099,0.003702555,-0.0621865681,-0.0865884226,-0.0415028217,0.1591866423,-0.0172961167,0.0169824131,0.7365054386,-0.1438413681,0.050187804,-0.0153265972,-0.0144316451,0.0051728335,-0.0106412803,0.1509527672,-0.0359246597,0.0361390512,-0.0082859921,-0.1304919424,-0.0885867576,-0.1010133912,-0.0111126626,-0.0114367506,-0.0095422944,-0.0106606262,-0.0079933829,-0.0105922747,0.036091517,0.0673114191,0.0148021694,0.0032469475,-0.0009274296,0.0681476335,-0.0113112587,-0.043558054,-0.0263004714,-0.0404672198,0.1936696189,0.0113756382,-0.0530833877,-0.1023914336,-0.0114139035,-0.0153414187,-0.0135870434,-0.0157878886,-0.0105897264,-0.0096389219,-0.0357678383,0.0174687855,0.0140989128,-0.0925035102,-0.0882487215,-0.0907735748,-0.0123279439,-0.0120229737,0.0384402787,-0.0010291499,-0.010143142,-0.0115409182,-0.0576159015,0.0255601081,0.0144882392,0.0895640079,-0.0016037524,0.0083478947,0.0128632593,0.017480298,0.0228327856,-0.0386907027,0.0101176663,-0.0447686836,-0.0570640873,-0.1613081931,-0.0137354618,0.0482488486,-0.0170505795,-0.0030788292,0.1142156941,-0.011139074,-0.0336016789,0.0336830169,-0.1277521635,-0.0888998366,-0.0737897056,0.0230565855,0.0992527829,-0.0067328177,-0.0140953099,-0.0120191014,-0.0140217103,-0.0190897714,-0.0373878763,0.0106601064,-0.073932077,0.0161436643,-0.0049276344,0.0016365126,0.0121217237,-0.034882726,-0.0876429363,0.0139158129,0.2464087351,0.1421305006,0.0094905863,-0.1931296136,-0.0140468763,-0.0673737228,-0.0142756554,-0.0044756198,-0.0165778007,-0.0132805407,0.0940679121,0.0243914816,-0.1151041785,-0.0932581245,-0.0898522607,-0.0913692972,-0.0144618329,-0.0137467477,0.3941797254,-0.0088379293,-0.0130149683,-0.0163278606,-0.0773399343,0.0129362985,-0.0797644283,0.0371426463,-0.0028343937,0.0253903667,0.0354229882,0.1914270197,0.0862559915,-0.0386347084,0.2352917168,-0.0974626146,0.0744064626,-0.1037961457,-0.0143130463,0.0885910722,0.0246704554,0.0425692652,0.0075853839,0.0562731729,-0.0297702954,0.0251015317,-0.0366377838,-0.086927592,-0.0920708395,0.0363938069,0.0988419159,0.0505211905,0.3429531651,0.0978214418,-0.014033,-0.0211974645,-1.2725054011,-0.1416661751,-0.0881944285,-0.0187637245,-0.1044139927,0.0229610185,0.0057807422,-0.7065042106,-0.8355243191,0.1129569478,0.2038133223,0.1688752593,0.0925128834,-0.1382036238,-0.0159917893,-0.07005484,0.1043856453,0.0662258306,-0.0112800263,0.0038065187,0.0064817002,-0.0245886865,-0.1222832709,-0.0709087189,-0.0899303717,0.0217612344,0.0997834249,0.0888354169,-0.0128682031,-0.0125601112,-0.0140853017,-0.0149795531,-0.0703117075,-0.6850932836,-0.0429586089,0.0057957033,-0.0133661243,0.0760594793,0.0427370245,-0.1932397753,0.1630060923,-0.1054493949,0.2307119682,0.2248800628,0.0897914268,-0.2054139008,-0.0205997023,0.0259266442,-0.0117305843,-0.0023212135,-0.0033692504,-0.0069624213,0.1003587818,0.0266712151,-0.0784832653,-0.1052299203,0.0327400954,0.0378854214,0.0998063903,0.0945572422,0.1003436321,-0.0133719312,-0.4426928056,-0.0151818275,0.0636657928,0.0297839529,0.2708246272,0.0128106137,0.0582903089,0.0051811365,0.0266599713,-0.0634826752,0.1731780872,0.0076664878,0.2258102253,0.1997258694,0.0421122117,-4.0440834668,-0.0832264788,-0.0092118796,0.0786221821,0.0017170092,0.3787518969,0.0591517284,0.0430512389,0.0236778164,-0.1348874984,-0.0974723692,0.0389669997,-0.1103046211,-0.2343974243,0.0936610792,0.0954877585,0.0818172302,-0.0144388399,-0.1864738732,0.0105114489,-0.1214013308,-0.0466387989,0.010414746,0.011716432,-0.0054249216,-0.5374494381,0.0210901878,-0.0943907364,-0.1068183966,-0.0150838818,-0.0251472891,-0.0283688026,-0.2137664401,-0.1619141602,-0.0164479154,-0.0036657226,-0.012374848,0.0626845464,-0.0089542586,0.0253101041,-0.0107971365,-0.124280304,-0.152525958,-0.1022089958,0.0196378963,0.0955955904,-0.0809763257,0.0992366159,-0.0208716815,-0.1317142233,0.0225519901,0.0079574548,-0.0063268151,0.0062088446,0.0078788218,0.0095995903,0.0045584786,-0.5063460629,-0.0294798308,-0.0017105829,0.0057621216,0.7376488661,0.0088819368,-0.0158123534,-0.0607328733,-0.3890981052,-0.013611907,-0.010396555,0.0420469531,0.869369457,-0.0024480095,0.03926646,-0.0152884986,-0.1217925799,-0.0927106161,-0.1295631459,-0.1100885599,0.0884737202,0.0107316012,0.0790109948,0.0027321583,-0.1442656162,0.5789001086,-0.2192040648,-0.0825348681,-0.147277957,-0.093211975,-0.1029874257,-0.0405553511,-0.1681608324,-0.0329339764,0.1235115857,0.2298538042,-0.2143982542,0.3345207654,0.0182740796,0.0093744792,-0.1125788976,-0.0942543765,2.0378341983,0.0033813747,-0.0070204424,-0.0077593649,0.0993670182,-0.0149419258,-0.1192053033,-0.1272181057,0.0319872159,0.0207188027,0.0984693741,0.0356133451,-0.0241545812,-0.1307490802,-0.0226636813,-0.0318038659,-0.4538364737,-0.0040175937,-0.0094635525,-0.0143110261,-0.0169445147,-0.2501696832,-0.1158269511,-0.0115747721,0.0528550988,1.0780158587,0.2045370317,0.5518669919,-0.0093519791,-0.1004393779,-0.3310004887,-0.0146421489,-0.0896650949,0.2671622567,-0.0093174491,-0.0132345435,-0.0141671591,-0.0239628644,-0.1168657027,-0.1124180977,0.0354592482,0.0321701062,0.0980295124,-0.0581503155,-0.0186018789,-0.1659768512,0.8663269743,-0.9927007825,-1.7522143519,-0.1219290548,-0.1133725153,0.0120035649,-0.0513016074,-0.0583557183,0.0026507589,-0.0102225876,-0.0348437045,0.1604511098,-0.5386216551,0.500820576,0.269266574,-0.1665473217,-0.1317528009,-0.0139271071,-0.0907467015,0.005031798,-0.0030888497,-0.0113991984,0.0306396151,-0.014718819,-0.1183649383,-0.0760685406,0.0350041379,0.031100145,0.0891850841,-0.0166198913,0.1020745495,-0.720477218,-0.0480820594,0.0793603427,0.0108476509,0.010741482,-0.0205809898,-0.0478316428,2.5451613943,0.0810277857,0.3709921711,0.4425078705,0.2315558236,0.2642219242,0.3413687099,0.3547635021,-0.014284116,0.325275724,0.1335420751,-0.1675882068,-0.0170276541,-0.0120735796,-0.0128225143,-0.0123008373,-0.0164209673,-0.0225949413,-0.1046469081,-0.075978989,0.1072412115,0.0412937314,-0.0124002816,0.0043328221,0.0535339842,-0.2039580118,-0.529414588,-0.1637208331,-0.0130314466,-0.0091949009,-0.6818788986,-0.0117396821,0.1415930207,1.3019170906,0.021942333,0.4178752884,0.8940863874,0.024175757,-0.0111634102,-0.0155880006,-0.0060447346,0.0012227202,0.0962038728,-0.0180531175,-0.0033673525,-0.0139716426,-0.0148531654,-0.0077633755,0.007461663,-0.0266631231,-0.109627894,-0.157304175,0.0337636817,0.0346789869,0.1027604761,0.0939799743,0.0764272599,-0.1840847398,0.0077044357,0.0602262324,0.0567970967,-0.2392592514,-0.0947398218,-0.0154042879,0.0891555778,0.9720579736,0.3312704296,-0.0103916642,-0.0412610274,-0.0110421481,0.0217091923,0.5187929611,-0.0832160769,0.3392447875,-0.0150592184,-0.1594874551,0.3438158098,0.7859987354,-0.0121050886,-0.0135368345,0.2250400528,-0.3554514575,-0.1196993213,0.0415821082,0.0429099676,0.0317896118,0.0973321768,-0.0198666673,-0.0195881132,-0.0139555594,-0.018358156,-0.0231857474,-0.0865685952,-0.0151445817,-0.0175147511,-0.0121423673,-0.0196501552,-0.0291837116,-0.0223039301
   -0.0662677843,-0.0168745207,-0.0196423806,-0.0806789451,0.0531522171,-0.085179681,-0.0152072818,-0.0083146643,-0.0126172634,-0.0133416353,0.0002738173,-0.0122343511,-0.0188452536,0.1940968754,-0.0071402539,0.1773790473,0.0361128988,0.0410175403,0.035904339,-0.0063341844,-0.0148018995,-0.0157794467,-0.0974907552,0.0987565799,0.2184846931,0.1021720679,-0.0147075544,0.0081966803,-0.0040253146,-0.0158654977,-0.0083385117,-0.0112879808,-0.0005828069,-0.0055203247,-0.0121361567,-0.0065227795,0.0332505803,-0.0137670899,-0.1074798288,-0.1446353491,-0.1272552602,0.1599926408,-0.126899765,-0.1046254928,-0.0179847451,0.0263742609,0.0290201673,0.0257766092,-0.0180509311,-0.0868533186,-0.2444463598,0.1033391963,-0.012447448,0.0865009307,-0.0215588575,-0.0087617697,0.0787212687,0.0863633125,-0.0189600701,0.0483543655,-0.0192392229,-0.0197811768,-0.0075406569,-0.0221749704,-0.0260331157,-0.0212593204,-0.0135612067,-0.0384090501,0.0691128821,-0.1952232005,0.0225473097,0.0278113525,-0.0163500429,-0.0171108974,-0.2371954328,-0.0423170122,-1.0618800047,-0.0256778526,-7.6655512485,-0.2387491821,-0.1302797095,0.0438497627,0.0020656563,-0.0051453018,-0.0052542896,-0.011987264,-0.0212654559,-0.0103259395,-0.0037164411,-0.0096824262,-0.0036356615,0.0201439039,0.020062416,-0.0030985706,0.0319497017,0.031964865,0.0319627287,0.0707269749,-0.0546244542,0.0013840202,-0.0177856519,0.0010827389,-0.0204380923,-0.0057682393,-0.0032753826,-0.0085918185,-0.0054265948,0.0052440925,-0.0766203873,0.0017258558,0.0286351402,-0.9337659002,0.0641496879,-0.1268586291,-0.0710456719,-0.0917302244,-0.085714488,-0.0720423196,-0.103549148,0.0000236029,-0.1063498991,-0.1219773868,-0.0912290502,0.0615071377,-0.0816142419,-0.1029665083,-0.0623763405,-0.0889673903,0.2316984533,-0.0000748846,-0.1027393995,-0.1033599688,-0.070817015,-0.0930335509,-0.0924241154,0.1198197179,-0.0649730399,-0.1168311941,-0.0959008348,1.8157388973,-0.1744749534,0.0168645077,0.8671159218,0.0474892902,0.0508410693,-0.0050935551,-0.0060157201,-0.0495300928,-0.0058706206,-0.0170063316,-0.0208722457,-0.0054791124,-0.0252490475,-0.0053200184,-0.0408125917,-0.0220020616,0.0202088316,-0.0151933224,-0.0186907043,-0.0132490574,-0.0144083522,-0.0014108742,-0.0151942318,-0.0164024316,-0.0150531203,-0.0112121738,-0.0215959904,-0.0220216688,-0.0051683971,-0.0214489373,-0.0009618764,-0.0070745936,-0.0155609857,0.112879152,-0.0450385706,0.0488594834,0.0514393905,-0.005661985,-0.0012871989,-0.0212258841,-0.0166927434,-0.0222821595,-0.0225473714,-0.030957414,-0.0223687242,-0.0153407403,-0.0223233983,-0.0197327714,-0.0320778176,-0.1082752896,-0.02845359,0.0020398931,-0.0195893327,-0.0222146376,-0.017118815,-0.0224599869,-0.0225844751,-0.0195830591,-0.0224370148,-0.0198086344,-0.0196326951,-0.005020572,-0.0037971047,-0.0030101504,-0.0112956092,0.0151488137,-0.0179534466,-0.2647667804,-0.0701441347,-0.1570384717,-0.0057873498,-0.0222513283,-0.0224450614,-0.0224321392,-0.0227832957,-0.023012001,-0.0310343832,-0.0224040201,-0.019750299,-0.016212266,0.0427285693,-0.0611915742,-0.0726379968,-0.0218523234,-0.0033302902,-0.0142310737,-0.056865274,-0.0172849325,-0.0227982186,-0.0192921342,-0.0196389413,-0.0195128255,-0.0192694666,-0.0195400307,-0.003586953,-0.001197454,-0.013752069,0.0269389506,-0.0167403876,0.0456983244,0.0505617931,-0.0057204119,-0.00488655,-0.0305296827,-0.0309220516,-0.0276543512,-0.0199824255,-0.0227129729,-0.0225984095,-0.0199771731,-0.0047682593,-0.0131989617,0.0579207327,-0.1524971128,-0.035148361,-0.0568201225,-0.0222963365,-0.015739313,-0.0319242224,-0.0223428418,-0.028467214,-0.0195090691,-0.023490226,-0.0195628934,-0.0156628492,-0.0148882503,-0.0197473122,-0.0520551907,-0.0870321144,0.0077459402,-0.0202792058,0.0473293586,0.049928941,-0.0060134035,-0.004671291,-0.0174123493,-0.0237722847,-0.0196459996,-0.0308846234,-0.0226959113,-0.0050815137,0.0387608221,-0.0204278443,-0.020277891,-0.0314893073,-0.1972660646,-0.0613696329,-0.2068863653,-0.4898603296,0.0572536124,0.5429425467,-0.0562895725,-0.0232572321,-0.0650490524,-0.0191300262,-0.0035365641,-0.0233296427,-0.0049002355,-0.0197311476,-0.006910066,-0.0191375876,0.0056968097,-0.0216127891,0.0471586193,0.0228099727,-0.0120596431,-0.004803832,-0.0381638615,-0.0302754581,-0.0303952585,-0.0051740765,-0.0053558524,-0.0160556105,-0.1672016497,-0.0863170333,0.0264630211,-0.0009784771,-0.0439559963,-0.7172492881,0.3437412044,-0.3213987969,0.0618351046,0.1313756817,-0.0222882965,-0.027147935,-0.0333669075,0.0371041255,-0.0235003376,-0.0176031195,-0.0187791393,-0.0197544869,-0.0158554372,-0.0167553918,0.01105829,0.036566647,0.0338145501,0.0380044754,-0.0058340693,-0.0046649861,-0.0305285454,-0.0197500776,0.0366355552,-0.00548622,-0.006773576,-0.0043097541,-0.020235939,-0.0648742274,0.0031615355,-0.0336605867,-0.0867372611,0.7729980754,0.4268224161,0.6141221829,0.0075652945,0.1284056747,0.3466066617,-0.0125390402,-0.0042787486,-0.0041145875,-0.0068673526,-0.0026461048,-0.011465154,-0.015784615,-0.0243200405,-0.0505956046,0.006442848,0.0347062951,0.0480552326,0.0436934329,-0.0059395642,-0.0030044594,-0.0303350585,-0.0215489982,-0.0306683704,0.0508953358,-0.0037380806,-0.0207585558,0.0059933345,-0.0137923722,-0.364027795,-0.1250240914,0.190524717,0.0791217207,0.0924398862,-0.0429527191,0.101328796,0.0584632241,0.0913481822,0.0134812102,-0.0050350066,0.0523024749,-0.0068301441,0.0086701011,-0.0074727468,-0.00515994,0.0428144321,-0.0039607348,-0.0046649882,-0.0174662856,0.0501167248,0.0428765738,-0.0042892673,-0.0031182636,0.0366030644,-0.0197671746,-0.0497971847,0.0032537131,0.0031659385,-0.0123225051,-0.0029581534,0.0009912507,-0.0315567891,0.0893815342,0.0502467882,0.2177783689,0.020452533,0.1833035666,0.0995147734,-0.0867525653,-0.1393055111,0.036813171,-0.0063426381,-0.0038761993,-0.0195536659,-0.0026081088,-0.0198965852,-0.0195921336,-0.0165409267,0.0306059109,0.018671926,0.0341285134,0.0478545874,0.1493023113,-0.0303594336,-0.0047249494,-0.0197058587,-0.0308288481,-0.0167004319,0.0494880125,0.0036453569,-0.0960964183,0.0043500121,-0.05985092,0.0058348615,-0.4244283171,0.0011572915,-0.0009198883,0.0053174296,0.0168676233,-0.0150834903,0.0329375836,-0.0303527173,-0.0142474863,-0.0058806466,-0.0094406947,-0.0086535773,-0.0080005424,-0.0038253593,-0.0039668341,-0.0207346132,-0.0053466474,0.0044181277,-0.0179248555,0.0487058318,0.0508188333,-0.0072999284,-0.0043491484,-0.022282399,-0.0166352944,-0.0092537131,-0.0071671862,0.0007882474,0.0036394961,-0.0064459647,-0.1719829924,-0.3999665702,-0.2571784029,0.0643702967,0.0721489848,0.0412562185,0.1842338778,0.1159909437,-0.2859378263,-0.321715218,0.5998137492,0.0506921271,0.0360802284,-0.0363297681,-0.0037755365,-0.0036886004,0.0026958944,-0.0227259405,-0.0213104289,-0.0211586302,0.0335774894,0.0428641752,0.0509197852,-0.0039298465,-0.0062475144,-0.0088696633,-0.0068686483,-0.0040798908,0.1006136579,0.0559188107,0.0007362505,-0.0095242525,-0.0329101351,-0.4933849172,0.0173761287,0.4859407692,-0.0052668036,0.167986723,0.0139336215,0.0541001129,-0.1859490776,-0.0379449307,-0.0046676555,-0.0559092686,0.0043919994,-0.0749931846,0.0522064647,0.0065531408,0.0310452321,-0.0902054977,-0.020653451,-0.006726968,0.0364760876,0.0471376868,0.050373054,-0.0064759679,-0.0076360029,-0.0089554784,-0.0062006955,-0.0054575806,-0.0056885259,-0.0099538985,-0.0027892361,-0.0167367137,-0.0599037719,-0.0052697814,0.0026037572,0.1074098656,0.18501717,0.18521516,-0.0026233508,-0.0075115726,-0.1151942065,-0.0102587821,0.1692722654,-0.0079638545,0.0068520047,0.0171676349,-0.0053862663,0.0058857697,0.0250612604,-0.0024877306,-0.0205809842,-0.0086458084,-0.0201280984,0.0516860205,0.0406681206,-0.0062208306,-0.0047922378,-0.0052425087,-0.0051789413,0.0037154346,-0.0040300879,-0.0364461912,-0.1398774613,-0.029918539,-0.1241823672,-0.0059655263,0.0032668165,0.0720105109,0.1867097813,0.2041572795,0.0052953615,0.0226169012,0.0270698728,-0.0166519518,0.3575199268,-0.0050628274,-0.0444606803,-0.0008553713,-0.0101682994,0.050885104,0.0088197222,-0.0151750848,0.0387912484,-0.0135267921,0.0369064216,0.0465723196,0.0428629023,-0.0064770053,-0.0151447061,0.0968604958,0.1018642739,-0.004519898,0.0030988943,-0.013324598,-0.0202075747,-0.9626611728,-0.0364865897,-0.006649045,-0.0646845113,0.0003080129,0.1829082863,0.2791553809,-0.0073590191,0.0278850587,-0.306384264,-0.0083197523,-0.0078348341,0.0679690817,0.017347971,0.0283387479,0.0057792772,0.0624711997,0.0210097859,-0.0043972229,-0.0018995013,0.1420659906,-0.0163744819,0.0474617386,0.0459703691,-0.0052042609,-0.0086101747,-0.0056127139,-0.0044317141,-0.0029305523,0.0520874373,0.0027705902,-0.0065234698,-0.0052553349,-0.00931279,-0.0057445675,-0.0061185491,0.0228993035,0.3889557843,1.1631346583,-0.0221617655,0.10496066,-0.1275821783,0.1009953398,0.0983489773,0.2476599018,-0.0439554283,-0.0033603752,0.0061029446,0.0628618292,-0.0053901553,-0.0203152286,-0.0199242358,-0.0189263753,0.0346827361,0.0280148459,-0.1910388844,-0.0055328234,-0.0060274126,0.0976662986,0.1006504316,0.1023427981,0.3985675994,0.1021801402,-0.0064429936,0.015986352,-0.019039043,-0.018578499,-0.0588073079,-0.1175175365,-3.3414120975,0.7463972439,-1.001917782,-0.3011284745,-0.5421698153,0.1026193087,-0.1378830443,0.0999349986,0.1137724493,0.0069872361,0.033549582,0.0629863206,0.0894242218,-0.0238744658,-0.003832306,-0.0023068015,0.0412717565,0.0439900612,-0.0601508998,-0.0147997656,-0.0089902363,0.0968781155,0.099490957,0.1010741107,-0.0040458399,0.0341377499,0.0942007609,0.5500450243,0.6573385007,-0.3095838375,-0.0198979043,-0.222555379,-0.1167921494,-0.4268379633,0.0037832207,-0.0626072818,-0.3750154076,0.0093977682,0.0768918236,0.216305717,0.1132053528,0.0072404188,0.0070352775,-0.0052288793,-0.0024818364,-0.0006422064,0.0071272464,-0.0197813731,-0.0142774635,0.0456091848,-0.3300878799,-0.0063506476,-0.006067993,0.0977479219,0.0994235586,0.1010960641,0.1159160947,-0.0038707417,0.0400704924,0.2768160418,0.0806637114,-0.0010104551,-0.0496667453,0.0562305255,-0.0066187924,-0.2458301102,0.0395518097,-0.0178460507,-0.0045305617,-0.1219672888,-0.0029804846,-0.0320606385,0.0099546846,0.0489379628,-0.0035724272,-0.01993489,-0.0239443872,-0.0199798411,-0.0199385858,-0.0164739419,0.0356620081,0.0263080298,0.0265599121,-0.0143842394,0.0983623994,0.0965253349,0.0245924067,0.0995425693,0.1084740344,0.101981275,0.0747302048,0.0006123167,0.0481933544,0.1594123642,-0.1748677606,-0.1217141375,-0.336014737,-0.2697871512,0.523682965,-0.1199587638,0.0265124733,-0.0075128513,0.0463914489,0.0004886255,0.0343248515,-0.0051148782,-0.0036240521,-0.0050450801,-0.0269413865,-0.0042580296,-0.1945305569,0.0098553321,-0.0102308078,-0.0137999554,-0.0146758833,-0.0059165069,-0.0088477718,0.0997010863,0.0996442673,-0.0228788451,0.1086636016,0.1058635076,0.2069534072,0.9794287989,-0.0035448064,-0.1489399999,-0.0000970617,0.0128344693,0.010650536,-0.1767845212,-0.0994136926,-0.0426548336,0.009590484,0.0858498271,-0.5904325825,-0.0173112295,-0.007098986,0.0596832397,-0.124559491,-0.0049169792,-0.0195964161,-0.0230765937,-0.0234218152,-0.0023949268,0.0356620081,0.0031756196,-0.0308136742,-0.0054248359,-0.0069178828,-0.010035039,0.0737512818,0.099304775,0.0942099318,0.0039226159,0.0342259739,0.0619977395,-0.064420607,0.000738098,-0.2094753799,-0.0129544671,-0.0371473045,-0.0378905455,-0.0212428383,-0.0199597772,0.093864965,0.1189186209,0.0323156038,-1.1147538509,0.105179935,0.1003148522,-0.1256576125,-0.0034502056,-0.0162822537,-0.027877547,-0.0365109895,-0.0031058728,0.0942170598,0.0281920204,0.0178741196,-0.0057925611,0.097468891,0.0740347599,0.0740303157,0.074103656,-0.0334546454,-0.1282192726,0.0315984593,0.1900752303,0.0036158522,0.0475191456,-0.0147211433,-0.0109099839,-0.0179652881,-0.2194217598,-0.1097431638,-0.0453765334,0.0197419728,-0.1745519584,-0.0000076837,-0.0671221201,-0.0091381843,-0.0276933366,-0.1368152604,-0.0226483905,-0.0040694078,-0.022037931,-0.0847742681,-0.0139626186,-0.0214671804,0.0292637763,-0.0507066771,-0.0057839765,-0.003765237,0.0751682159,-0.0237765255,-0.0326838816,-0.0387221662,-0.2034310286,-0.0051116486,0.0889843332,0.0677291857,-0.0074209893,-0.0530210325,0.0774158001,0.0007390607,-0.515753347,0.0971221968,0.9159736447,0.2243969616,0.6133049792,0.3369604668,0.2377665196,0.0204099671,-0.0099528256,-0.1369858933,-0.0059654195,-0.0168011427,-0.0270579826,-0.0090627006,-0.0037181713,0.0412868015,0.0472089207,0.0250437638,-0.0147031872,0.0974046368,0.0964174529,0.0740056097,-0.1324444133,0.0016581,0.0628684788,0.0585340886,0.0662588565,-0.0107372899,-0.0120329837,0.1073290827,0.0669612023,0.2801198857,-0.1495471801,-1.1450918553,0.1632770113,0.0470899152,-0.1448337618,0.0375523414,0.0546744854,-0.1278326706,-0.1950218804,0.1001230741,-0.0561389559,-0.0392234803,-0.0229482074,-0.0140764621,-0.0236421626,0.0354636883,0.0410500413,0.0285070866,0.0511466632,0.1013351677,0.0864225668,-0.0306092772,-0.0413078677,-0.080257675,-0.0407452062,-0.1760083113,-0.1674159639,-0.020146942,-0.0217076098,-0.0102044027,0.0189932569,-0.054893544,-0.009431525,-0.019581723,0.0804884073,-0.0100600179,-0.0124534996,0.000649492,-0.015519607,-0.0300123196,-0.0448968478,-0.0419204703,-0.0420326397,-0.0395304731,-0.0233035144,-0.0232148446,-0.0178080302,0.0344673389,0.0444692837,0.0350927894,0.3865932501,0.0887108325,0.0833891377,0.0732377682,0.052447576,0.0170142757,-0.0253816405,0.0473519543,-0.0147453793,0.0023300576,0.0117629377,-0.0474045175,-0.0326178393,-0.0215760269,-0.0126835517,-0.0135742759,-0.028758695,-0.0386772071,-0.0412940213,0.0113210537,-0.0267932273,0.0067291477,0.0131914753,-0.0403839613,-0.0400731353,0.0221285922,0.0343635392,-0.024687447,-0.0174147562,0.0396486791,0.0551353018,0.0322503284,0.2068939657,0.1007154833,0.0836950171,0.0830207677,-0.0233388837,-0.0233493277,-0.0224189249,-0.0120023086,-0.0220504695,-0.02314846,-0.0064716531,-0.0232416786,-0.0233338569,-0.0232697809,-0.0114079134,-0.059060313,-0.0333708741,-0.0233773128,-0.0232123517,-0.0330296226,0.1170625636,-0.0330180636,0.1062072438,-0.0221485141,-0.0235626713,-0.0211958417,-0.0215311678,-0.0234573088,-0.0244968672,0.0096478509,0.1506622569,0.033200285,0.057259795,0.0837282085,0.0812948179,0.0689453267,0.0724897105,-0.037069013,-0.0349851485,0.0726795892,0.0706454551,0.0699708661,-0.0340739521,-0.0344923817,-0.0321387426,-0.0358046501,-0.0538086515,-0.0352741532,-0.0614946812,-0.0333727711,-0.0306477338,-0.0321131153,-0.0339939419,0.0851517823,0.0067553043,0.009603657,-0.2013711202,0.0860069406,0.1633094065,-0.0533457042,0.4160721315,-0.1213889298,-0.1190603337,0.0493091769,-0.4259875111,0.029995175,0.0827355068,0.0773635163,-0.0320007266,0.0840140501,-0.0425719516,-0.0256207347,0.0812823134,0.0824291188,-0.0265129344,0.0864290344,-0.0223174374,-0.0067843074,-0.0034091131,-0.0065565384,-0.0124230267,-0.0129038961,-0.0087034515,-0.0692388555,0.1091590079,-0.01104302,-0.0957076242,-0.0463078274,-0.1581067262,0.328368544,0.1279647678,-0.0213693805,0.2448542033,-1.0883152327,9.3908490702,-0.013677543,0.030419538,-0.088635042,0.0492434304,-0.0365150421,-0.1709203959,0.0092915797,-0.2739766875,0.0093313233,-0.2738922664,-0.1082082072,0.0382428878,0.1786497673,0.1641448191,0.1626670445,0.1501386198,0.1798935872,0.1386646244,-0.0758052982,0.1763831038,0.1509435091,0.1802007299,0.1719955622,0.1723632559,0.1707610401,-0.0150588869,0.1707294027,0.1768374934,0.156557886,0.1127846076,-0.9444593093,0.0450438855,0.05618025,-0.0867781404,-0.0450692776,-0.0339184112,-0.0144722027,-0.0344482673,-0.0134365279,-0.0144510583,-0.0144145559,-0.0133217605,-0.0454312214,-0.0166916389,-0.013709105,-0.0157192232,-0.0144559632,-0.025580069,-0.0058523269,-0.0156812468,-0.0157285755,-0.0144466765,-0.0163563587,-0.0157528475,-0.0164130105,-0.0161734443,-0.0130593239,-0.0159316996,-0.0257472674,-0.0053937227,-0.0054275944,-0.0489887071,-0.0267863833,-0.7009630438,0.0308576827,0.0501032251,-0.0293076544,-0.0131589605,-0.0268480989,-0.013132803,0.013341117,-0.0305130268,0.0134145396,-0.000150196,-0.013072286,0.0106235818,-0.0001950283,0.0149166807,-0.01315261,-0.0044651968,-0.0129187818,-0.0051807707,-0.0130564015,0.0135744801,0.0142874752,0.0135197839,0.0142363872,-0.0129122138,0.0136420016,0.0309806775,0.0145243407,0.0407233251,0.0145487544,-0.0103124507,0.0011785352,0.0456568442,-0.0050935954,0.0331353489,-0.028291597,-0.0129793791,-0.0303575355,-0.023084532,-0.0292898243,0.0135199202,0.0135552648,0.0135642435,0.0166310718,-0.0045023267,0.0151079226,0.0142174595,0.0144465069,0.0135256695,0.0135657879,0.0136674651,0.0135098355,0.0143311297,0.0135120594,0.0136401162,0.0136584125,0.0135655505,0.0144017527,0.013257119,0.0205593606,0.0407848119,0.1057936167,-0.4731030506,-0.0022306424,0.0609271907,0.0331675686,0.0373539746,-0.025108757,-0.0303624425,-0.0303461768,-0.0272941412,-0.0115860019,-0.0127547487,-0.0063783206,0.0128005578,-0.005582728,0.013052241,0.0134038455,0.1026130098,0.0134447271,0.0142648132,-0.0059044312,0.0137267097,0.0004026898,0.0118588872,0.0134829543,0.01357889,0.0135995182,0.0134934517,0.0136007201,0.0124541278,0.0134563603,0.014671592,0.1039710664,0.0579339922,0.0611196812,0.0495466921,0.0296531896,0.0209998083,-0.0283019096,-0.0303188134,-0.030338743,-0.0021008565,-0.0125924071,0.0071731064,0.0128942993,0.0117663561,-0.0056316361,0.012177559,-0.0088934038,0.014618718,0.0201129706,0.0106209267,0.0027103917,-0.004588087,-0.0148281771,-0.0051559531,-0.0053150001,0.0135981795,0.0134887013,0.0052945995,-0.0052952793,-0.0042021412,0.0144569596,0.0430967404,0.0145672712,0.3977760803,0.0234314618,0.0716366852,-0.0385888847,0.0331826235,-0.0298466189,-0.030356216,-0.0303493679,-0.051727088,-0.0119495463,0.0138952134,-0.0140218932,0.0110470663,-0.0446582793,0.1812025261,-0.2676169643,0.0721309666,0.1840947503,0.1049381361,-0.0058768319,0.0187418498,0.0738084985,0.0785876074,0.0319494138,-0.0111256295,-0.0469085598,0.0321907135,0.032381468,0.0780293772,0.0323689571,0.030899745,0.0365286069,0.0203685911,0.000101191,0.0518562717,0.0298033824,0.0224907372,-0.0293078643,-0.0309046609,-0.0547333139,-0.0115620047,0.007175886,0.0137695563,0.0136436195,-0.0178516929,0.0016278668,-0.0612280401,0.007305268,0.1237727813,0.0502690113,-0.2599226644,0.2880917297,0.0669707091,0.1061753596,0.0130513835,0.0132324226,0.0319565803,0.0321042999,0.0569377318,0.0021374224,0.0131942164,-0.0054910033,0.0206351573,0.0199904133,0.2886758108,0.0348673953,0.051507435,0.0308704238,0.0171788813,-0.0298287265,-0.0543117265,-0.0308983179,-0.0117186047,0.0501323216,-0.0108535171,-0.0070036643,-0.0221045887,-0.0173498524,-0.2124250536,-0.0057203114,0.0141405598,0.0471595952,2.145481013,-1.0359887968,0.6332621679,0.0688117372,-0.5261209317,0.0131933652,0.0134915832,0.0135288141,-0.0470144448,0.0134598726,0.0098255457,-0.0063065372,0.0305277302,0.0147999234,-0.0113049134,0.0006268161,0.0982064236,0.0291602343,0.0193779697,-0.0297903075,-0.0303622924,-0.025649785,0.0132103969,-0.0168409588,0.0581815896,-0.0012794593,0.055227576,0.1061541451,0.0401927776,0.0082948257,-0.0106086742,-0.043692664,0.0545129876,0.5157810829,0.334493917,-0.0022818292,-0.4223834948,-0.004848438,-0.0090288039,-0.0058456965,0.0545775475,-0.016639585,-0.0238642381,-0.0055554478,0.0142236483,0.1187392702,0.0219452802,0.0530947996,0.0448422484,0.0176736985,0.0210056363,-0.029812394,-0.0286190649,0.0286535034,0.0072885231,-0.0166914525,0.0138901591,-0.0055004342,0.0024899671,-0.0037120365,0.0078089604,-0.1730468467,-0.2476535945,-0.0446621185,0.0350523488,-0.0142653539,0.3501694081,-0.0327342228,-0.2553815835,0.0661068391,0.1033974551,-0.0977206149,-0.0465007633,-0.0467502203,-0.0303124825,0.0135039075,0.0200480717,0.0204936068,0.3485530667,0.0184164033,0.0986181184,0.0366802269,0.0499398061,-0.0413466327,-0.0133148418,-0.0133077174,-0.0185035864,0.0059121949,0.1019702038,-0.0481413579,-0.0376492329,-0.045493962,-0.0011208132,0.0458774041,0.0072077132,-0.1823741249,0.0024893095,0.0084444526,-0.8925422134,0.0356132697,0.0136555981,-0.000071192,0.0645362506,0.0594351881,-0.0857956931,-0.0479693611,-0.0130581558,-0.025687271,0.0134631821,0.0200402436,-0.0022579812,0.0516181151,0.0447149995,0.0258764548,0.0225183654,-0.0294657513,-0.025079059,-0.0121305766,-0.0328506407,0.1019638898,0.0064387747,-0.0090917651,0.0192333493,-0.0219424138,-0.1266947291,-0.0257021487,-0.0065053233,0.0758813214,-0.0084201517,-0.0044395449,0.2104070862,1.4781411287,-0.0102606962,-0.0002476788,0.0001285333,0.0173332523,-0.0015009247,-0.017590644,0.0002478995,-0.0043585055,0.0133776087,0.0098470067,0.0663426826,0.050795465,0.0523918259,0.0043991127,0.0495465386,-0.0426609004,-0.0271119954,-0.0117487948,-0.0516274747,0.0147295072,-0.0113244203,-0.0620077352,-0.0064052032,-0.0079909385,-0.196002964,0.0269433327,-0.0215169943,1.2589126096,0.4478303829,0.7805567784,0.0511366064,0.0366394458,-0.0016178112,0.0651565088,0.0002934231,0.0481041499,0.0648714511,-0.0261533379,0.0525765734,0.0078454068,0.0078344097,0.01459734,0.047649899,0.0507487112,0.0191786523,0.014976393,0.0499597941,-0.0252602547,-0.0298141673,-0.0320870646,-0.0052034988,-0.0045963967,-0.0194481802,-0.0219774242,-0.1326060563,-0.0192184192,-0.0585716765,0.0174976042,-0.1516501809,0.0581238117,0.4083620266,0.4189548054,0.041488464,0.2704132728,0.0071553424,0.0008256885,0.000615329,-0.0726856471,-0.000017485,0.0396090741,-0.0002215033,0.0116295709,0.0010792215,-0.0061727809,0.0703559426,0.0343521738,0.0519041035,0.0150564225,0.0193711992,-0.0288394324,-0.0197365244,-0.0129440607,-0.0027370865,0.0224866163,-0.0127444097,-0.0174933952,0.0405842329,-0.3241332611,-0.2138952749,-0.0039984531,0.016361968,2.619963211,0.6647368395,0.7715012772,0.0128319655,0.1588470357,0.3479969767,-0.0068355365,0.0001210662,0.0656826441,-0.000424568,-0.0122259038,-0.0042261315,0.1034898848,0.0176415673,0.0373786368,0.181497936,0.0339089442,0.0513870713,0.0173131989,0.019915242,-0.0423563229,-0.0320122277,0.0998802714,0.1180284342,-0.0044909122,0.0118345586,-0.0081000034,-0.038451808,-0.1105532094,-0.9051889012,0.1124152437,-0.0101065101,0.1620459357,0.0759884279,0.0452786487,-0.0008836733,0.0206333423,0.1071492894,-0.0017986313,-0.2282595498,0.6572145232,0.0449365247,-0.0134164932,0.0133199271,0.0680309779,0.0115687433,-0.0047326859,-0.0168450225,0.0098614848,0.0459843511,0.0171955622,0.021501008,-0.0286659414,-0.0313164807,-0.0335713894,0.0214721203,0.0089094343,0.1012358661,0.0162255223,0.014305403,0.3064644191,-0.0182563043,0.0774792748,0.0165386339,0.0538234815,0.0660047864,-0.0092590535,-0.0539765092,-0.2256637468,-0.0659493342,-0.0039630308,-0.5480057742,0.4914697738,0.0248940694,-0.1189912125,0.0131330549,0.0934143419,0.0178123023,0.0200467962,0.0743342179,0.0485579203,0.0980997196,0.0444734156,0.0454962817,-0.0289603877,-0.0442500566,0.0837154109,0.1066103219,0.2447067114,0.4910473268,0.013257201,0.0226431349,-0.1732988642,-2.8744559924,0.0628061235,0.0152946109,-0.0691775305,-0.2313051904,0.0244824387,-0.0380653343,-0.3790165786,-0.0504714022,0.1536998802,-0.006853819,0.1446883325,0.1939310266,-0.0464143383,0.0124918828,0.1209964937,-0.0009943094,0.0011559244,-0.0046517521,0.0336173502,0.0413188753,0.043484165,0.0425459394,-0.0310990548,-0.0354093502,0.0993214356,-0.0067803725,0.2682036089,-0.0520316661,0.0090645564,0.0242256631,0.0252625512,0.0591267984,-0.3413258145,-0.0016085866,-0.0204063921,-0.0347598581,-0.189119554,-0.1742194593,-0.0733224811,-0.2862254035,-0.1188037767,-0.0299000542,-0.1756153325,0.033011663,-0.0137217324,0.0102469804,0.0195194841,0.0098482285,-0.0054499013,0.0469438988,0.0301579205,0.0981877707,0.0148983845,0.0381145311,-0.0313208477,-0.0135901524,-0.0128859138,-0.0070405567,0.0157076494,0.0269133081,0.020739936,0.1810657025,0.3843607828,0.0339342147,0.0222407848,-0.0129665859,0.0592532474,0.0561609761,-0.0447998068,-0.0170394936,0.0905571136,0.0987223536,0.013113539,-0.0212559243,-0.0199284025,-0.0174358505,-0.1727521983,-0.0384806206,0.0199312146,-0.0046693558,0.0200291077,0.0270402229,0.0557102073,0.0530348954,0.0075684213,0.0442895308,-0.031460095,-0.0356311976,0.0991576921,0.0677369223,-0.016715238,0.1593705486,0.0189400598,0.006946944,0.0371039931,-0.1075989971,-0.0000070759,0.0351064189,0.0166296904,-0.1353517481,-0.0924801451,-0.0695457615,0.027366271,0.0605482601,0.2122582798,0.0096383477,-0.0485377508,-0.0602777417,-0.2460706464,-0.0151667161,-0.0465704115,0.0172581633,-0.0036990226,0.0510948714,0.0528478256,0.0623404882,-0.035609346,0.0380653749,-0.0314770962,-0.037354835,-0.0131599263,-0.0119346582,-0.0303456034,-0.006087528,-0.0225533814,0.0684546279,0.0079820631,0.0094390572,-0.0085943368,0.147257258,0.0116194995,0.0196553512,0.0067293772,-0.023801854,-0.0275361826,-0.0368448,0.2715558155,0.252627635,0.007584169,-0.0599295849,0.0227879697,-0.1191545582,0.0097949935,0.0013389221,0.0012675543,0.0726533289,0.029461991,0.0527739821,0.0122829918,0.0398675668,-0.0453251161,-0.0545677675,-0.0309282437,0.0976786271,0.0990136451,-0.1048149962,-0.0292172305,-0.03509821,0.0037531573,0.0415918907,0.9988529028,-0.3613291,-0.0360861983,-0.0723610985,-0.0644864463,-0.0624332974,-0.0574314538,0.2098026035,0.5933290041,0.0452497048,0.0605586243,-0.1074347452,-0.039960568,-0.1191455479,-0.0465794945,0.0016094996,-0.0040151433,0.0102219999,0.0816614754,0.3582753806,0.0149731731,0.0382016367,-0.0412211973,-0.0372026606,0.0650392853,0.0589349782,-0.0464867681,-0.04652672,0.0148477877,0.0076676505,0.0191960267,0.0116258539,2.6062437821,0.1698352653,0.2762265138,0.0907105235,0.0143504972,0.0055573234,-0.0141102077,0.0697576843,0.2067237551,0.2387887908,0.0203115172,0.0280327459,-0.0399973278,-0.1192105254,-0.3159855182,-0.0082593409,0.000361898,0.0819197323,0.0451964824,0.0505616218,0.0432131029,0.037993903,-0.030549077,-0.0327551233,0.0806664859,-0.0169865205,-0.0262726125,-0.0131464805,0.0289327105,0.030035075,-0.0574146583,-0.0606885125,-0.023020956,-0.0302387158,0.0625859081,0.0535242627,-0.0065445876,0.1871617776,0.1574168007,0.0333055584,0.5957254297,-1.2305447427,0.0188286104,-0.4220600263,-0.2046996554,-0.1191558691,-0.2303257536,-0.0435589068,-0.0151115106,0.0268656553,0.0376486894,0.0624431894,0.0432740227,0.0384815396,-0.035826428,-0.0162907659,0.0145004624,0.0952425442,-0.0465389517,-0.0258547308,0.3126799035,-0.0500844853,-0.5840611112,0.0054756234,0.0009674013,-0.0061504296,-0.0044827612,-0.0044347873,0.2071942025,0.2198438973,0.0289579971,0.0552728991,0.2079825357,0.1389544904,-0.1743585256,-0.2395036416,-0.0042816867,-0.1786311114,-0.3239744296,-0.0556610324,-0.0114445349,-0.0100932957,-0.0033771886,0.0493429544,0.0433785382,0.0381605068,-0.0290245514,-0.0476600054,-0.0306530436,-0.0141916427,-0.0131084046,-0.0143829857,0.0503038179,-0.0241057338,0.0161738053,-0.0613613494,-0.0056632283,0.0031922559,0.0085063644,0.052630199,0.0555384884,0.044623867,0.0444266951,-0.0865917764,-0.0289562268,0.0315546889,0.0278543378,-0.030198429,-0.0317128883,-0.119053187,-0.0412425581,-0.1145534377,-0.0055115033,0.0331251312,0.0107589276,0.0588306048,0.0436283099,0.038280016,0.0781746622,0.0393410416,0.0737684703,-0.0463243912,-0.0170774954,0.0392332285,0.043750836,0.0613405907,0.0469193963,-0.1695574583,0.056699442,-0.0547472862,-0.0547135754,-0.0518683608,0.0187627139,0.0051707551,-0.0228778837,-0.0191878626,-0.0075565762,0.0384725227,-0.0261669033,-0.0318315215,-0.0319439205,-0.0944437676,-0.1271237361,0.0533178025,0.0465166713,0.0306281725,0.0343520408,0.017443946,0.0494078374,0.0362723878,0.0628354504,0.0473577802,0.0827733217,-0.0315970183,-0.0959257311,-0.0132339599,-0.0384921704,-0.0195725685,-0.0194920612,-0.0138538994,-0.0137218603,-0.0333913831,-0.0160519559,-0.0333416962
   -0.0323474563,-0.0333618983,-0.0333580574,-0.0325399234,-0.0333665963,-0.0333727467,0.0756404487,-0.0368595513,-0.0310806129,-0.031073065,-0.02914215,-0.0290403423,-0.0118263154,-0.0126473288,-0.1278429726,0.0551614113,0.0708040499,0.0242558699,0.0948795496,0.0787667634,0.0897073341,-0.0238656146,-0.0114098527,-0.0112190331,-0.0118855223,0.1004767961,0.0999370795,0.1016300986,-0.0118955981,-0.0115792473,-0.0109607469,-0.0133478753,-0.0096134835,-0.0108035529,-0.0089330325,-0.012059933,-0.0109118957,-0.0107504482,-0.0133412353,-0.0091338638,-0.0126500091,-0.0125914093,-0.012660419,0.100169691,-0.0125037059,-0.0128329498,-0.0159349592,-0.0207971317,0.0623077409,0.0244089325,-0.0429043029,0.0279756056,-0.0103241493,0.0792123449,-0.0319807119,-0.0367473519,-0.030916872,-0.035842387,0.0771543374,0.0971276786,-0.0161672622,0.0793644346,-0.0143967339,-0.0112304988,-0.0146908986,-0.0144316626,-0.0140603888,-0.0155203853,-0.0529383448,-0.0159107731,0.1011111607,-0.0146028128,-0.0141451041,-0.0137194946,-0.0083360573,-0.016586612,-0.0171212741,-0.0230841957,-0.0175653343,-0.0260885484,-39.525174625,-0.0109186245,-0.0103463513,0.0003941159,0.1942238835,0.049210009,0.1075551123,0.5231826253,0.2332411143,0.1408110494,0.6307881887,0.1147139792,0.6253976439,0.6316865499,0.1432765678,0.1422959275,0.1423748276,0.1434428561,0.1162775833,0.1125979724,0.0082671115,0.0649132897,0.0395855195,0.064370812,0.0105902891,0.0315038573,0.1154393292,-0.3509108714,0.0466724983,0.0658238361,-0.160120913,-0.4310162883,2.4614517056,-0.1472036017,0.0068842215,0.2373446126,0.2315633703,0.1141832083,0.2209153754,0.0454973097,0.108418729,0.1083932585,0.1084021753,0.1079117971,0.0746618395,0.0911551027,0.0689376367,0.0781132022,0.1037707604,0.0688807019,0.1033443154,0.0286505069,0.0517108259,0.0746229288,0.0400066171,0.0911365448,0.0572780349,0.0687763221,0.0747815526,0.0524404892,0.07815222,0.054308753,0.1758399239,0.0519843313,0.1230890295,0.0537847398,0.0613511099,-0.0066763529,-0.0101885365,0.0545875369,-0.0095964152,-0.0093750484,0.12921186,-0.0105155742,-0.0091663667,-0.0094222367,-0.0054354883,-0.0087163492,-0.011128557,-0.000409806,-0.0078922378,0.0943904745,-0.0108585296,0.0002058227,-0.0111351079,-0.0130497527,-0.0111933569,-0.0103517416,0.0505759518,-0.0160252538,-0.0116899829,-0.0118526809,-0.0119754908,-0.0115018347,0.0943519173,-0.0061665927,0.2437827329,0.0471573758,0.0967460992,-0.0099858956,-0.0101991568,-0.0099698244,-0.0127784172,0.048131536,-0.0226644726,-0.0156949953,-0.0154042006,-0.0114246538,0.0077261535,-0.0111173336,-0.009571769,-0.0198087264,-0.0131799268,-0.0029201266,-0.0097295277,-0.0026540161,-0.0139248366,-0.010724558,-0.0132273168,-0.0111708239,-0.0232536717,-0.0173086929,-0.0112263435,-0.0125153944,-0.0121173441,-0.0117548347,-0.0099016864,0.0077835257,0.0792861651,0.0493634359,0.0642824445,-0.8412054188,-0.0099028332,-0.0099737617,-0.0095912435,-0.0113023015,-0.0113697586,-0.0274070953,-0.0141884424,-0.0102738698,-0.0128250546,-0.0304590706,0.0593674589,-0.0113031237,-0.0116381537,0.0524316485,-0.0022038418,-0.0178876807,-0.0099039075,-0.0108897306,-0.0112360276,-0.0126542857,-0.0127444949,-0.0112491672,-0.0125118776,-0.0106809654,-0.0091585332,-0.0120249227,-0.0098508333,0.0028449329,0.084904652,-0.0082533791,0.096823079,-0.0104295517,-0.0101900609,0.0551647607,0.0006257267,-0.0082657996,-0.0102445353,0.0973511724,-0.0114569675,-0.0116752267,-0.0333751253,-0.0158711947,-0.0357875451,-0.0179154087,-0.0173366532,-0.0165690735,-0.0186191648,0.0029462025,0.0243070045,-0.011736855,-0.0111390263,-0.0122165135,-0.0121421541,-0.0205846772,0.0386290566,0.0352116408,-0.0098982107,-0.0115616282,-0.0160292443,-0.0050047013,0.0537387145,-0.053313558,-0.0025131707,-0.010385184,-0.0093477064,-0.0112099485,-0.0103615849,-0.0124534531,-0.0133815314,-0.0106988293,-0.0254357252,0.0011053847,-0.0015984453,-0.2363544889,-0.0123998056,-0.0203684244,-0.0141301151,-0.746400121,0.0136521541,0.0541990283,0.1859677672,0.220730051,-0.0161090952,-0.0122434529,0.0069997172,-0.0389710318,0.046318006,0.0122528091,-0.0108379834,-0.0130128216,-0.0106867417,-0.0083408446,0.0514290794,-0.0265142711,0.117540881,-0.0102454606,-0.0095072512,-0.009415177,0.0243529693,-0.0123170788,-0.0136636869,-0.013383938,-0.0142717042,-0.0068318301,-0.0007961564,-0.0240483621,-0.0352472701,-0.0374666326,-0.0714943144,-0.241207019,-0.4408999475,-0.008541455,0.0042057154,-0.0274939325,0.0436614934,-2.7636811569,0.0019088963,-0.0121693173,-0.0118595571,0.137902376,-0.0113352462,-0.0126075272,-0.0102104111,-0.0075097125,0.0556279902,0.0484247145,0.021487122,0.0107425167,-0.0094231264,0.1003073242,0.096628893,0.1050907358,0.096221626,0.1031423434,-0.0112554439,-0.0001200153,-0.1168160991,-0.1386936307,0.1174878892,-0.0040029964,-0.0050622535,0.2150080014,-0.0129940623,0.0001162982,0.0237055814,0.1296944307,-0.2119478734,-0.0576145761,-0.0017773164,-0.0166143033,-0.0125119059,0.0401925803,-0.0113682914,-0.0126520921,-0.0103010837,-0.007779398,0.0524333131,-0.0534531898,-0.0035365813,-0.0102652863,0.103000978,0.102032947,0.3047384516,0.101614474,0.3658472105,0.1044092157,-0.0098875471,-0.1130812291,-1.5686089413,-0.0096934286,0.0304896775,0.0051989877,3.4421685867,-0.4439912253,3.2613217476,0.074538703,-0.0287341094,-0.0162286126,-1.1847639708,-0.0026342308,0.0418648211,-0.014371891,-0.001684701,0.0113510194,-0.0101479562,-0.0124775982,-0.018349666,0.104943682,0.0555263369,-0.0533703701,0.1737428791,-0.0110150869,0.1084576946,0.3629753041,0.1047255706,0.5004249087,0.0099539015,1.618926113,6.0077791549,-4.4475691829,-0.0284921378,0.0407661385,0.0183277038,0.0192872323,12.0926633473,0.0687552698,0.0693155025,0.9122643543,0.1399649801,0.0684820247,0.0579659638,-0.0130355915,-0.0133049403,-0.0234810355,-0.0009922685,-0.0119384392,-0.0131979452,-0.0133361336,-0.0175226792,0.0087635003,0.0508845228,-0.0084126321,-0.0162876358,0.0390370973,0.1012729949,0.0971206195,0.1055867251,-0.0131803416,-0.013339107,0.6474564077,-0.1039070696,0.2322925612,-0.022113129,0.0019452236,-1.390343511,-0.0604769357,0.0211607303,-0.9701468335,0.0810023625,0.0704780095,-0.6836297488,-0.0705480397,0.0503962108,-0.0099026064,0.1714052816,0.073187163,-0.0161786169,-0.0126051043,-0.012889265,-0.0133477399,-0.0414950497,-0.0093286765,0.0520870118,0.0443008791,-0.0154170064,0.0957365305,0.1018377071,0.0996158821,0.102236904,-0.0319029101,-0.0430155605,-0.0438626365,0.5479701921,-0.0128587542,0.0011680891,0.0081301623,-0.0142773028,-0.0972228033,0.0128595509,0.3833259031,4.4088795689,0.0303743693,0.0014038629,-0.0188866692,-0.0033465772,0.0469761538,-0.0130169827,-0.0161392749,-0.0162640659,-0.0158980797,-0.0160006503,-0.0128664907,-0.017441682,-0.0100102304,0.0509645133,0.0472948768,0.0192179005,0.0959264235,0.1021769154,0.1014491439,0.0987859949,0.0910970452,0.0831486569,0.3538206525,-0.0159713115,0.0843849372,0.0008207366,0.0530810483,0.0052876353,-0.3811287333,-0.1738173139,-2.4639935955,0.1293405684,-0.0224454249,-0.0098819485,0.0707278979,0.0809674042,-0.0485667126,0.0321835992,-0.0179320134,0.04515439,-0.0592054209,-0.0157529312,-0.0160967001,-0.0140017086,0.1028661885,0.0514393264,-0.0033410977,-0.0162860681,-0.0904411978,0.1002272017,0.100551035,-0.0183368726,0.0795300032,-0.0218159323,-0.0336304131,0.0970134164,0.0187805885,0.0008770919,-0.0142969469,0.0001541896,-0.0143537595,-0.0066521384,0.1891436862,0.0722730888,0.0392773766,-0.0135588193,-0.0429429174,-0.383706118,0.0629965627,-0.0133051175,0.0471844511,-0.0217636964,-0.1495002172,-0.0184848579,-0.0152615979,-0.0244666907,0.101205196,0.051739119,-0.0066345119,0.2232705309,0.0998293102,0.1001112964,0.0963382719,0.0981690968,-0.0614483342,0.0928725388,0.0487316268,-0.034889828,0.0014074819,0.0024897332,-0.0148092076,-0.0148243887,-0.0215631664,0.1070138078,0.0572199583,0.0850308244,0.0294845107,0.051070511,-0.0134348505,-0.2215691763,0.0864583377,0.0715427123,0.0509168206,-0.1074339777,-0.0171272599,0.0750553645,-0.0156447128,-0.0206431987,0.5281408505,0.0515126353,0.0285242316,0.009801538,0.101286984,0.1002211491,-0.34344927,-2.2468151202,-0.0186475167,0.0851596894,-0.0226870872,-0.1272492673,-0.0070163175,0.0667573504,-0.0165326394,-0.0143911002,-0.0223632048,-0.0382035268,1.9803346032,-0.0097249379,-0.0441789459,0.0276574656,0.0791698943,0.0855948213,0.061958505,0.0583854114,-0.0176249267,-0.1109856265,0.2474683519,-0.0558078209,0.0967043836,-0.0232405903,0.1027314449,0.0512546709,0.0294934552,0.0000286141,0.1013107662,0.0436495514,-0.3670161838,-0.1737689038,0.0859720059,0.0677881731,0.0578642381,-0.0352670578,-0.6831507956,-0.0008760604,-0.0043362427,-0.000229193,-0.0140422596,-0.0050762742,3.1133101265,0.0472755149,0.0770372897,0.0699432963,0.0770021606,0.0842521639,0.0681938743,0.0519978184,-0.0290056364,-0.1141839751,0.0461353603,0.0091867439,-0.0159017367,-0.0252691416,0.1012026943,0.0514714064,0.028929145,-0.0716917555,0.0359203245,0.0952203617,-0.3537758487,-0.0055497108,-0.0019258601,-0.0058179892,-0.0037646121,-0.0540274816,-0.0441462954,-0.0885461935,0.0599125619,0.0025784062,-0.0216672382,-1.3621136669,0.2673726376,-0.7656862916,-1.0354055515,0.0833991759,0.0700797198,0.0710420904,0.0195785859,0.0680672404,-0.0184666315,-0.1071472303,0.0962026668,0.0498324321,0.0964332569,-0.0376241555,0.1023465995,0.0453671661,0.0266815165,0.0182103589,0.0351040889,0.0004434855,0.0880937756,0.0762509099,0.0864571017,0.3535737831,0.085730234,0.0958956076,-0.0124550623,-0.0194791779,0.0006523277,0.0003195228,-0.0058282037,0.0046981235,-0.0068394632,0.0876926703,0.1311659363,-1.0493783628,0.0759830825,0.08127227,0.0968868846,0.0492361302,-0.0188280031,-0.0324292328,-0.0168185708,0.0604262043,-0.0160914791,-0.0244262359,0.1008112767,0.0448706091,0.0461272156,-0.0503425415,-0.0949541408,0.0820919204,-0.1080579754,0.0842131258,0.0839112994,-0.0113201987,-0.1046514212,0.0036703448,0.0433126857,-0.0096580734,0.003764024,-0.0003921841,-0.018779869,0.0074438452,0.0699397189,0.0063280608,0.0787386482,0.0866051144,-0.0397548224,-0.1617670773,-0.3423747675,0.0684408787,-0.0721667735,-0.6028722033,-0.016241819,0.0876957,-0.0161810757,-0.0146307195,0.1017537146,0.0442292405,0.0274495096,0.004080066,0.1841488758,0.0184308177,0.0812982468,0.0831648683,0.0962228217,0.0817388013,0.0688639159,-3.2892007712,0.3592385485,-0.0113158515,-0.011487566,-0.0130956104,-0.013027905,-0.0121666881,0.0295263456,0.1637991377,-1.0983273821,0.0809586377,-0.0180501059,-0.0686445984,-0.0506120761,-0.039255345,0.9453138798,-0.0131444706,-0.0164521496,0.0606995812,0.0573823508,-0.0374908838,0.1013888877,0.0417004171,0.032491777,-0.4758688517,0.0323064942,0.0942684818,0.0812536101,0.0859215129,0.096733305,0.027456285,0.10361491,0.0863652767,-0.0138514979,0.0019677509,0.0047473055,-0.0169596485,-0.0124317282,-0.0124909476,-0.018504869,1.4692194034,-0.0082595105,-0.0014434015,-0.3471605826,-0.1046937691,-0.0143770272,-0.0204424961,1.2442484079,-0.0113232752,-0.0159977093,-0.0516372765,-0.0258294559,-0.0305986747,0.1025064563,0.0511866786,0.0677949552,0.2468851047,0.2284992848,0.0270743816,0.0940688489,0.0874651059,0.0347765115,-0.2184592446,0.0930676933,-0.0039829915,-0.0146999317,0.0161855499,0.0805983713,-0.0000145078,0.0001463527,-0.0151140852,-0.0049710661,-0.0301107419,-0.1148233411,-0.022367351,-1.9030594628,0.0137224332,-0.0330647637,0.27232418,0.0824050478,0.3053008367,-0.0142465449,-1.4573810947,-0.0259945508,-0.0369505078,0.1123434543,0.3384713791,0.0480580147,0.0025059858,0.0379796374,0.0335533017,0.0177955578,0.0618654541,0.0944964051,-0.1732859429,-0.0168710417,-0.0026879124,0.0000661239,0.035158287,0.0048241976,0.0475264113,-0.0029523494,-0.0002944689,0.0011146821,0.0048229083,-0.0201818821,-0.0502072193,-0.0002811792,-0.0168577825,0.0567632054,-0.0142838176,0.0136377867,0.0157446451,-0.0134682923,-0.0147940041,-0.0257543612,-0.0247850088,0.1012101691,0.0800602078,0.079004246,0.2469655279,0.0244374404,0.0326369606,0.0980299368,0.0603966893,0.1007807857,-0.0272800785,-0.0221318215,-0.0049459455,-0.0027936448,-0.0061363342,-0.0128971725,-0.0253231198,0.0158261785,0.0168922159,-0.0055502247,-0.0305726314,0.040124344,0.0913695632,0.2464156532,-2.3890443749,-0.7504247663,0.0154893986,-0.0778449369,-0.0909442518,0.133471167,1.1958103237,-0.0259371628,-0.1012403253,0.1015278973,0.0422050856,0.1951646074,0.2819910469,0.1876474354,0.0178438104,-0.0655549724,0.0875574278,0.1040746954,0.0877858477,0.3539140736,-0.014183272,-0.0163858931,0.091801853,0.0524590634,0.0811456053,0.0821625618,0.0805029531,-1.7259279555,0.0277158628,-0.1830340167,-0.3312437743,-0.8269057714,-0.8357961215,-1.818695081,-0.0601767063,-0.1419201271,0.0453148073,-0.1165869928,-0.0522718572,-0.0124101445,-0.127289527,0.0898804409,0.328923539,0.0133203481,-1.6096759208,0.172249111,-0.0896534945,-0.1000914951,0.0961639851,0.0871528533,-0.0073714399,0.0319864911,-0.0939537514,-0.0124911151,-0.0133690856,-0.0153560794,-0.0089475263,0.4582164106,-0.0616492629,-0.0614908029,-0.0785141992,-0.056591201,-0.0271902374,-0.0217033008,-0.0265634501,-0.37211158,-0.0161649738,-0.1653085791,-0.0720589319,-0.0547798998,-0.0153536334,-0.0435272544,-0.0543061298,0.1009596281,0.3412158309,0.3356334065,0.234643909,0.1624765332,-0.0340077626,-0.0124699324,0.0635181773,0.0632408751,0.3402281187,0.0586988804,0.0414273439,0.0110600933,-0.0010321501,0.0485465505,-0.0162101328,-0.0260684218,-0.0354914019,-0.1043040838,-0.0606299951,-0.0331952324,-0.0172068827,-0.0301354237,-0.034834765,-0.1198339261,-0.1122409604,-0.082373004,-0.0641307265,-0.1504624158,-0.0820078542,0.0217978759,-0.3674836566,0.0904752298,0.0318792519,1.2462405024,0.2875771779,0.1744466098,0.0256264524,0.0021948231,0.0906692329,0.0922484184,-0.0153672847,-0.0006817647,-0.0121808286,0.1009268769,-0.0059869206,-0.0176439174,-0.0124893345,-0.0082458453,-0.005308774,-0.0115801556,-0.0096254644,-0.0102098106,-0.014950287,-0.0128128474,0.0831830893,0.0896591479,0.0605654546,0.113159405,0.1223281184,-0.0265059993,0.0688979414,-0.0372072109,-0.3890761894,0.0890933085,0.0327771914,-0.0274303305,0.0048078373,0.0157463453,0.0043487712,-0.0359722184,-0.241954785,-0.0493927086,-0.3015400503,-0.1401576355,0.0523863657,-0.0308728807,-0.0567134422,0.0498220866,-0.0294629679,0.0601921069,0.0251537412,-0.1085183691,0.023253869,0.0673977084,0.058212185,0.0652546198,-0.0219712941,0.051990199,0.0696433524,0.0895659162,0.0902944973,0.1017929472,1.0070278175,0.0821290799,-0.6957645887,0.0946125811,0.3855669399,0.1041979185,0.5366306639,-0.0397032725,0.1929885936,0.0377723484,-1.6385045269,0.0888349809,0.1012389892,0.0958242757,0.0960130184,0.0385490573,0.0951094182,0.1007283949,0.0953305012,0.0955587291,-0.0172979064,0.1011798672,0.0938788446,0.0873228046,0.095521955,0.1392934129,0.0942617292,0.0816689154,0.0985036502,0.0867788908,0.093419221,-0.0177859131,0.1695305313,0.6269802453,1.7167208908,-0.0282323023,-0.0911730646,-0.226146374,-0.0227688638,-0.0088962592,-0.0283400981,-0.1925016457,0.0003683077,0.0150825444,0.0121940955,0.0128169201,0.0111769377,0.0122144633,0.0108745629,0.0111843327,0.0112006033,-0.0034518765,-0.0043333507,-0.0042437791,0.012378151,0.0082893115,0.0112498861,0.0089991565,-0.0117593258,0.0224950934,0.0221725357,0.0019644859,0.0019914671,0.0084544723,0.0196553653,0.0195540474,0.0193725788,-0.0089778493,-0.1041077162,-0.6926703846,-0.0325031327,0.0443631786,-0.0005911121,-0.1751236496,-0.09236359,-0.0760598682,-0.091353157,-0.0932389335,-0.1026614223,0.2836397782,-0.0926258056,-0.0819658095,-0.0613386328,-0.0861800296,-0.0931077026,-0.0981773942,-0.0833385916,-0.111078297,-0.115660541,-0.0965025992,-0.0830417063,-0.102535523,-0.1094187942,-0.0833355633,-0.1158796596,-0.0928711823,-0.1733279326,-0.1154012318,-0.0846274685,-0.0724196249,-0.1474821065,0.0919572913,-0.112595203,0.0148828598,0.0151414073,-0.056640226,-0.1128723141,-0.00055234,-0.0004016775,-0.0038356606,-0.0001620835,-0.0038530341,-0.0008027694,-0.0727802843,-0.0034652018,0.0052189607,-0.0014196439,-0.0035069433,-0.0035755131,-0.0078147167,-0.0027669414,-0.0091173001,-0.0075069535,-0.0261452403,-0.0035083888,-0.0068805694,-0.0068100368,-0.003109138,-0.0033268798,-0.0010517983,-0.0017861376,-0.0008058058,-0.0157050664,-0.0110124476,0.0151520136,0.0151486292,0.0150565474,-0.0339049269,-0.0006621823,0.0009407354,-0.0003143261,-0.0003718583,-0.0001596241,0.0005631919,0.0008621523,0.0004927752,0.0051885557,-0.0106531243,-0.0124340928,-0.0203734482,0.0032494436,0.0008423009,-0.0005673965,0.0026716135,0.0049624163,0.0030659853,0.0027397387,-0.0012196146,0.0030178795,0.0026982741,0.0030489213,0.0030772201,0.0028975233,0.0034328291,-0.0093818082,-0.011148562,-0.1175370105,-0.118752407,-0.1914349228,-0.0344825335,-0.0007370322,-0.0008025442,0.0001907188,-0.0016260323,-0.0013458062,-0.0013363605,-0.0013831209,-0.0012724485,0.0025887241,-0.0129849026,-0.0235652787,-0.0116161719,-0.0132572745,0.0014753246,0.0024713279,-0.0023973165,-0.0013712726,-0.0014260164,-0.0013579844,-0.0012810523,-0.0014191955,-0.0013798301,-0.0013559667,0.0048816869,0.0030115471,0.0030880083,-0.011706802,-0.0111476859,0.0188683463,0.0240471155,0.0149626736,-0.0249668772,0.003079489,-0.0194454687,-0.0114822991,0.0001937287,-0.0012906373,-0.0015420828,-0.0013599566,0.0025472229,-0.0233861298,-0.0234155488,-0.0237570897,-0.0112668641,-0.011375341,0.0027410103,-0.0115494994,0.003800475,-0.0013145109,-0.0011255173,0.0001662179,-0.0238490207,0.002579457,0.0032710135,0.0025704193,0.0027851814,-0.0130770789,0.0642067885,0.0040516956,-0.0121207105,0.0156294989,0.0616688836,0.0151358261,-0.0344674175,-0.0007517938,-0.0200285399,0.0040929321,-0.0011636619,-0.0015626434,-0.0014021024,-0.0025152535,0.0022078354,-0.0130844494,-0.0138060044,-0.0121846825,-0.0162502486,0.008665884,0.0027128823,0.475567948,0.0032163608,-0.0011709469,-0.0006370095,-0.0238380987,-0.0022105115,0.0017030105,-0.0140194082,0.0026513578,0.0025348502,0.0025714931,0.0029459718,-0.0124483282,-0.0103443093,0.043464291,-0.0364794963,-0.1163330008,-0.034433042,-0.0224311737,0.0002003678,0.0002338759,0.0001452772,-0.0013256811,-0.0241020097,-0.1133108168,-0.0184256912,-0.0166600672,-0.0219647419,-0.035635811,0.3735606847,-0.0100697457,-0.158935963,-0.0357900575,-0.0912144382,0.0008327194,-0.0107460059,-0.0009097053,-0.0006611879,-0.013018212,0.0025913595,0.002622118,0.0026625356,0.002371403,0.0028667688,-0.0121621801,-0.0114535923,0.0352321284,0.0806715771,0.0525419557,-0.0007261506,-0.0005770362,0.004130757,0.0037764827,0.0027021629,-0.0129278783,-0.0004435565,-0.0182809954,-0.0180694424,0.0104828611,-0.0175171081,-0.054595083,0.019599453,0.9232370298,-0.425420872,0.0039476511,-0.0530775052,0.0000190276,-0.0296055949,0.0005868228,-0.0006725001,0.002584737,0.0025033069,0.0027030505,0.0026900261,-0.0129385625,-0.0126721899,-0.0124664048,-0.0111380386,0.0154839396,0.0138788002,-0.0368878917,-0.0343712451,0.004167671,0.0025910497,0.0026043903,0.0227745187,0.002782711,-0.0116662925,0.0048528945,-0.0146369296,-0.0095164687,-0.0224209554,-0.1571474543,0.358723967,0.0071020186,-0.1518786126,-0.1294351235,0.0637199915,0.3198189593,0.3048016291,-0.1101072664,0.0001470257,0.002542884,0.0025191919,0.002595042,0.0026352016,0.0231919241,0.0028869653,-0.0116893945,-0.0114436787,0.0239100736,0.0401649642,0.0541558199,-0.0247287611,0.0037054246,0.0042303939,-0.0129829865,0.0039957417,0.0041101194,-0.0104294278,-0.0107536744,-0.0100233142,-0.0211647903,0.0041956753,-0.1128581613,1.2385946439,-0.1598033688,-0.5042507826,2.4388692921,-0.149845884,-0.4473089951,-0.1180601601,0.0298730309,0.0081850441,0.0045045905,0.0042850289,0.0028016109,0.0026179771,0.0023806536,0.0029971109,-0.0124303507,-0.011635908,0.016701133,-0.0220256178,0.0164884155,-0.0258100014,0.0024831335,0.0042053098,0.0038748523,0.023368561,0.0096295375,-0.1462918988,-0.0119657779,-0.0343282353,-0.1025460937,0.1296164588,0.0004991246,-0.8472615042,-1.2369142532,-0.1650858206,0.1534654309,-0.4312582968,-0.0890198475,-0.0310793131,-0.0318086382,-0.0072800263,0.0049712219,-0.0128517987,0.0029243478,0.0026133355,0.0021086608,0.0029397862,-0.0049888255,-0.0097550736,-0.024556046,0.0809065878,0.0111430911,-0.0344597266,0.0018968415,0.0049607314,0.0038103274,0.0049191185,-0.0074561905,-0.0072191679,-0.0123101543,-0.1451231582,0.0365470002,0.1541438242,0.0377928115,-0.1313760667,-0.1000371644,-1.9533513176,-0.5253281365,-2.4961975623,-0.0451954914,-0.022870817,-0.0254318112,-0.0234487823,0.005026357,0.0028817117,0.0031498949,0.002748116,0.0027140508,0.0029465875,-0.012210313,-0.0101400597,0.0454373418,-0.0878821378,0.0538199739,-0.0219641866,0.0041462892,0.0027151966,0.0042339769,0.0074057772,0.0045154881,-0.0126431227,-0.0122508591,-0.0114048577,0.0131283061,0.0025584721,-0.1038526921,-0.1572161845,-0.1945363771,-6.4803503197,0.2011185186,-0.013524069,-0.10576731,-0.0751263575,-0.0886202961,-0.022342794,0.0046716203,0.0032211538,0.0028934766,0.0031965234,-0.0130295036,0.0029792519,-0.012351223,-0.0102724088,0.032893852,-0.5682839109,0.0165101076,-0.0942941311,-0.0000664238,0.0026849344,0.003670864,0.0035466118,-0.0121281587,-0.0080270653,-0.008137365,-0.0091189129,0.0037942535,0.0087994977,0.0315520878,-0.3739192599,-0.4694246642,-1.2990155405,1.9168941238,-0.1569825106,-0.0011847951,-0.0097192197,-0.0247565302,-0.0239233897,-0.0984218677,0.0022767495,0.0028687102,0.0030865466,0.0026331626,0.0029479718,-0.0121917742,-0.010222126,0.0497366696,0.0419803092,0.0496495869,-0.0248779253,0.0014034723,0.0029227619,0.0039141868,0.0079472732,-0.007979792,0.0142495346,-0.007703992,-0.0274512368,0.0816771369,1.480992011,-0.353428596,-0.2727736531,-1.2326024357,-2.9661970887,-1.0014872733,-0.163811599,-0.0228994626,-0.087229581,-0.021732216,0.0569332671,0.0172991065,0.0026190421,0.0236113677,0.0028727726,0.0028766979,0.0035509025,-0.0085133554,-0.0104124426,0.0491563248,-0.0384552032,0.0259065973,-0.0259206633,0.1278500155,0.1377242566,0.0028056701,0.0079607539,-0.0078065621,-0.0066777642,-0.0088727932,-0.0077369265,0.8182949714,0.1308802619,-0.1109844449,-0.1061504943,-1.2553271577,-1.2922497201,-1.3674663003,0.0278395688,0.0605474877,-0.0906712461,0.0073892141,0.0029523043,0.0672791126,0.0029777619,0.0233748129,0.0027489448,-0.0128857781,0.0029151092,-0.0073845193,-0.0104387574,0.0598501574,0.0496469599,-0.0272444826,-0.0020351972,0.0003975766,0.0025941615,0.003257154,0.003058117,0.0077223991,0.0077508057,0.005734418,0.0081119769,0.2846931822,0.0774207124,-0.3822040148,-0.4351323602,-0.7716281273,-0.5740372106,-3.8726044292,3.529251742,-0.0165493056,-0.0066910209,0.0034863849,0.0050222225,-0.1020455376,0.0031330916,0.0235684401,0.0026691485,0.0026391531,0.0035391156,-0.0105954397,-0.0102841895,0.0442754273,0.0495148423,-0.0578589563,-0.0010608359,-0.0129254862,0.1376001312,0.0031948225,0.0232825695,0.007603035,0.0077117351,0.0170630613,0.0157283721,-0.0162144029,0.0887805453,-0.2010726407,-0.0343174918,-0.45419911,-0.1621637581,-0.5128038716,-0.2313949532,0.0066575958,-0.0468865038,0.2746503793,0.0232013093,0.0028374708,0.0031711316,0.0034718244,0.0025632661,-0.0128573661,0.0029716015,0.0089746312,-0.010535998,0.0457569677,-0.3888045091,-0.1501117781,-0.0033512198,0.1275157772,-0.0129140206,0.0031636797,-0.1923662984,0.0079162287,0.0075962458,-0.0078189504,-0.0077181791,-0.0083146033,0.2705725269,0.0187568616,-0.0550706579,8.549097684,-0.2460824742,-1.541677415,-0.3223163452,-0.0657341732,0.0048992533,0.0219203165,-1.0061300774,0.0025770033,0.0029270898,0.0029680862,0.0027696606,0.0027195581,0.0031659738,-0.0121374491,-0.0103780099,0.0352628275,-0.1363512661,-0.0789052484,-0.0026676227,-0.0014454919,-0.0130046181,0.0030732798,0.0042015853,0.0040160081,0.0074735862,0.004567412,-0.0121389381,-0.0095828754,-0.0056229863,-0.0001213805,0.0229417648,0.5531902916,0.5722494169,-0.4782136539,1.9326549736,0.3830040506,0.0038959984,-0.3704787151,0.0015672422,0.0028949541,0.0030504108,0.0029601703,-0.0128708814,-0.0128808028,-0.0126130768,-0.0067340993,-0.0103226348,0.0421063537,0.0750713565,-0.0738291075,0.0018703796,0.1260625639,0.0475282908,-0.0123136269,0.1403150381,0.0039693783,0.0071164779,-0.0073453554,-0.0122260716,-0.0050015921,0.1135650562,0.8485973716,0.5088709284,-0.070951377,4.3886732674,-2.3898424732,-3.1329523889,-0.3353443583,0.003164919,0.000482125,0.0022977707,-0.0127065303,0.0028180803,0.0026388862,0.0027596876,0.0025976741,0.0033234199,0.0090318601,-0.0101822872,0.0487825153,0.0332648235,-0.07306538,0.001919913,0.0019584838,0.0026153149,0.0027918346,0.0032233805,0.0075532893,0.0322816704,-0.0113074828,-0.0121636316,-0.0006926939,0.2849560582,0.3429026463,0.2522206603,-0.1363462615,-0.1484360804,-0.0212606551,-1.2464017127,-0.4570551494,-0.029482672,-0.0048863136,-0.0147988706,0.0225035209,-0.1021023181,0.0028113729,0.0027594345,0.0026518382,0.0033249863,-0.0123466825,-0.0103133589,0.0874976016,0.0432717578,0.0544515013,-0.0007714281,-0.0212922929,-0.0128972597,-0.0126665073,0.0996413956,0.0108125434,-0.1332219795,-0.0080903766,-0.0089945542,0.0167031165,0.6076037164,0.3843092343,-0.677807603,-1.0237451382,-0.2740098817,-0.6471254066,-1.1643291498,-0.5855112058,0.3807613497,-0.8198455314,-0.0503181268,-0.0102633153,-0.1473121933,0.0027836378,0.0027974016,-0.0129306808,0.0033472684,0.0347934503,0.1030479019,0.0639209653,0.0456131171,-0.0726673449,-0.0256727975,0.0868553626,0.0995780654,-0.0127942211,-0.0127652092,0.0168591843,0.0138133281,0.018861599,-0.0040542355,0.1193105511,0.0194783137,0.8968796143,0.5518830518,-1.1505443533,-3.9239953088,-0.2774568924,-0.2796769945,0.8399696366,-0.0427767216,-0.1127058847,-0.045410262,-0.0145056038,-0.1543512036,-0.0013764958,0.0025596111,0.0027784356,0.0034209838,-0.0098912445,-0.0112430499,0.0841251282,0.043217517,0.0554567769,0.001937056,0.0988260257,-0.0129357893,-0.0127517585,-0.0123398291,-0.0112962259,-0.0070061328,-0.0120852188,-0.0112005037,-0.0026466886,-0.1945782949,-0.1057688536,0.0867494017,-0.3834312891,-1.8533075363,-0.0032601572,0.0095530372,0.3209666492,-0.0499227234,-0.0913442644,-0.1875679702,-0.0124354271,-0.1484307906,-0.0014532326,0.002863742,0.0025845491,0.0029798881,-0.0119642533,-0.0101625542,0.0846519517,0.0563095855,0.0166267016,0.0020208965,0.1357454755,0.099578715,-0.0128006171,-0.0193294857,0.1005388498,0.0281552226,0.7050308975,0.0631764719,0.8230177725,1.1471554478,0.2240956027,0.2220272897,0.1892389721,0.7182680106,1.159456337,1.3576731387,0.0132041149,0.7645557097,0.0316412091,0.0091195236,-0.0106486306,0.0028461716,-0.0011686166,0.0033840491,0.0046099602,0.0032734308,0.0089089631,-0.0114880482,0.0846153676,0.0751706997,0.0468544079,0.0021177632,0.0020486083,0.0025447714,0.0028289994,-0.0127718806,0.1478412227,0.0098703802,0.0411832637,0.0118770071,0.0090376681,0.0105236248,0.0210762817,0.0204506883,0.0203768056,-0.0079332231,-0.0078091521,-0.0214592595,0.0062496081,-0.0165564954,0.005614696,-0.0919482398,0.0020901063,-0.1042534575,0.0018072959,0.0028940209,0.005128422,0.0055727922,0.1234275919,-0.0113821778,0.1260394858,0.0868797912,0.255254891,0.1357976787,0.1358351643,0.1376873804,0.0023851938,0.0029849888,0.003957521,0.0227514837,0.0237861337,0.0227202038,0.023199676,0.0212833732,0.010466491,0.0061583338,0.0039335986,0.0039225142,0.002640517,0.0148861318,0.0288538832,0.021989601,0.021828986,0.0215832217,0.0215721143,0.0020397111,0.0020167054,0.0025598793,0.0031486845,0.0047611606,0.0161257018,0.0091958028,0.1260145602,0.0769197904,0.1894074621,0.104098397,0.1215457585,-0.0010655203,-0.0006493316,-0.0014077013,0.0027400636,0.0071022169,0.0040527466,0.0045458773,0.0038517487,0.0024899766
