encog,BasicNetwork,java,3.1.0,1,1363128846542
[BASIC]
[BASIC:PARAMS]
[BASIC:NETWORK]
beginTraining=0
connectionLimit=0
contextTargetOffset=0,0,0
contextTargetSize=0,0,0
endTraining=2
hasContext=f
inputCount=1024
layerCounts=7,8,1025
layerFeedCounts=7,7,1024
layerContextCount=0,0,0
layerIndex=0,7,15
output=0,0,0,0,0,0,0,0,0,0,0,0,0,0,1,0,0,0,0,0,0,0,0,0,0,0,0,0,0,0,0,0,0,0,0,0,0,0,0,0,0,0,0,0,0,0,0,0,0,0,0,0,0,0,0,0,0,0,0,0,0,0,0,0,0,0,0,0,0,0,0,0,0,0,0,0,0,0,0,0,0,0,0,0,0,0,0,0,0,0,0,0,0,0,0,0,0,0,0,0,0,0,0,0,0,0,0,0,0,0,0,0,0,0,0,0,0,0,0,0,0,0,0,0,0,0,0,0,0,0,0,0,0,0,0,0,0,0,0,0,0,0,0,0,0,0,0,0,0,0,0,0,0,0,0,0,0,0,0,0,0,0,0,0,0,0,0,0,0,0,0,0,0,0,0,0,0,0,0,0,0,0,0,0,0,0,0,0,0,0,0,0,0,0,0,0,0,0,0,0,0,0,0,0,0,0,0,0,0,0,0,0,0,0,0,0,0,0,0,0,0,0,0,0,0,0,0,0,0,0,0,0,0,0,0,0,0,0,0,0,0,0,0,0,0,0,0,0,0,0,0,0,0,0,0,0,0,0,0,0,0,0,0,0,0,0,0,0,0,0,0,0,0,0,0,0,0,0,0,0,0,0,0,0,0,0,0,0,0,0,0,0,0,0,0,0,0,0,0,0,0,0,0,0,0,0,0,0,0,0,0,0,0,0,0,0,0,0,0,0,0,0,0,0,0,0,0,0,0,0,0,0,0,0,0,0,0,0,0,0,0,0,0,0,0,0,0,0,0,0,0,0,0,0,0,0,0,0,0,0,0,0,0,0,0,0,0,0,0,0,0,0,0,0,0,0,0,0,0,0,0,0,0,0,0,0,0,0,0,0,0,0,0,0,0,0,0,0,0,0,0,0,0,0,0,0,0,0,0,0,0,0,0,0,0,0,0,0,0,0,0,0,0,0,0,0,0,0,0,0,0,0,0,0,0,0,0,0,0,0,0,0,0,0,0,0,0,0,0,0,0,0,0,0,0,0,0,0,0,0,0,0,0,0,0,0,0,0,0,0,0,0,0,0,0,0,0,0,0,0,0,0,0,0,0,0,0,0,0,0,0,0,0,0,0,0,0,0,0,0,0,0,0,0,0,0,0,0,0,0,0,0,0,0,0,0,0,0,0,0,0,0,0,0,0,0,0,0,0,0,0,0,0,0,0,0,0,0,0,0,0,0,0,0,0,0,0,0,0,0,0,0,0,0,0,0,0,0,0,0,0,0,0,0,0,0,0,0,0,0,0,0,0,0,0,0,0,0,0,0,0,0,0,0,0,0,0,0,0,0,0,0,0,0,0,0,0,0,0,0,0,0,0,0,0,0,0,0,0,0,0,0,0,0,0,0,0,0,0,0,0,0,0,0,0,0,0,0,0,0,0,0,0,0,0,0,0,0,0,0,0,0,0,0,0,0,0,0,0,0,0,0,0,0,0,0,0,0,0,0,0,0,0,0,0,0,0,0,0,0,0,0,0,0,0,0,0,0,0,0,0,0,0,0,0,0,0,0,0,0,0,0,0,0,0,0,0,0,0,0,0,0,0,0,0,0,0,0,0,0,0,0,0,0,0,0,0,0,0,0,0,0,0,0,0,0,0,0,0,0,0,0,0,0,0,0,0,0,0,0,0,0,0,0,0,0,0,0,0,0,0,0,0,0,0,0,0,0,0,0,0,0,0,0,0,0,0,0,0,0,0,0,0,0,0,0,0,0,0,0,0,0,0,0,0,0,0,0,0,0,0,0,0,0,0,0,0,0,0,0,0,0,0,0,0,0,0,0,0,0,0,0,0,0,0,0,0,0,0,0,0,0,0,0,0,0,0,0,0,0,0,0,0,0,0,0,0,0,0,0,0,0,0,0,0,0,0,0,0,0,0,0,0,0,0,0,0,0,0,0,0,0,0,0,0,0,0,0,0,0,0,0,0,0,0,0,0,0,0,0,0,0,0,0,0,0,0,0,0,0,0,0,0,0,0,0,0,0,0,0,0,0,0,0,0,0,0,0,0,0,0,0,0,0,0,0,0,0,0,0,0,0,0,0,0,0,0,0,0,0,0,0,0,0,0,0,0,0,0,0,0,0,0,0,0,0,0,0,0,0,0,0,0,0,0,0,0,0,0,0,0,0,0,0,0,0,0,0,0,0,0,0,0,0,0,0,0,0,0,0,0,0,0,0,0,0,0,0,0,0,0,0,0,0,0,0,0,0,0,0,0,0,0,0,0,0,0,0,0,0,0,0,0,0,0,0,0,0,0,0,0,0,0,0,0,0,0,0,0,0,0,0,0,0,0,0,0,0,0,1
outputCount=7
weightIndex=0,56,7231
weights=##0
##double#7231
   -6.7591262606,2.142195825,-0.4893032554,2.2141324305,4.04656679,-0.04255814,0.887397936,0.5955910903,-1.4234970393,-1.7270279883,-2.3357297309,0.1326430236,-6.3874368173,7.6005568483,2.9747694513,0.9197689218,5.1781231738,-0.4878795309,6.2562333933,4.3359753098,-4.4384939757,-1.1446856249,-0.4701393474,-31.7240506369,-0.705319949,4.8071496532,-6.4389018939,2.5192971182,0.4123395073,-0.182490414,1.1238610087,-25.3277377603,0.999252297,-0.9052286076,0.980860907,-0.9742306381,4.9112378742,-3.0629758352,-3.2711681027,-43.4091219942,-0.2372409171,-0.8937401135,-0.8059898418,-4.1080610073,-2.5635900824,6.2281891798,-3.9500184251,-12.311280231,-0.0507455803,-5.6960656458,3.5287487331,-1.6372223361,0.5191814459,5.0028437839,2.7961263423,-19.9090517937,-0.0253639882,-0.0887943845,-0.0601246981,-0.0582716852,-0.0645287777,0.0125068842,0.0969083845,0.0943381502,0.1004010558,0.095584085,0.137953848,0.102010506,0.1484117828,0.1189835778,0.1387809357,0.1190059831,0.1190093223,0.1514102903,0.0455969537,0.1400391915,0.1499239206,0.0635358391,0.1163879391,0.116395075,0.1175572601,0.0619643416,0.0639022713,0.0636573895,-0.0254447705,0.1023251659,0.2744655412,0.7021023088,-0.033399418,-0.0192686528,-0.0016562932,0.0152906477,-0.017120453,-0.002401261,-0.0143089046,-0.0026240286,0.0129115464,-0.0137427323,-0.0023786748,-0.0939310853,-0.0606877002,-0.0323573015,0.0129276874,-0.0230135077,-0.0323473303,-0.0232433163,-0.0246059347,-0.0247569013,-0.0969779836,-0.0232410715,-0.023245147,-0.0323356668,-0.0232854965,-0.0323447249,-0.0231164984,-0.0230535875,-0.0172170998,0.0144290289,-0.0244768286,-0.0197482614,-0.0019258628,0.0585211053,-0.0143510665,-0.0619021108,0.0110067189,-0.0279573248,-0.0354976157,0.0128073211,-0.0354772302,-0.0257615648,-0.0373898371,-0.0276324236,0.002184015,-0.0329185033,0.0118138164,-0.0344482099,0.0117285941,-0.0353474718,-0.031967269,-0.0258246494,-0.0355464443,-0.024345209,-0.035559337,0.0117355211,-0.1076972419,-0.1036887888,-0.0615678527,-0.0256613913,-0.0258605995,0.0122905453,-0.0298488366,1.4763103826,-0.0260291511,0.0448176652,-0.0623131915,-0.100595332,-0.0605861535,-0.0713045616,-0.0027304607,-0.1076735269,-0.0632287086,-0.1065448334,-0.1076219061,-0.0182059766,-0.1076031667,-0.002606204,-0.1089125718,-0.0258271168,-0.107710043,-0.106491025,-0.0631754443,-0.0365730454,-0.0631979769,-0.1077794945,-0.0257594104,-0.1076772077,-0.0370226204,-0.0631122527,-0.0631201293,-0.0630546751,-0.061278789,-0.0176458766,0.0226356779,0.1006224194,-0.0135269081,-0.0003705814,-0.0569605222,0.0066742453,-0.1005481797,-0.0631847845,-0.1065011444,0.0118888051,-0.0182543667,-0.0177797981,0.0118995345,-0.0177663153,0.0119245791,0.001684786,-0.0344654864,-0.0255133306,-0.0363702788,-0.0251813242,-0.0960973732,-0.0255722605,-0.0365435856,-0.0257636256,-0.0369920421,-0.0365667912,-0.0257279806,-0.0255714819,-0.0255677604,-0.0629602421,-0.0615432103,-0.0255590627,0.2228344056,-0.0251922534,-0.0212416139,-0.0287204211,-0.0559195727,-0.0361241406,-0.0016758605,-0.1045076534,-0.0629973469,-0.1071654257,0.0248466901,-0.0013722646,-0.0021976529,-0.00232357,0.0477758052,-0.0087899327,1.117346396,-0.0290797005,-0.1079102264,-0.1076691797,-0.088503953,-0.0624380781,-0.0994587448,-0.0724379783,-0.1066061283,-0.0631692365,-0.107685593,-0.0630744246,-0.0630280467,-0.0625974531,-0.0781654275,-0.1080597095,-0.0253260179,-0.0244376818,-0.0183731309,0.0396268787,-0.0530381389,0.0068328057,-0.0473491908,-0.0626351868,-0.0627901749,-0.063474226,0.0139169654,0.0144932837,0.0140338404,0.0122884515,0.0872070678,0.3119036763,0.0088196229,-1.5322296499,-0.0357546145,-0.0187748098,-0.0557090521,0.0131763543,-0.0178989725,-0.1066014764,-0.0257015154,-0.0181887501,-0.0194183123,0.0110318769,-0.0026131357,-0.0254815384,-0.0637312206,0.0173573579,-0.0245879918,-0.1070876368,-0.0161924162,-0.0480369144,-0.0567182761,-0.0450855087,-0.0611461355,-0.0631162343,-0.0629244335,-0.0020607217,-0.0018760735,-0.0051897802,-0.017188822,-0.0803171991,0.8366956021,0.4540723964,-3.4939152471,-0.2320782397,-1.4187835679,-1.2248924021,0.0131048709,-0.0543917393,-0.0319454876,-0.0032660387,-0.0194730587,-0.1076409333,-0.0592192822,-0.0255839407,-0.0629717556,-0.062576366,-0.1803825253,-0.0241453081,-0.0368248185,-0.0250212686,0.0175808798,-0.0286946264,-0.0563707876,-0.1028584654,0.0644920734,0.0620377965,0.061902062,0.1054813587,0.1064322019,-0.0026868909,0.0022245466,-0.033510027,0.0481962092,0.2360834466,0.0162434985,-0.059305173,-0.0451201124,-0.0164240839,1.8551158053,1.0662638395,-0.0167414505,-0.1076803511,-0.0961334011,-0.0632226249,-0.1077217629,-0.0213110001,-0.0630370444,-0.0634710793,-0.0637346567,-0.0260605963,-0.0245607025,-0.0250368935,-0.0165254529,-0.0290478627,-0.06129917,0.0753073003,-0.0604023264,-0.0025461431,0.061925812,0.0679597788,0.1105212954,-0.4080540804,-0.0008236266,0.0078905515,-0.0281376293,0.248244216,0.2064446569,0.1336961572,1.567118922,0.7307048714,-0.2734469379,0.3683752265,-0.0279992852,-0.107822216,0.0006276138,-0.10770428,-0.1077210653,-0.0627186371,-0.0624220035,-0.0629232925,-0.0640673161,-0.0255860793,-0.0204272832,-0.0625345954,-0.0208805922,-0.0973661393,-0.065235378,-0.0908872809,0.0642931221,0.0174566747,0.0993863964,-0.0694348253,0.2751819159,0.0107016134,0.010668949,0.0138920887,-0.0535207359,0.0069861436,0.3885333983,0.5059897001,0.4270548187,-0.8847136623,0.3296830193,0.1255813375,0.0238417273,-0.0344145977,-0.0961019281,-0.1077165988,-0.1076959683,-0.0960918762,-0.1075801985,-0.0629488322,-0.0637597547,-0.0259750611,-0.0199384648,-0.0614441278,-0.0176097428,-0.0048509541,-0.0535418127,0.0644523857,0.0633607466,0.0618876706,-0.0182133658,-0.0141013116,-0.1351530087,1.1367912705,0.3223291367,0.0927946057,0.7454134254,0.0596843421,0.1999413252,2.5408327259,15.3620709057,0.4728368768,0.6072487941,0.195800712,0.1572604393,-0.0332947577,-0.0217829559,-0.0634976964,-0.0631111823,-0.1074908883,-0.1076124432,-0.0631134945,-0.06353354,-0.0193907433,-0.1564587218,-0.062595222,0.0174053529,-0.028702868,-0.0536819632,0.0325098122,0.0667089903,-0.0632228248,-0.1076732192,-0.0179202665,-0.026650207,0.018645997,0.0377701106,0.0396520521,0.0434306393,0.1048195781,0.0238514168,0.3359453661,1.3264349747,9.3347266072,0.0291289054,0.2079583215,0.6950028119,-0.0259668781,-0.0719816357,-0.0628867669,-0.0628041297,-0.0552905507,-0.063180053,-0.063159943,-0.063955522,-0.0645900442,-0.0174817157,-0.0203008315,-0.0155779971,-0.0066310266,-0.0563771239,-0.0632684726,0.0217471741,0.061770618,-0.0631854166,0.0994465178,-0.2628709692,-0.0036130015,0.021222697,0.0040965408,0.1611491936,0.0184170439,0.4737590427,0.0480804422,0.2907044905,0.2155621994,-0.4073353491,0.0872155096,0.3838059624,0.1262065444,-0.120909388,0.0036327714,-0.0592424722,-0.0630010724,-0.0562656278,-0.0600099974,-0.0638227131,-0.0219732283,-0.0179997305,-0.1392520032,-0.0319206306,-0.0211697971,-0.0600734415,0.0266332618,0.0643138486,-0.0025577499,-0.0631328545,-0.0026234672,0.0024412268,0.0019080548,0.0093469834,0.0220872205,0.1349232837,0.1490250304,0.285305498,0.5330260329,0.4792916804,0.6100021549,0.1323888225,-0.0035088961,0.024177427,0.1424737228,-0.1004867212,-0.0958141235,-0.0208947383,-0.0010357524,-0.1012472398,-0.0638292977,-0.0637227284,-0.0218071292,-0.0325400637,-0.0624400377,-0.019866128,-0.2085427354,-0.0531056756,0.0244198291,0.0633484775,0.0619955382,-0.0027001431,-0.0025969611,0.1315535317,-1.0921541811,0.0148628241,0.0603082708,0.1344185179,0.1375213653,-0.1816219466,1.1153777185,0.7615551396,0.8387723103,0.0433238749,0.1256511091,-0.0936263239,-0.2423486165,0.0677447017,-0.1231401927,-0.1026606938,-0.0632047194,-0.0637010716,-0.063481198,-0.0651305853,-0.0594897813,0.0046229264,-0.0627001017,-0.0173624018,-0.0120258867,-0.0555558653,0.0617796918,0.064566007,0.0621455687,-0.0019644466,0.1035609849,-0.0038049179,-0.0194141527,-0.0209965773,0.0647563844,1.1438704201,0.2752614886,0.3315860552,0.2333666612,0.4027500874,1.0985746477,-0.0223573399,0.3312143598,0.5116955549,-0.0246267264,0.0829299481,0.0169113854,-0.0959232649,-0.0630806729,0.0614370978,-0.0555865433,-0.059778007,-0.0257564052,-0.0561967488,-0.0594283637,-0.0227277887,-0.0362902161,-0.0538525627,0.0217263796,0.0642698752,0.0625858465,0.0621621396,0.0625324073,-0.4469743787,-0.0584373611,-0.0674643129,0.0431862709,0.0729040112,0.2701825785,0.4288665509,10.2850046729,-1.1342929866,5.6838085552,2.1195527826,0.6531781808,0.5224810708,0.1312001882,0.1381318544,0.0147974831,-0.0961721061,-0.0632169119,-0.0557912716,0.0653581111,-0.0638072184,-0.0593101265,-0.0259018639,-0.0664763982,-0.0217670607,-0.2086644233,0.0367783275,0.0617137478,0.0522189577,0.0621970893,0.0620116824,0.0613242613,0.0699455834,-0.0772233756,0.0056967112,0.1382153151,0.1238169242,0.7653650641,0.1140564019,0.0911854503,15.4726206413,0.0476455148,-0.4722357146,0.1503987828,0.2582177133,0.3694905192,0.0909822698,0.099142796,-0.0556378054,-0.0557239936,0.0709210758,0.0612526948,-0.0638670255,-0.0219845037,0.1094036047,-0.0817720392,0.014302073,-0.0482032057,0.0390679718,0.0253622588,0.0644061634,0.0622445351,0.0615578621,0.0650682785,0.065844129,-0.0036049087,-1.3184119128,0.116777845,0.3471380372,1.6567672009,2.6338021064,0.2190759682,-0.068641915,0.5070707378,2.1339619253,-0.1033329712,0.1034549581,0.019497517,0.0898128153,0.0880003896,-0.0556109643,-0.0555429355,-0.0540731931,0.0654157437,-0.0598638619,-0.0217572591,0.1093679578,-0.0745133319,-0.0223169798,-0.1702443726,0.0444646235,0.0672624084,0.0645600843,0.0656419986,0.0614768781,0.061003055,-0.0514376725,-0.3878673312,0.0070628831,0.0337822981,0.1284471692,0.1278642173,0.265230436,0.4128650598,1.5700485976,0.1833804612,3.1239937334,0.7310751427,-1.0391949782,-0.0470744043,0.1156844807,0.1069287164,-0.0550126331,-0.0557186288,-0.0540210304,0.0613414433,-0.0639545529,-0.0595255159,-0.0181182662,-0.0741200319,-0.0290935418,-0.1321700575,0.068935342,0.0623336009,0.0613980654,0.0649874296,0.0613345563,0.0678500243,0.0710758173,-1.8075658823,0.0182895437,-0.0322947483,0.1405826836,0.2869184592,0.0086177617,0.0761086165,0.2516709129,-0.3098744179,-1.2036682089,0.4148653509,0.4850647862,0.0089362792,0.0141249508,-0.0140016351,-0.0555898692,-0.0136201736,-0.05325573,0.0613817576,-0.0641744425,-0.0595148168,0.1093305218,0.02868753,-0.0226206213,-0.3330209013,0.0686051211,0.0667192606,0.0644056809,0.0609656642,0.0650606674,0.0521311415,0.0736939862,-0.0587572344,0.0255841483,0.1996664361,0.1206765768,0.0631258538,0.0320537545,-0.3914822479,1.0243653678,0.2060382631,-2.3299997575,-0.2333721762,0.5162044376,-0.3856861793,-0.4804837891,-0.0158638956,-0.0554876626,-0.0595567439,-0.0594548822,-0.059593709,-0.063878061,-0.0594982034,-0.0586211551,-0.0657673265,-0.0219406227,-0.0054565446,0.1091321977,0.0669121748,0.0614693269,0.0611023749,0.0612491541,0.2509739638,0.9465318912,-0.4691155099,0.0168653265,0.0984927705,0.4022417047,0.0755900788,0.9191115225,3.5589531445,1.9049299929,0.1355292118,0.1158980727,0.1541110191,0.6791401635,-0.8478445946,-0.1979357972,0.132416893,0.0687068347,-0.0967352446,-0.0392698025,-0.0529167597,-0.0636534257,-0.0527024956,0.0688374965,0.0410684137,-0.0249702058,0.0160824188,0.1604998965,0.0831417819,0.0645887504,0.0612001326,0.0643355257,-0.0631113877,-0.0691716167,0.0021627681,-0.0620346943,-0.0098322495,-0.3935350403,-3.1222890369,0.1960251255,0.164346308,-0.5008111734,-0.0485291314,-0.5183009512,-1.29856217,-0.1992046017,-0.2263189598,-0.1206749507,-0.2348152768,1.7810063251,-0.096571229,-0.0594346789,-0.0527376129,-0.0646076851,-0.0634873344,0.0720794934,-0.0771009041,-0.0215484027,-0.0334190893,0.0288969434,0.0817815724,0.0623751514,0.0629647621,0.0613827301,-0.0646455917,-0.0630159239,-0.2287288957,-0.0907999618,-0.3262996933,-1.3086018742,0.0988102911,2.3865041734,1.1474624247,0.2259104628,0.7601173024,0.1576409856,2.2021691255,-0.100373455,-1.111884864,-0.0621433199,2.1569622828,0.0609309841,0.0172675434,0.0625659835,-0.0730236108,-0.0638275032,-0.0592749226,-0.0528955539,0.0639116497,-0.0210168533,0.0158624836,0.3176215187,0.0663881407,0.0522136225,0.0648274486,0.0623046854,0.0651854165,0.0633302171,-0.0261070686,0.0083666475,0.1444978524,0.153836031,0.1640187942,0.4135370374,0.4113589329,0.4052083538,0.3664175352,0.3198017283,0.4848949381,0.3653081604,0.4053070836,0.3464692466,0.0760662066,0.1412030816,0.0684171825,0.120526731,-0.0639717967,-0.0724728656,-0.0523920917,-0.0386427555,0.0625982332,-0.021770122,0.013174209,0.1707697726,0.0643240289,0.0659799824,-0.0596370154,-0.0593217343,-0.0631660642,-0.0590068574,-0.0624627563,-0.0514531174,-0.0617050159,-0.0590608386,-0.0748470838,-0.122567377,-0.0899051626,-0.0787538171,-0.0369275508,-0.0519339019,-0.0435602365,-0.0268652083,-0.0619598883,-0.0606232641,-0.0243322988,-0.0600523901,-0.0705389915,-0.0503770249,-0.0601464083,-0.0731430099,-0.0725365788,-0.0383316475,0.0600539805,-0.0263236172,-0.0372136073,-0.0104974492,0.0090615316,-0.0215620257,0.0674589145,0.0247018088,0.2722826516,0.059895886,-0.04633277,-0.0755492649,-0.0541641515,-0.0415132627,-0.0521455226,-0.2559028567,-0.2039773515,-0.044138486,-0.1104921716,-0.2041971108,-0.0351837203,-0.0631304753,-0.0573016669,0.0606729025,0.0608327932,0.0645846922,-0.249390028,0.0682451686,0.0157701862,0.0591567453,-0.0608615856,0.0629594117,0.0469056497,0.0194152974,-0.0249570663,1.3466969149,0.0342919101,0.0077137693,0.0637586019,0.0653886785,-0.0595334517,-0.0672211461,-0.0525843841,-0.0396199673,-0.0508864229,-0.0518356593,-0.0550971507,-0.0527732444,-0.0439966501,-0.0401148455,-0.0342998414,-0.0404714406,-0.0527386382,-0.0441081079,0.0887421349,0.0810708543,0.0808988274,0.0650115128,-0.0578833206,-0.0653917983,0.0657947445,-0.0401370985,-0.0307385435,0.0878573922,-0.0514725378,-0.4115521277,-0.3808601787,-4.3772257826,-1.5914513571,-1.5241533505,0.0449088275,0.0140655122,0.0235300045,-0.0762074685,0.0281640772,0.0483785644,0.0480478832,0.0162828921,0.0483750927,-0.1242240609,0.0463473335,0.0466448323,0.0466149684,0.0494938859,-0.0852843131,0.0162895548,0.0459659041,0.0160973447,0.0082704945,0.0190787568,0.0391804138,0.0169757242,0.0598063881,0.1516066596,-0.0265235102,0.0506651204,-0.03389238,0.2654337889,-0.0857933441,0.5465269614,-0.4719694307,-1.4109602569,-1.9024621382,-0.0298018732,-0.1165044673,-0.1762459051,-0.1961461627,0.0462313447,-0.0116772665,-0.1216216291,0.0501958258,-0.1528021613,-0.671891906,0.0462095902,0.0432371991,0.0017154519,-0.1684612323,-0.0958811276,-0.1264874403,0.0512904542,-0.1509945386,0.0398542561,0.0469047368,-0.086504191,-1.4465583787,-0.1086045398,-0.0630098166,-0.1924081248,0.0207916177,1.0509332458,-0.0439968776,-0.6314539687,-1.0247399867,-1.0928746816,-0.024323962,1.2562921173,0.1335200441,0.9668888411,0.1335019645,0.2241710189,0.4133455118,0.135181356,0.1595446281,0.1363609039,0.0289957382,0.1276292684,0.1285519519,0.1140091669,0.1110148289,0.0583482994,-0.0137631696,0.0440038843,0.0449676796,0.042650207,0.0256761784,0.1294275813,0.0424663327,0.1471660488,0.916968184,-0.0043760519,-0.0163790315,0.0760476055,0.0702172732,0.0347369579,-0.0207457025,-0.0177168678,-0.0100191155,-0.0063997809,0.0055683521,-0.0025577049,-0.0099114152,-0.0104808245,0.004648233,-0.0119465323,-0.0029456221,-0.0157673744,-0.008875895,-0.0032765289,-0.0258804501,-0.0008470989,-0.0099876888,-0.0091590458,0.0001177041,-0.0184388517,-0.0132972605,-0.0192007482,-0.0155866639,-0.0150803531,0.0013273367,0.1525271786,0.3399491982,0.0108553866,0.0009009236,-0.0718506843,-0.0096078276,-0.0284902811,-0.0186448367,-0.1433481364,0.00314714,-0.0115574728,-0.0447642815,-0.0424922182,-0.0138275471,-0.0088764603,0.005736168,-0.0260534797,-0.0100819087,-0.0137485518,-0.0100896337,-0.0055461999,-0.0089173351,0.0056460627,-0.011648076,0.0005999309,-0.0127114938,-0.0075204477,0.0056638077,-0.0083258134,-0.0635429574,-0.059230055,-0.0610467938,0.009934435,0.2433075881,-0.0042693516,-0.0122949792,0.0024231077,0.0191771989,-0.051024904,-0.008917729,-0.0869273742,-0.0475481656,-0.049807293,0.0013348146,-0.0129218224,-0.0473043986,-0.0503504141,-0.0541974114,-0.0091637992,-0.0456687492,-0.0441563374,-0.0517528669,-0.0528866631,-0.0139513061,-0.0063702602,0.0015214852,-0.0067430624,-0.0110185104,-0.0077524571,-0.0074318074,-0.0543130038,-0.0072002285,-0.0493247427,-0.0297487033,-0.0377919952,-0.0253982269,-0.0099860132,-0.0118965734,-0.005368624,0.0132401862,0.0065109678,0.0113797279,-0.0157215822,-0.0563497808,-0.0447580415,-0.0110285082,-0.043148523,-0.0099350569,-0.0480810502,0.0062934835,-0.0437804595,-0.0516963304,0.0052371716,-0.0465233019,-0.009320502,-0.1142106346,-0.0065176847,0.0272576837,-0.0033554797,0.0073583487,-0.0062709003,-0.0084346248,-0.0428443901,-0.0488432076,-0.0358651562,-0.0445862154,-0.0389432147,0.0159231607,-0.0103993089,-0.01018409,-0.0075296969,0.0309780174,-0.0310646069,-0.0130880497,-0.0767404806,-0.0530721869,-0.0134782836,-0.0369547536,-0.0203168348,0.0623572682,-0.0080969228,-0.0337622164,-0.0231114516,-0.0517606496,-0.0518869621,0.0235286075,-0.0081027161,0.0015415024,0.0028857638,0.0324249918,0.0025404714,-0.0103625938,-0.0171669645,-0.0099233227,-0.009545588,-0.0572570004,-0.0487435905,-0.06105708,-0.0084551717,-0.0114647442,-0.0058599564,-0.017848187,-0.0058477572,-0.000811786,0.0107980275,-0.0583175493,-0.0562014534,-0.1402924003,-0.0353575138,-0.0306012406,-0.0342062331,-0.050173431,-0.0289450849,-0.0524331841,0.0898068463,0.0431503881,0.0519633449,-0.0042099958,0.0128525595,0.0819637192,0.0542962964,0.3280621617,0.3030433368,0.0888673578,-0.0497955302,-0.045098547,0.0369732868,0.0114695836,0.0425725705,0.0343385973,-0.0077229603,-0.0300449538,0.0065469392,-0.010999014,-0.004449123,0.0374282862,-0.0706336905,-0.0142887845,-0.0887486838,-0.0409443255,-0.050645117,-0.0508456163,-0.0426429406,-0.0391990246,-0.0060664558,0.0215755759,-0.051932317,-0.0623200175,-0.0679346209,0.0119448496,-0.0006288568,-0.276118325,0.062999242,-0.0231066806,-0.5350842172,0.0154569046,0.0164996176,0.0134728239,-0.0116446236,0.0401068523,-0.0329520519,-0.0494939973,-0.0311721588,-0.0038588532,-0.0093444315,-0.0122814259,-0.0052265213,-0.0040441944,0.0222969173,-0.001394278,-0.0802597284,0.0779461783,0.0555687617,0.0733630591,0.0800253828,0.0738457867,-0.0155086826,0.6620571864,-0.0254816796,-0.0196093941,0.1233663211,0.0263809471,-1.0915936485,-0.02672422,-0.0952716126,-0.027053376,-0.2196350112,-0.0248675634,-0.0467517383,-0.0540499535,0.0415680524,-0.0098886589,-0.0529189742,-0.056727391,-0.0566563492,-0.0335928499,-0.0116873117,-0.0097025906,-0.0060649602,-0.0012824755,-0.2515884855,-0.009139434,-0.0365355246,0.0365260885,-0.039025016,0.0665328093,0.0847635359,-0.0243469863,-0.1056787928,-0.031423849,-0.8050099726,-0.0954151525,0.227467703,0.0115771664,0.6307954488,-1.0974681657,-0.4431051254,-0.043353807,-0.4785823001,-0.0180179481,-0.0984530072,-0.096735252,-0.0801847791,-0.0757027042,-0.0356146217,-0.0728673983,-0.0351751887,-0.0052974312,-0.0041568467,-0.0073021546,-0.0075209646,0.021714787,0.0223789555,-0.026245115,0.0721750792,0.0412428048,0.060812937,-0.0953524354,-0.0479382742,-0.0628070057,-0.0017907668,-0.8923185222,-0.2832132612,-0.0138123501,-0.0026155741,0.0704976182,0.0190003989,-0.3992785454,0.0695980731,-0.0312377295,-0.0123378778,0.0314732745,-0.0580369478,-0.0154165016,-0.0311477459,-0.0950089246,-0.0751970204,-0.0487665616,-0.0491571905,-0.0337845602,-0.0066977197,-0.015383804,-0.009508292,-0.3312788032,-0.0260712349,-0.0172759354,0.0116900244,0.0671853453,0.1308489734,-0.0124530555,-0.0213267467,0.0030530334,0.0248015518,-0.0682462472,-0.0225559133,-0.0006053539,-0.0011164115,-0.5330885048,-0.1704685703,0.1524248057,-0.0460059275,-0.029249521,-0.0539364495,-0.5348785053,-0.1719928355,0.0008308539,1.0987693048,-0.0791456449,-0.0411308001,-0.0722443595,-0.0687515735,-0.0740811108,-0.0191674451,-0.0098097716,0.0014488031,0.0117565569,-0.1739874179,-0.0134776621,0.0103691248,0.0647173179,0.1131704069,0.0191653324,-0.0375568437,0.0014024745,-0.0034255873,-0.1814202108,-0.0926908074,0.0016564447,-0.4274745711,-0.0051453734,-0.191433693,0.0700771181,-1.0477243757,0.0671858223,0.0562438357,-0.0296058143,-0.0443119205,0.0459642066,0.0328895046,-0.0088303545,-0.0070143156,-0.0206050303,-0.0804122038,-0.0550770806,-0.0090069851,-0.0084724877,-0.0073516556,0.0078224951,0.0302851178,-0.0441009896,-0.0189331106,0.083750592,0.075564274,-0.0064296639,0.0784253834,0.100441665,0.0115319047,-0.0148061299,-0.0256455637,0.0554539512,-0.0032367458,-0.0173627448,-0.3181929227,0.0618628274,0.0104201486,0.6406249943,-0.0216006625,0.0768057502,-0.17443371,0.0146043975,0.025413856,0.0049234673,-0.0536513831,-0.0173909747,-0.1678719254,-0.0767984375,-0.0060907512,-0.0054724777,-0.0073969507,0.0141876103,-0.0236016108,-0.0172056458,0.0257627856,0.0342204077,0.0000268485,-0.053039075,-0.0624892206,0.0659857475,0.1415227452,0.0013261355,0.0050674963,-0.1002100767,-0.0029524767,-0.0150237568,-0.17281799,-0.433085908,-0.094575262,0.1155045091,-0.0985332027,-0.062605577,-0.2764958432,-0.0570542753,-0.0536712705,0.0762108596,-0.0023648837,-0.0096218038,-0.0088020234,-0.0100434762,-0.0098348198,-0.0113039127,-0.0052303038,0.0094869119,-0.1479741391,-0.0242346313,0.0798405634,0.0276493032,0.0979051273,-0.0043070914,-0.0382824089,0.1021382698,0.0066939311,-0.001249215,0.0145918811,0.0119981941,-0.0500380173,-0.0305749154,-0.0440737911,-0.7978369398,-0.0649182624,-0.5818351775,-0.0050745285,-0.1113079181,-0.0790076285,0.8244597269,-0.0581060933,0.0528914084,0.0032284251,-0.0100728365,-0.0072503821,-0.0082989359,-0.0102799785,-0.0107013157,-0.0050383759,-0.0268362549,-0.0289889531,-0.0180937379,0.028684111,0.0549758457,0.0335882202,0.0317932638,0.0499190033,-0.3105793023,0.0029723016,0.0045912515,0.0805033171,0.0569494008,-0.0301908558,0.1668662853,1.0775594605,-0.1546092559,0.0569080674,-0.0275119318,0.1349266202,0.0600990805,-0.0439676952,0.0871694255,0.0126754807,0.0315232076,0.3522550808,0.0967308552,-0.0257280548,-0.003227343,-0.0075427128,0.0872907215,-0.005231894,-0.0169203805,-0.2835729735,0.0695728365,0.0258324505,0.0229815793,0.0525797429,0.068170869,0.0814027067,0.1490089823,0.446233452,-0.0591032083,0.0037438453,-0.0465453154,0.0158060001,-0.0852039857,0.4887813532,-0.0659822815,-0.073436373,0.0789880412,0.1014174049,0.0871193581,0.0499876185,0.0359254325,-0.0970069889,-0.0309070962,0.0288327238,0.0209669844,0.0980621279,-0.0048961441,-0.0130724903,-0.0092914897,-0.0107388485,0.0049166669,-0.0258251874,0.0729450906,0.0554104045,0.0679344858,0.0667375724,0.0685619147,0.0727558451,0.0994828706,-0.002030012,0.6909844766,0.1537335168,0.086874675,0.5689066016,0.0695003544,1.6053146488,0.1718122322,0.2420881757,0.2167611161,0.070754575,0.0354168296,0.0868199894,-0.0099668087,-0.5745092737,-0.1049982395,-0.0106326924,0.1073225242,0.0978007842,-0.0490300011,-0.0231052758,0.0976127053,-0.0125193166,-0.0200525177,0.0291603531,0.0851795318,-0.0956652614,0.0420687906,0.0664704266,0.0552919186,0.1128534407,0.0535007497,-0.0670116163,0.004777074,-0.0312004399,0.0571629801,-0.1443312073,-0.2116293756,-1.4767221255,-0.0109743521,0.1070137872,0.214311098,0.1008751863,0.0528654918,0.0192466157,0.0610078936,0.0426964117,-0.0846894252,0.0053451414,-0.0060746555,0.0868345193,-0.0556619858,-0.0250676109,0.0892930126,-0.0116534964,0.0306643309,0.0268442367,0.0703994371,0.024139626,0.0672916845,0.0691972966,0.0707969652,0.0438691891,-0.0420688288,0.0311862376,-0.1414269322,-0.2781003034,0.2995924518,-0.6059404869,-0.1081353575,0.0002239903,0.0068149293,0.0269345537,1.8743409661,0.339523505,-0.6516143306,0.0464966567,-0.5203006394,-0.0512876627,-0.099750282,0.0015653966,-0.035273548,0.0684796808,-0.0535604577,-0.0212710047,-0.0072050521,-0.0118073907,0.033701617,0.0158715725,0.0786226854,-0.1305174099,0.071776937,0.1461539153,0.0875243404,0.0503701147,-0.0166612497,-0.0699398077,0.047526549,-0.0313783122,-0.0645028866,0.0368560568,0.0808937101,0.2025275334,0.7031275098,0.124440157,0.6851959343,0.0790408487,-0.344236054,-0.2703959158,-0.0680855145,-0.0530755564,-0.2029005538,-0.023877531,1.4382957208,0.0511070567,0.0535964225,-0.0176296812,0.0875384928,0.0889216323,-0.0189138225,0.0181215333,0.0712786862,0.0733047842,0.0708289459,0.0845582573,0.072415603,0.0142131642,0.0460972882,-0.1994694559,-0.9120915477,0.0014871139,0.0464467339,0.0148726003,0.0088644999,0.0146995672,0.0978784973,0.0389118384,0.0211905996,-0.4160790708,-0.0274632496,-0.1239696592,-0.0808369841,-0.0501564637,-0.0154887154,-0.2537001459,-0.037147588,-0.0408206515,-0.0582590366,-0.0176606908,0.0910878069,-0.01146571,0.006451137,0.282014375,0.1320124377,0.0319365147,0.0741530671,0.0730328874,0.0615376417,0.0519422853,-0.1053659609,-0.020302571,-0.0586330477,-0.0282486456,0.0434328894,0.0068501651,0.1418196693,-0.0165201941,-0.199170611,0.0728476733,-0.0523311401,1.0100748326,0.1298620385,0.0218982778,-0.8101800971,0.0410333121,0.0221690918,-0.1388771893,-0.032165022,-0.0372827692,-0.0418884909,-0.0213334485,0.0887584821,0.0861438065,-0.0000248515,0.0325143022,0.0295916998,-0.0881340723,0.0952743695,0.3184075872,0.068730941,-0.0251622437,-0.4856484962,-0.17024429,-0.3844813397,0.0103361888,0.0012576608,0.0204505046,-0.0973353206,-0.0049542694,-0.0207877035,-0.0353151543,-0.1133255007,-0.1794736957,-0.1718412578,-0.0313812673,-1.2873818497,-0.0674721162,-0.030040498,-0.0259565896,-0.0488636226,-0.0368928304,-0.0623968432,-0.07025636,0.0491945271,-0.0095927255,0.0027125104,0.2931122771,-0.0930163379,-0.0822092383,0.1725937637,0.1035926973,0.0488761623,0.0316267238,0.0393642296,-0.0597438563,-0.3175619206,-0.1951818379,0.1021673645,0.0272889732,-0.6524512717,-0.2899118893,0.8672879926,-0.0479780755,-0.0333141762,0.0909623579,0.1035321643,-0.969812822,-0.1269474986,-0.0746427451,0.0506717018,0.3034873172,0.338563415,-0.4344381433,0.7121557855,-0.0189362496,-0.0110240448,0.0918062678,-0.001692891,0.3118793869,0.3435906364,-0.0835789463,0.0586333746,0.1496637246,0.9782370269,0.898430988,0.5551986577,-0.75604282,-0.1643827754,-0.5710876105,-0.1315206224,0.1028453455,0.1005576493,1.1901581724,-0.11198628,0.9336136093,0.0093415412,-1.7798906354,1.6168088945,0.0890485174,0.2980713837,1.0289983106,-0.1579933534,0.1125475477,0.5109852849,1.3944239916,-0.0786291845,-0.0080853581,-0.0217864284,0.1000122709,0.0008824468,0.1981455092,-0.5196357557,-0.2657578692,-0.4042623424,-1.2166191754,-0.000399729,1.552601086,1.7351548071,0.1865413518,2.2845651073,-0.1539918596,0.1541378172,-0.2450862328,-0.1391931792,-0.2110265728,-0.0770275256,-0.0921284252,-0.1329597604,-0.5829104331,0.5304903183,-2.3679358653,-0.1711658738,-0.0840600493,-0.1356555739,0.0150027346,0.0315404415,0.1057869193,-0.0416739264,-0.0199467016,-0.0252122333,0.0940498915,0.0038224785,-0.4659402368,-0.0904189272,-1.0639979762,-0.6854181966,0.0313612168,2.3797492717,0.3958869055,0.2629428995,0.2074937223,0.0093321119,-0.7964408124,0.0321634572,0.3652675879,-0.2125615174,-0.067353828,-0.1506840153,-0.1140439588,-0.4884740093,0.2695538303,0.5153443308,0.362474375,0.2932585857,0.2251323928,0.2937114279,-0.0455110022,0.1595323024,-0.5359791035,0.0242748645,-0.2926035081,-0.2674645747,0.1119874635,-0.9070955962,0.28262738,-0.3246802845,-0.994884583,-0.0201136632,0.0652172606,0.0813933765,0.3860092631,0.0031069406,-0.0369544118,-0.0190948897,-0.0073901311,-0.0981094799,-0.217615288,-0.1322419461,-0.0291094314,-0.0628010765,-0.0576619592,-0.0116638167,-0.0447151465,-0.0053743789,0.0990065341,0.1027316637,0.0910680641,-0.0119659456,0.0071210861,0.0024155953,-0.2789961388,-0.1279423383,-0.0779677883,-0.0229846967,0.0104874962,-0.0085891802,0.1136384672,-0.3978411501,0.0550826289,0.023818681,0.0729929898,0.4102782181
   0.1628019022,0.1670288403,0.1609078035,0.0758909853,0.0118118832,0.0486060022,0.0032885182,-0.0398306424,0.024056506,-0.0038309851,-0.0011471127,-0.0043966536,-0.1210841475,-0.007343999,-0.0179245503,0.0650341084,0.0129879851,0.0785632647,0.0106504386,0.0545990452,-0.1478805125,-0.0504266713,-0.0734178535,0.0494439322,0.0974066669,0.2867438966,0.06199289,-0.0557070972,0.0463229642,0.0300211204,0.0368528259,0.0238906568,0.0399662897,-0.0747818717,0.0326037673,0.0498107723,0.0366932978,-0.0914649076,0.0274631264,0.0390012765,-0.068274858,0.0214972686,0.0410544019,0.0399045015,-0.0840139171,-0.0776602988,-0.0762731989,0.0525779313,0.0446713801,0.031537785,0.0267307635,-0.1403642013,-0.085421878,-0.0273488328,0.0608860656,0.5971759644,0.0255908452,0.0323843012,-0.0365608468,-0.01248726,0.0530557953,-0.0099698029,-0.0127232603,0.7778477061,0.0748833308,0.0818534474,0.0783744657,-0.0051436613,0.1584068568,-0.0121050494,-0.0138858269,0.0837235149,0.0850186586,0.0867709913,0.0821450741,0.0823274345,0.0863414081,-0.0978134235,-0.0932239018,0.0723344357,0.0680753504,0.0219710134,0.0253711247,0.0967275899,0.0610846993,0.0247168559,0.1525227196,0.0144733866,-0.0211730916,-0.017389264,-0.0647912748,-0.01128048,-0.0108427683,-0.0114516673,-0.0118995278,-0.0627666615,-0.0169740186,-0.2076513689,-0.2077626131,-0.0121378164,-0.2075004798,-0.0119144393,-0.0168574231,-0.0121790314,-0.0411532887,-0.0008005527,-0.0109934503,-0.1196372514,-0.0300860423,-0.119612979,-0.020428442,-0.2986344393,-0.3236073699,-0.0204505569,-0.07724789,-0.0283477747,-0.0155137571,-0.0279900742,-0.0008481911,-0.0249966123,-0.0405743163,-0.0223490381,-0.0447141661,-0.0099902614,-0.0109261883,-0.0117892067,-0.0228831784,-0.0118155024,-0.012205782,-0.0156402531,-0.0117718524,-0.08729508,-0.0121266712,-0.055228639,-0.0127428048,-0.0117214947,-0.0256197209,-0.0137170693,-0.0316785343,-0.0124348454,-0.0123376617,-0.0133395469,-0.013143231,-0.0434216809,-0.0126513035,-0.056383617,-0.0163640646,-0.0161911467,-0.0432370694,-0.0137810076,-0.0167362677,-0.0190229118,-0.0088029788,-0.0220137324,-0.025691655,-0.0088274928,-0.0113148172,-0.0107378372,-0.012491806,-0.0116721732,-0.0261679229,-0.0123239659,-0.0134794153,-0.0244777583,-0.017546747,-0.0125657948,-0.0111414928,-0.0122366969,-0.0172392113,-0.0143234764,-0.0125505526,0.0684092107,-0.0125394397,-0.0130103773,-0.0128432237,-0.0129923414,-0.015102347,-0.0123108334,-0.0138200509,-0.0326966754,-0.012810878,-0.0127729688,-0.012610719,-0.012489699,-0.0109022211,-0.0228871771,0.0044036005,-0.006713359,-0.0258353818,-0.011601029,-0.0125074725,-0.0234982833,-0.0117407102,-0.0143183316,-0.0150644159,-0.0149453461,-0.0159984716,-0.0121760582,-0.0128455034,-0.0139908913,-0.0714237938,-0.0157311442,-0.0247294646,-0.0110119233,-0.0120587803,0.064634911,-0.0138091052,-0.0148054354,-0.012758327,-0.0120672126,-0.0137233713,-0.0130193221,-0.0145349447,-0.0127312812,-0.0125419253,-0.0132602057,-0.0111152501,-0.0303233476,-0.034204083,-0.0868978639,-0.0106175366,-0.0110650696,-0.0138784025,-0.0213214398,-0.0115579181,0.0019992977,0.020235919,0.0016289014,0.0202403108,-0.0127378829,0.017363024,0.0176163242,-0.0413598277,-0.0174075182,-0.0186574629,0.0140512934,0.002903768,0.0390526849,-0.0124703758,-0.0116423425,-0.0124381227,-0.0172403183,-0.0117797004,-0.0143169597,-0.0129471517,-0.0124694628,-0.0279520209,-0.0181702213,-0.0098212949,-0.0512927752,-0.0309306929,-0.0808135721,-0.0117140851,-0.011610252,-0.0114688499,-0.0125333141,-0.0113013863,0.0070873901,0.0056421007,0.0145448251,0.0005917622,-0.0142011894,0.0675188781,0.0592076685,0.0015595699,-0.6748748493,-0.0461967605,0.0209976635,0.0221427887,0.0724140164,0.0719596209,-0.0184346928,-0.0255834924,0.0259287515,0.024380663,0.0143984619,0.0247955075,-0.0155317796,-0.0124960757,-0.0111791818,-0.0119109936,-0.0139431364,-0.0401592506,-0.0854133994,-0.0120116703,-0.0104132776,-0.0243268486,-0.0115051558,-0.0112535248,0.0075153236,0.0080466555,-0.0052274192,0.0131958227,-0.011414904,0.1126409134,0.080399202,0.0073592863,0.0146191273,-1.0467090449,-0.0673556288,-0.0396424929,-0.0883629098,0.0084324771,0.0179361872,0.0249332309,-0.0115365778,-0.0138127775,-0.0122571471,-0.0170270635,-0.0124829699,-0.014851564,-0.0126035026,-0.0118887694,-0.0209414723,-0.0295867833,-0.0865592108,-0.0879847734,-0.0108571059,-0.0116160542,-0.0117954963,-0.0128509309,0.0077366273,0.0077045363,0.0780253939,0.2861755226,0.0160838174,0.0175375252,0.0559720855,0.0033940507,0.3887283575,-0.18349897,0.3129193765,0.0689136123,-0.0797873577,0.9162090631,-0.0109843868,0.7990798949,-0.0108149554,-0.01208818,-0.0146454209,-0.0232209827,-0.0120291997,-0.0128827759,-0.0131104808,-0.0433618509,-0.0143818744,-0.0292718714,-0.0879633935,-0.0121777029,0.1013263522,-0.0115205576,-0.0128200546,-0.0147540427,0.004943013,0.0078680847,-0.0089562793,0.0171073218,0.0082370039,0.0245391223,-0.5073070615,-0.1421407212,0.2660363738,0.5177366948,-0.0137466348,0.0508925051,0.007384304,-0.0554268524,-0.0090186073,0.1094375229,-0.0102225531,-0.0122565736,-0.0163554559,-0.0190990181,-0.0137176878,-0.0131263745,-0.0123247634,-0.010729301,-0.0169758684,-0.0010246614,-0.0872473186,-0.0107187153,-0.009788969,-0.0208321296,-0.0128470309,-0.0266540096,0.0052166088,-0.0066974306,0.036413579,-0.0576109725,0.9466427462,0.0988830051,1.4424460158,0.0052959446,-0.0019991592,-0.1264857827,-0.0255648772,0.0686311993,-0.3126504603,0.1811760675,-0.0149059004,-0.0720627562,-0.0045098033,-0.0311189423,-0.0136022307,-0.0135190599,-0.0143370847,-0.0269671952,-0.0142129989,-0.0156389475,-0.034179717,-0.0070384351,-0.0883628812,-0.0115397354,-0.0115968033,0.1007310113,-0.0144057725,-0.011646754,-0.017052915,-0.0135720597,1.0145901926,-0.0108017805,-0.0014203544,-0.0053461194,0.0276023096,0.0124273791,0.113445451,-0.050565351,0.0595756437,0.4349017589,-0.0094833852,0.6444871279,0.0264184354,-0.0122254956,0.0058207918,-0.0641972334,-0.0137986242,-0.0116520265,-0.0117740375,-0.0136400834,-0.0117682234,-0.0101360008,-0.0142102686,-0.03836258,-0.0740924867,-0.0122681812,-0.0091814949,-0.0118263869,-0.0115995779,-0.0201096143,-0.022654711,-0.0172150226,0.0089513979,-0.0126516937,-0.9026625797,-0.0153835482,1.2495189623,0.0425578823,-1.0079276475,-0.2266871127,-0.0693450965,-0.2070459459,-0.0200271805,-0.6931326417,0.0316047015,0.0357992224,0.0204124819,-0.4093661304,-0.0135932649,-0.0103933581,-0.0156286237,-0.0171882617,-0.0125840046,-0.011524246,-0.0384092557,-0.0191294944,-0.0753794137,-0.0871144877,-0.0116136549,-0.0115000821,0.1010412969,-0.0116716543,0.0935510179,-1.2158561911,0.0056817324,-0.0237437432,-0.0389483642,0.0049830888,-0.0951334103,0.127605869,-0.3327734737,-0.3291499476,-0.3398465627,-0.0860340135,-0.2437020323,-0.1568495358,-0.0830104759,-0.6945854713,0.0866541923,0.0192923471,0.0495475269,0.0076271212,-0.0040981021,-0.0160173499,-0.0129710229,-0.0106736665,-0.0285192106,-0.0364971389,-0.0880522337,-0.0115647561,-0.010622209,-0.012300458,-0.0141755607,-0.0111175842,-0.0217429261,-0.0359577374,0.0081724073,-0.0124283406,-0.0108423972,-0.0024373627,0.0157321431,-0.0167296622,-0.0317458328,0.0124931646,-0.1188828577,-0.2164448357,-0.0409841029,-0.0718684665,0.0100068149,-1.9224657752,-0.0837983316,-0.0161107323,-0.0144026478,-0.0115898103,0.0054310839,-0.0146342865,-0.0126738655,-0.011093481,-0.0311403157,0.0165703276,-0.0676681419,-0.0090800617,-0.0077843176,0.1008583085,-0.0116586111,-0.0103555836,-0.0113562874,0.064382085,-0.0193916419,0.0673310922,-0.0362369467,-0.0199280507,0.0111099968,2.1694227216,3.5342093617,0.0127957723,0.8748929728,0.0337992807,-0.0250342549,-0.0735353758,-0.0560872052,0.0202037094,-0.0435223611,-0.0109296523,-0.0132322194,-0.011822128,-0.0078687489,-0.0128302514,-0.0127772551,-0.0126025385,-0.1280486969,-0.0275998721,-0.0366628642,-0.088381358,-0.0212681883,0.100287398,0.101201201,-0.0134885397,-0.0108654581,-0.0065179854,-0.1319412244,-1.7160215636,-0.1079697928,-0.0104334672,-0.0427273487,-0.0996857293,-0.573292854,-0.1651479339,-0.0325964857,-0.6070471342,-0.2298710168,0.0212672522,0.023698789,0.2324742038,-0.1281930706,0.0506329591,-0.0127007474,-0.0114912216,-0.0077593702,-0.0124919316,-0.0127426897,-0.0119864457,-0.0309925595,-0.0463940598,-0.0373851459,-0.0114675515,-0.0117680618,-0.0119061192,-0.01177544,0.1149126431,0.1010023289,0.0024276652,-0.0267151521,0.6684619673,0.0440945431,0.0100737311,-0.0417070798,-0.068758077,-0.1080876357,-0.0134985524,-0.2427669398,-0.0312524199,-0.5791226501,0.0416446279,0.0389666021,0.3118891194,-0.021940819,0.0527451638,-0.0114051137,0.0142232004,-0.0075489029,-0.0136832771,-0.0114909331,-0.0131996993,-0.0567130676,-0.4416570762,-0.0353022606,-0.0064253978,-0.0114152575,0.1006839729,0.100701536,0.1008506245,0.1429201352,0.1019032497,-0.0195049701,-0.0243230964,-0.1300777289,0.0257501135,-0.0112069251,0.1615659139,-0.2299126411,-0.2219096291,-3.3099907758,-0.5111705657,0.2080318937,0.0536145783,0.1237292275,0.0954081204,0.1085241387,-0.0113471095,-0.0110338384,-0.011397815,0.1359186815,-0.0121145063,-0.0130587097,-0.0113374631,-0.0142656516,-0.0516679231,-0.0374762576,-0.0080503945,0.1004583358,0.1003542741,0.1006410542,0.1007035575,0.4623024692,0.0017087255,-0.0116312047,0.0112832265,0.0167238776,-0.011806113,-0.0212342433,0.0593350967,-0.0549576062,-0.0111304616,-0.4200026154,0.0846273045,0.1356822888,0.2911896308,1.1047700723,0.2028322393,0.1009032046,0.006787971,0.0073894192,-0.011095981,-0.0116738595,-0.0120334581,-0.0125200424,-0.0118518994,-0.0557606764,-0.0543411007,-0.0374177979,-0.0078572039,0.1007628241,0.1004082369,0.1004294482,0.1335620148,0.1371647117,0.0027274526,-0.0116873804,0.0663854902,0.0069083515,-0.0110221742,-0.0116526457,-0.1651152919,0.1814081531,-0.026945454,-0.1537810294,-1.6530114225,-0.0355219978,0.3951436737,0.511909773,-0.2087627059,-0.3645811336,-0.0058319761,0.0076530913,-0.0111583461,0.1353439443,0.0057270493,-0.011264072,-0.0101506558,-0.0277422809,-0.0709505183,-0.0741821387,0.0035157458,0.100697666,0.1006892522,0.1367127646,0.1325404475,0.1011491152,0.1153473357,-0.0131840252,0.0016634479,-0.0126152097,-0.000476162,0.1772303412,-0.1466273877,-0.321342957,-0.3257538502,-0.2336642542,-0.1121790199,-0.1078261748,0.5702415609,0.0225801447,-0.1239096934,-0.3639613003,0.006867865,-0.0017933832,-0.0482201818,-0.0118195026,-0.0128004957,-0.0123063567,-0.003400822,-0.0132877241,-0.026728257,-0.1397238442,-0.0069259482,0.1004557056,0.101060304,0.1043729164,0.1006096219,0.1012901277,0.1082431191,-0.0367037841,0.489791024,-1.1837075242,-0.0110398183,-0.3618030405,-0.0903639462,-0.1445244259,-0.3006368787,-0.2631748975,-0.1485800735,-0.1212837169,0.8709981841,0.0290767919,-0.6377151225,-0.0900472893,-0.0110749556,-0.0114859612,-0.0143462595,-0.0082969978,-0.01371295,-0.0112115658,-0.0104289855,-0.0562237125,-0.0347783377,-0.0250246794,0.105270778,0.1007536652,0.1001846696,0.1004150519,0.0998753485,0.1246768599,0.0604216994,-0.0436373179,-0.0101225444,-0.0194483796,0.0516658584,-0.0260776297,-0.310334514,-0.0489452365,-0.3127336118,-0.3085839829,-0.3115263698,-0.5110337153,-0.1603669018,0.41621699,0.0835244331,-0.1551858951,0.0274812069,-0.0115097138,-0.204049157,0.0239083623,-0.0138577012,-0.0123206108,-0.0102587806,0.099139915,-0.0470382354,-0.1556032573,0.1025038704,0.1004631224,0.0976988784,0.0963096516,0.0990131632,-0.0176080272,-0.1244378616,0.1439812534,1.5243464017,0.1253487436,-0.0303080152,0.3362823332,-0.1891519547,-0.2692396855,-0.9557238233,-1.9032440357,-0.2677667651,0.0465260153,-0.3031516762,-0.0603882369,0.0421381161,-0.3634404633,-0.1406095703,-0.0109817555,-0.318031373,-0.0054379357,-0.0125157387,-0.0168226608,0.0010475195,-0.1748822064,-0.043504331,-0.0044045733,-0.0043304717,0.1007117345,0.0924091764,0.0966597364,0.0665006576,-0.0151002201,-0.0135810521,-0.0221434965,-0.1151673146,-0.0432594908,0.0076797266,0.0025886162,0.1300766535,0.0551545328,-0.4912542084,-0.1045374949,-0.0904077022,-1.2521356615,0.1872224335,0.1826637589,0.0361752273,-0.0592313509,0.0076008378,-0.0177810153,-0.0111909556,0.0084720394,-0.067991004,-0.0120815317,-0.0081980994,0.0971151842,-0.0267371061,-0.0880091002,0.1093248141,0.1013275319,0.0979925533,0.0871576565,0.0599844303,0.0259028502,0.0866879673,0.0736643175,-0.0241387348,0.0713487232,0.0368043861,0.0304130824,-0.0342157863,0.0988435364,0.1000687592,0.1021972175,0.5632891703,-0.1231928607,0.5666117295,0.1376860309,0.0459234689,0.0369183345,0.290918781,0.1009530146,0.6066547981,-0.0142387868,0.000767287,-0.0114718912,-0.0003322741,0.0889038719,0.0163682307,0.008090044,0.1172455577,0.1021696538,0.1004443439,-0.0130218326,-0.0149023168,-0.0095634302,0.0793137809,-0.023899065,-0.0120851273,0.5467258646,0.3183798363,0.2487639618,-0.0169927075,-0.5234837501,-0.020932524,-0.0602206204,0.8946577314,-0.3654863218,-0.0062037724,0.5916393159,-0.0095832385,-0.0200207902,0.0009400643,-0.0106802172,-0.0063375179,-0.0118037189,-0.0115730393,-0.0119202455,0.0036807152,0.0968766402,0.0166303396,0.0711418851,0.1145684972,0.1002361903,0.0992780716,0.0852846371,0.082159275,0.3689486466,0.0981576485,-0.014481306,-0.0170019689,-0.0178626964,0.0515648621,-0.0220349984,-0.0111282906,-0.0136053934,-0.0072135873,-0.0173738454,-0.0207778081,-0.029632011,-0.0950475224,0.0197160256,0.3602593704,0.0435278857,0.362733289,-0.0201662203,-0.0119397017,0.0749961168,0.0861011932,0.0030964876,-0.0166980258,0.079409249,2.434413185,-0.0003081242,0.1004622165,0.1011267162,0.0988108904,0.0950485333,0.0954044203,-0.0153889175,-0.0142995233,-0.0140942585,-0.015731468,-0.01519327,-0.0162262817,-0.0132469508,-0.0154840123,-0.0132087075,-0.0164544532,-0.0200074455,-0.0161369887,-0.0180619745,-0.016028824,0.0977309895,0.0962902598,0.0919829338,0.0976139962,-0.009901517,-0.0176381993,0.1079404121,0.5834275498,-0.0116051962,0.0955549154,0.0828278954,-0.0572969544,-0.0511892657,0.0997586338,0.0971582681,0.0892242319,0.0967785585,0.0867960073,0.0924513981,-0.0137203037,0.086896711,0.0986632561,0.0870083339,0.0981300331,0.097598859,-0.016184253,-0.0156342294,0.0966470041,0.0968516871,0.0945915806,-0.016202359,0.0967493228,0.0979023336,0.0974857395,0.0964677701,0.1007301055,0.1005917465,-0.0269667984,0.0994408308,-0.4441814607,-0.0101934007,-0.0136841238,0.0895830311,-0.0500984539,-0.1472391743,-0.0172323681,-0.0242220593,0.0936028804,0.0944511038,0.092778033,0.0991026733,-0.0217364531,-0.0127060002,0.0998376018,0.0985261308,-0.0203756632,0.0982403488,0.093551678,-0.0210427065,0.0974244473,0.0948948002,0.0970662483,-0.0196671391,-0.0189087186,-0.0163148904,0.1029117657,-0.0133567908,0.0965591484,0.0967445353,-0.016607251,0.5986638803,-0.05447691,-0.0108298044,-0.0106649274,0.0972157165,64.8207996003,-0.1369974388,-0.0017253524,0.0565215046,-0.054736098,0.0212228303,0.0220585231,0.0237585586,0.0252065941,-0.0531294739,0.0248020208,0.0241644938,0.0219384057,0.0225032728,0.0230567813,0.0189744621,0.0232247158,-0.0523487712,-0.050194614,0.0242805403,-0.4018156236,-0.0889184881,-0.0778170704,-0.378469122,-0.1078332859,-0.1072520961,-0.0892759271,-0.1060169062,-0.0114080695,-0.0658693582,0.1576739669,1.05305623,-0.0111426426,-0.1278019958,-0.089806763,0.2344271092,-0.0898591515,-0.1224297061,-0.0080396118,-0.0123406738,-0.0896495552,-0.0235708215,0.2476700634,-0.0224297118,-0.0234536811,-0.0210721291,-0.1231949946,-0.0133209988,-0.0586939028,-0.2154234413,-0.0221803451,-0.0236928917,-0.0221731182,-0.0247782399,-0.022804838,-0.0207043653,-0.0234323158,-0.0248075133,-0.0239945825,-0.0223262093,-0.0238186396,-0.0287577642,-0.0093705539,-0.009774171,0.12137461,-0.027066412,-0.0900355193,-0.0041658731,-0.0000182718,-0.0580969396,-0.0148670633,-0.0137734298,-0.0145743344,-0.0148080613,-0.0151172656,-0.0147527642,-0.0594863307,-0.0150546169,-0.0126957974,-0.0371579558,-0.0158575782,-0.0149690073,-0.0162196495,-0.0146965186,-0.0164253354,-0.0167985457,-0.0153581845,-0.0153927586,-0.0115574703,-0.004664493,-0.061548185,-0.0150358426,-0.0146738791,-0.0167383138,0.0015845222,0.0034643798,-0.0157008362,0.0108061055,0.0022998617,-0.0000494152,-0.0020329949,-0.0003932241,-0.0002350882,-0.0014633864,-0.0025553172,-0.0026574644,-0.0028576557,-0.0020635623,-0.0176075456,0.0011857288,0.0037680313,-0.0634554002,0.0003172707,-0.0105527369,-0.0749681324,-0.0022724515,-0.0136881428,-0.0023776707,0.0073281274,0.0086619477,-0.0135575901,-0.014512888,-0.0164799174,-0.0016244594,-0.0070259953,0.0037595387,0.0384372361,0.0020527769,-0.002550503,0.0194017309,-0.2106152145,-0.0593462785,-0.0156744409,-0.0158007911,-0.0031331165,0.0004298106,-0.0132673731,-0.0162815695,0.0014110151,0.0036520678,-0.0080290314,-0.0019061417,-0.014513513,0.0648532553,0.0004767506,-0.0131309497,-0.003902952,-0.0025537862,-0.0052142064,-0.0028666035,-0.0033895954,-0.0014237796,-0.0008070249,-0.0027835851,-0.0131914318,-0.002166783,-0.0001703428,-0.0036514456,-0.444713951,0.0021375152,-0.0027062435,0.0578695039,0.0128470568,-0.0042537131,-0.0154097871,-0.0019279841,-0.0423481123,0.0022454912,0.0094961575,0.0005069028,0.0043496656,0.0228446337,-0.0013916409,0.0475923067,0.0008807578,0.0040050294,0.0017483475,0.0006833593,-0.0079434402,0.0011155064,-0.0031456108,0.002290492,0.0007909916,0.0002692165,0.001774594,-0.0016365493,0.0484203651,-0.0029363053,0.008533001,0.001208431,-0.0573617188,0.0049646359,-0.0161382872,0.0072815921,-0.054645143,-0.0004765955,-0.001606953,-0.0002130739,-0.0003458815,-0.0106391179,0.0012762807,0.0009130652,-0.0009446655,0.0108576285,0.0051608046,-0.0031605488,-0.6502239448,-0.2815397,0.2197031195,-0.7248092134,-0.0034405965,0.0213980149,-0.0108478769,-0.0014442361,-0.0037831984,-0.0027932245,0.0018496198,0.0075757569,-0.0023536698,0.0256997978,-0.0020953278,-0.0091099357,0.0047756289,0.0017341818,-0.0125008926,0.0424454,0.1339728973,-0.0040253605,-0.0030203423,0.0004336873,0.0019592172,0.0025860074,0.0015492457,0.0070979489,0.0304466342,-0.002865961,-0.0003581081,0.0081344698,0.3407256955,0.185461629,-0.0135953041,-0.6077281358,-0.0887367362,0.0070020189,-0.0158433909,-0.1243183421,-0.1059283197,0.0014475541,0.0151984719,0.0009028538,-0.0030697504,-0.0028602461,-0.0029192922,-0.01952472,-0.0146031802,0.0024151254,-0.0157530818,0.0376452496,0.0070694802,-0.0006021945,0.0010040759,0.0014174007,0.001417295,0.0124304369,-0.0054152849,0.1096133386,1.6172358952,0.1828319785,-0.0049964787,-0.006329229,-0.0527243571,0.09677622,0.242396073,0.0176593551,-0.0241567696,0.0339667132,-0.0474367658,-0.0066281303,-0.171977022,0.0300753438,-0.0028919632,-0.0045734374,-0.0040087166,-0.0033368077,-0.0005388102,0.0026101512,0.0026712371,0.0011615275,-0.0157026634,0.0562995939,-0.0543081977,-0.0056037744,0.001130586,0.0002154941,0.0008541311,-0.0262648422,0.0125340081,-0.0034825214,0.0350190733,0.0341520137,0.0107897832,-0.0289218302,0.0029219276,-0.1293839474,0.1802564495,-0.7138366258,-0.3874954638,-0.050071695,-0.4065664241,-0.0015231424,-0.0221309057,0.0020736736,0.0061548117,-0.0213197104,-0.0047175571,-0.0068690709,-0.0036714282,0.0101607196,-0.0050310071,0.0123046929,-0.0156379591,0.0624391579,0.0161305012,-0.0002900683,-0.0126546681,-0.0320406109,0.0016359979,0.0003002635,-0.0044835213,-0.0768616716,0.0120202166,0.0001646501,0.0064045871,-0.0137843397,0.9125773561,0.200057032,3.0747802897,1.4659406075,0.1539357722,0.1709797516,-0.0026986017,-0.0046641593,0.0251803975,-0.0243824722,-0.0315748951,-0.0356401642,-0.002946327,-0.0032362578,-0.0052604159,-0.0185018716,-0.3784574972,-0.0042964407,-0.0162586585,0.0386642495,-0.051693827,-0.0000602171,-0.0171215228,-0.0166167147,0.0012759398,-0.0045972492,0.0086213645,0.0014259102,-0.3411732053,-0.0243759716,-0.0187170956,-0.0016125479,-0.0683328471,-0.0176996418,-0.1394108621,-0.2497798941,-0.859728901,-0.0959964178,-0.0205766595,-0.050766167,-0.0091529565,0.0069441157,-0.0249943959,-0.0333355035,0.0076683925,-0.0036234829,-0.0035571246,-0.0459558903,-0.0073448404,0.0014207443,0.0001612062,0.0401585596,0.009407738,-0.0177299945,-0.0133898024,-0.0135370704,0.0012336345,-0.0076903701,-0.0041452072,-0.0339251887,-0.0730495249,-0.0049877182,0.0007311981,-0.1430264944,-0.0272603272,0.03944745,0.2916336113,-0.051617163,-0.2664679534,-0.049261569,-0.0134017544,-0.0056405082,-0.0583264154,-0.0091020794,-0.0078925161,-0.0240700034,-0.02524904,-0.0044575253,-0.0053122333,-0.0077959419,-0.0747204779,0.0241816963,-0.0411196707,0.04922603,-0.0573685259,-0.004994623,0.0004902569,0.0011739684,0.0990757843,-0.0060719247,0.098914768,-0.0513140957,-0.0020135615,-0.0195898966,0.0176806114,-0.0271285008,-0.0044130779,-0.0192717815,-0.0599868195,-0.0672324541,-0.2845752282,-0.2486837158,0.5013487985,0.0065982427,-0.0551184097,-0.0166672403,-0.0032743439,-0.0240022077,-0.0046655094,-0.0044378949,-0.0054552908,0.00124487,-0.0010587487,0.0010128119,-0.036677127,0.0542751457,-0.0636171275,-0.0044827981,-0.0161218109,-0.0168088485,-0.0128954528,-0.0187356744,-0.0820537021,-0.0070031695,-0.0051167522,-0.0096849621,0.0060032215,-0.2393694739,0.0103872864,-0.1486006449,-0.1939040738,-0.1311656261,-0.0932232593,-0.2977705602,-0.0658957228,-0.295491716,-0.0187472646,-0.0337804466,-0.0658085495,0.0957488806,-0.1260102731,-0.0583037804,-0.0065158266,-0.0521795215,-0.005513804,0.0096364319,-0.0257325953,0.0662707002,0.0119759511,-0.0186828391,-0.0150791997,-0.1066376846,-0.0029016605,0.0065623913,-0.0224079875,0.0986870071,0.0170638166,-0.0026117011,-0.3936347716,0.004109616,0.0058539954,-0.7259666771,-0.0755360436,-0.1232996194,-0.0596412128,-0.021965271,-0.0528517061,-0.0655235086,-0.0035937888,-0.0382323171,-0.0683078089,-0.0389432764,-0.0520263788,-0.6129591267,-0.0120368055,-0.0163343436,-0.0351799105,0.0054142668,-0.0342769243,0.0541560818,0.0173889627,-0.0002345307,-0.0035643528,0.081293994,0.0989779343,-0.0514919822,0.0086725318,-0.020341989,-0.0033498569,0.013360828,0.0266139578,0.0046539446,0.0018475467,-0.0776417962,-1.1884672767,-0.3779081687,-0.1268718396,-0.9085884964,-0.1007044523,-0.2711730591,-0.0010382761,-0.0892873913,-0.060400777,-0.061670531,-0.0525131429,-0.0071247066,-0.0010148378,0.0042082174,-0.0051764155,0.000411687,-0.0137717995,0.0546780771,0.0536990884,-0.0005408857,-0.0163821608,-0.0036449162,-0.0604891745,-0.0517375026,0.0146411445,0.0012390772,-0.0197514184,-0.0197145903,0.1200105015,1.9649165387,0.0080507595,0.0881542928,-1.3963320444,-0.5483057041,-0.1327750725,-0.3582131188,1.8651004521,-0.2750236098,-0.0579001348,0.0731635345,-0.3997312223,-0.6917155308,-1.4489936142,-0.0044039698,-0.0022510734,-0.0105340312,-0.0049560887,0.0047127139,-0.0521955333,0.0358383115,0.0508873634,-0.0008270637,-0.0039788308,0.1105687478,0.0827820697,0.0130537593,0.1230422557,0.1064919473,-0.0047340018,-0.0045866738,0.1860073465,-0.0217735297,0.0004711679,-0.0224090877,-0.0087769818,0.1638511655,-0.0539285036,0.0304938369,-0.032193495,0.0597630837,0.1001504446,0.0545206906,-0.0673479938,-0.1026393066,-0.0289994895,-0.0055370061,0.0732827425,-0.010319608,-0.0048178312,0.0007508421,-0.0291766744,0.0477885199,0.0516140905,-0.0011786642,-0.0161512254,0.0866280964,0.098806768,0.036914876,0.0486173135,0.000444552,0.0099025934,-0.0271380993,-0.0436194611,1.0623042557,0.0499050246,0.0376087036,-0.125313104,-0.0911083601,-0.277593518,0.0006548987,-0.1236681379,-0.4469726328,-0.1255524935,0.0910053757,-0.0186959146,-0.0164126328,0.0031954222,-0.0234114537,-0.0055301409,-0.0336922971,-0.0076616765,0.000964638,-0.0335797153,0.0358874689,0.0480294123,-0.0013040897,0.0870619945,0.1946616133,0.0906818726,0.058280511,0.0909898421,-0.0296329364,-3.7506083361,-0.0045140504,0.0069939943,0.0091365458,0.1460927936,0.0342160008,0.1097297979,-0.0162856024,0.0584003708,-0.1689352792,-0.7673814818,-0.2977687628,-0.146979482,-0.1530482904,-0.0658926844,-0.01601106,0.000599342,-0.0231325414,-0.0230952825,-0.0174931935,-0.0019777807,-0.0045553084,-0.0301646504,0.0420961868,0.0479524544,0.0232080361,0.0870305561,0.0820974517,0.0844253507,0.0504992807,0.0589063693,0.1352618004,-0.02651899,-1.013035949,0.0185263814,0.2486790833,0.0185626907,0.0123120653,0.011621467,0.0076117396,0.0024013957,-2.0718688233,-0.6170856194,-0.1616001674,-2.0666869804,-0.0095516496,-0.0650914148,0.0012554091,-0.0120997529,-0.0500847882,-0.0344818465,-0.0310199282,-0.0067153463,0.0008310889,-0.0565067729,0.0416763734,0.0480163069,-0.0164526798,-0.0164603005,0.0871924803,0.0789387219,-0.0223392038,0.1014426032,0.1444225954,0.2333767804,1.4663453311,-0.0010726355,0.1297821887,0.4654022331,-0.0397118921,-0.0500971178,0.0880206598,-0.0515230036,-0.0637638692,-0.0583127161,-0.7739084306,-2.3198919477,-0.0846671059,-0.0552556642,0.0198484675,0.0012363325,-0.0077823881,-0.0216848608,-0.0193455116,-0.00461885,0.003421716,-0.0597894813,0.0747992232,0.1863664327,0.2372160444,0.237429663,0.3709057428,0.1017285258,0.1097318789,0.0963376437,0.0113560259,0.6771781371,0.2047837056,0.008643421,0.05336522,0.0027718052,0.1750247284,-0.0947480397,0.0042680284,1.1864380215,-0.0123185061,0.2198424347,2.681178979,-0.9486928378,-0.1069646254,0.1860786971,0.1061631355,0.041190419,0.1063264611,-0.0210263782,-0.0077809368,-0.0069044619,-0.001072203,0.0906258143,0.0365488827,0.1772039501,0.0260633186,0.0893015973,0.2344984332,0.1237584519,0.1086351837,0.0329400819,0.2664568946,2.0988840329,1.0240903749,2.0910874421,1.436680818,-0.3956697985,-0.2776819023,-0.2457838932,-0.217554157,0.1620987856,-0.0491945702,0.5552402894,0.2069189276,0.2369186101,-0.5661334674,0.0046935677,0.1534227779,0.0068673752,-0.0088432836,-0.0505390436,-0.0121919168,-0.0093050863,-0.0045693443,-0.0286312211,0.0515792283,0.1771111512,-0.0037393487,0.0848136498,0.1102221954,0.1050045285,0.1125211063,-0.1614857972,0.0385348167,1.5390740356,0.0723336157,-1.271270184,0.0134635752,-0.0468508206,-0.0036254798,-0.0039422166,-0.1708648639,-0.2063914624,-2.1803197629,-1.2508615308,-0.1899017372,0.7061884601,0.1018853666,0.2964678442,1.5626157674,2.089368659,-0.0048993791,0.0093879775,-0.0112290771,-0.0113096169,-0.002346528,-0.0247194245,0.0053868397,0.1766384705,0.2473319249,0.2309827229,0.2304164082,-1.0164071137,0.1080504248,0.1117139813,0.390435954,0.1351277742,0.1211277242,0.1358094906,0.0481900504,0.0460855915,0.1885942478,0.0868495254,0.086141382,0.0825898159,0.0401726749,-0.1137688787,-1.6091840367,-0.043862452,-0.0206895762,0.0895963618,0.6560277473,0.3218670744,-0.0354485927,-0.0519004476,-0.0130510912,-0.0053883299,-0.0051278462,-0.0274724784,0.0442339265,0.1158595424,0.2262120999,0.2288797043,0.2277106277,-0.0032566298,-0.0191663386,0.0003526611,-0.1064896349,0.0167239368,0.0083756341,-0.0075229022,-0.009131862,-0.007569164,-0.0829962202,-0.3774411332,-0.0278945779,-0.0230211204,-0.0286039882,-0.0598132061,0.0138814185,0.1014884277,-0.3783735129,-0.0084506897,0.4419409329,-0.0181501317,-0.0636778699,-0.0168303634,0.0101000516,0.0033534282,0.0135610627,-0.0078414795,0.1115869038,0.2594337257,0.2534932374,0.2374910205,0.2274075983,0.0975090987,0.0658999081,0.0880068633,0.0976249101,0.1063370699,0.1542340769,0.225718199,0.0774972277,-0.0043532581,-0.0388395595,-0.0408157184,-0.0359754877,-0.0423923992,-0.0077902528,-0.0094226733,-0.0078654476,0.0717406082,0.0718545399,0.0778228589,0.0768013298,0.0623168241,0.0011181899,0.0448009398,0.0084069735,0.3222408495,-0.1220107965,0.0315010417,1.2150114367,0.1916619224,0.5161064987,0.1892381869,-0.0013301369,0.1000214225,0.0983166318,0.2872378931,0.0529098125,0.1486128091,0.0021102985,-0.0019277971,-0.0030231673,0.0066185857,-0.1226952172,-0.0046753267,-0.012372666,-0.0071211589,0.0042526099,-0.0397745036,-0.0058721476,0.0980926991,0.0992943212,0.0991388104,0.0978657187,-0.0030190527,-0.0024247509,0.0946268507,0.1214935493,0.070910233,-0.1309164594,-0.0122676922,-1.3201040923,-0.0341554129,0.0862570514,0.0915872607,0.0788413644
   0.0935918312,0.1922264326,-0.0099795149,-0.0081088554,0.090673907,0.0919141063,0.0889070877,0.0886487478,0.0824859278,-0.0752294212,-0.0186652165,0.01848281,-0.0508553909,0.0275623253,-0.0095053036,0.0868735342,-0.0370678072,0.0646020486,0.0590770834,0.1065092115,0.0974408574,-0.0420531397,0.097077881,-0.1963764268,-0.4271185916,-0.1190779473,0.3964250209,-0.3580797737,0.0035615324,0.0694300877,0.0897636151,0.0687381339,0.0911836642,0.0609484155,0.0706971815,-0.0205673224,-0.030787977,0.065338998,0.062921615,-0.0464892686,0.0630791855,0.0821960653,-0.0365113241,0.0634066972,0.0808675973,0.061018142,-0.0614965751,-0.0317918502,-0.0339927524,0.0639596443,-0.0350895147,0.0858917213,0.0754711233,-0.0656173287,0.0320791939,1.3613927289,-0.0039391425,0.7836843235,-0.6146478325,111.5112248592,-0.1267572526,0.0396392977,0.012525969,0.0151092495,0.0349109788,0.0356976877,0.1285167973,0.1233307749,0.0307285001,0.0610207685,0.1291201949,0.0729703974,0.068073925,0.0478602718,0.1354789621,0.0494376956,0.0478485918,0.0695124126,0.1271476122,0.1340068859,0.1248615393,0.048056987,0.040285292,0.1271283602,0.1268056015,0.1356551219,0.1362969849,0.0994104028,0.0570479749,0.1466194,0.1387035345,0.1356049539,0.0948215468,0.0468792676,-0.0489816549,-0.0473072231,-0.0472680601,-0.0613207282,-0.0474821337,-0.0501015749,-0.0611058723,-0.052879352,-0.0606745977,-0.0499295455,-0.0610449231,-0.0473770702,-0.0502553616,-0.0493746056,-0.0223780758,-0.0612103429,-0.0493456232,-0.0501393811,-0.0280800052,-0.0502753633,-0.0559910415,-0.0370306581,-0.0494030867,-0.0357923345,-0.0502902785,-0.0546578138,-0.1557163265,-0.0310613114,-0.0284002674,-0.0340112445,0.0122182883,0.0028788757,-0.0275947806,-0.0473813597,-0.027645636,-0.0275101756,-0.023789125,-0.0472929852,-0.0246608588,-0.0476250901,-0.0389813299,-0.0390605778,-0.0472569967,-0.0270759304,-0.0470120128,-0.0477990696,-0.0477767054,-0.0391194401,-0.0298949069,-0.0475121265,-0.0399412728,-0.047764764,-0.0391282295,-0.0473793725,-0.0229503158,-0.0235538188,-0.0476335741,-0.0017761849,-0.0602195578,-0.0556379865,-0.0397204615,-0.0309611377,0.0569181444,-0.0212235124,-0.0473557241,-0.0474117993,-0.0473206282,-0.0069584396,-0.0070326086,0.0017942007,-0.0068123897,0.0015895598,-0.0042810465,-0.0035389219,0.0066230563,-0.0064008889,0.0661333183,-0.0040993843,-0.0038139865,-0.0048727461,-0.0075654498,-0.0039901668,-0.0070586132,0.0014053678,-0.0070717586,0.0012307071,0.0013450616,-0.0070072468,-0.0032613845,-0.0039562654,-0.0046516907,-0.0039878898,-0.0098968037,-0.002457525,0.0354785433,-0.0128161874,-0.0490705122,-0.049105259,-0.0075455918,-0.0114270712,-0.0095293387,-0.0094112518,-0.0039121853,-0.0091222759,-0.0093887862,-0.0088941886,-0.0077240194,-0.0064276689,-0.0050942516,0.0001449673,-0.0145411963,-0.0110355838,-0.0112917247,-0.0092091681,-0.0038608789,-0.0075538478,-0.003642386,0.0006069711,-0.0081882883,-0.0031605682,-0.0085073906,-0.0096716809,-0.0072336995,-0.0075642096,-0.0010380991,-0.0035599799,0.037731101,-0.0217547984,-0.0492836498,-0.0473626412,-0.0111914792,-0.0097492264,-0.011909304,-0.0114623688,-0.0168614585,-0.0129430197,-0.0087727013,-0.0116019517,-0.0001018817,-0.031685747,-0.0210829219,-0.0176965039,0.0805994878,-0.0205480893,-0.0481796263,-0.0314490339,-0.0107229678,-0.0028412378,-0.0035067161,-0.008804729,-0.0081695035,-0.0076472694,-0.0076624293,-0.0030651022,-0.0477706449,0.0033104704,-0.0002570648,-0.0059959528,0.0415889155,-0.0203820505,-0.0490883072,-0.0490050617,-0.0601664982,-0.0677222652,-0.0095685645,-0.013776029,-0.0125409484,0.0023168296,0.0412616884,0.1600904596,0.0538820074,0.0177135498,0.0257016319,0.0290863657,-0.0423529985,0.0437553873,0.0261164697,-0.0008160646,-0.0613305499,-0.0077917165,-0.0084931109,0.0194350113,0.0201257307,0.0197321979,0.0196015879,-0.0094678217,-0.0038083449,-0.0150650187,-0.0013199179,-0.0057235324,0.0363867656,-0.0376269351,-0.0492386542,-0.0490346007,-0.0115237408,-0.011545357,-0.0105450192,-0.0238857479,-0.0001451054,-0.0102886979,-0.0125872969,-0.0107441754,-0.0093977582,0.1108895133,-0.0076698632,0.158449349,0.3051627905,-0.0433102698,0.0696328868,-0.0327823433,-0.0159118786,0.0229699858,0.019346844,0.044392262,-0.0069304538,-0.0029662337,-0.0138906358,-0.0040345863,-0.0091511224,-0.0121996218,-0.0199235867,-0.0045240998,0.0405302052,-0.0268319139,-0.0491009096,-0.0489325526,-0.0112977143,-0.0106799903,0.0427755737,-0.0037257572,-0.0213190687,-0.0114351515,-0.0251645945,-0.0100228058,-0.002181394,-0.0190071845,-0.025086429,0.1050764122,-0.0146785897,0.0556690991,0.009597107,-0.0291188308,-0.0290511555,0.0021458277,-0.0903917544,-0.0657338543,-0.0016692609,-0.0113859716,-0.011987392,-0.0048009875,-0.0143727695,-0.0134494396,-0.0109679566,-0.020983674,0.0366537463,-0.0273438265,-0.0491517589,-0.0489870391,-0.0063059596,-0.0114599459,-0.0104977429,0.0397999349,0.000848969,0.0058311399,0.0341384659,0.0208364135,-0.0020933597,-0.3255657293,-0.0144658539,-0.0130158649,0.0201751542,0.2345053661,-0.0187047928,0.0027663969,-0.0173608973,-0.0706608205,-0.0079041788,0.0158103266,-0.0083019548,-0.0085159543,-0.0074296459,-0.0048695754,0.0401988773,-0.0242094371,-0.0013144805,-0.0484335502,-0.2651421978,-0.0447795011,-0.0491717772,-0.0473584509,-0.2007615362,-0.0061291449,-0.0138650948,-0.0049575778,-0.0066512058,-0.0018411657,-0.0108483654,-0.0580727829,-0.0699805024,-0.0093033577,-0.011045121,0.0455483502,-0.3709288088,-0.0045388755,0.0351605371,0.034120418,0.0007617041,-0.0086878584,-0.007838991,0.0041124743,-0.0048068482,-0.0140479671,-0.013931469,-0.0048534742,-0.0052996976,0.0151696208,-0.0014197763,-0.0205141645,0.0424846666,-0.0268471727,-0.0489425837,-0.0468440863,-0.0067212834,-0.006824454,-0.0037211931,0.0831259886,-0.0246270194,-0.001066272,-0.0097139367,-0.0144630344,0.0385409181,-0.0001127455,0.0472719943,0.0452235083,-0.41052763,-0.0813490236,0.0233757031,0.000310039,0.0363565856,0.0256365554,-0.0144962374,-0.0033270498,-0.0230299454,-0.002278344,-0.0253022691,-0.0119952507,-0.0054214298,-0.0111365768,-0.0047222005,-0.037605441,0.0378786064,-0.020946707,-0.0490791056,-0.0459475461,-0.0068156307,-0.0068374281,-0.0045247851,-0.0096990477,0.0015411829,-0.0081516447,-0.005170377,-0.1421819648,-0.0641105043,0.1322344836,0.0452303131,-0.1132158769,-0.0482596703,-0.0659821747,-0.1103746327,0.013303927,0.0422132628,0.0574257227,0.0279039608,0.0529683125,0.0058405933,-0.0029781328,-0.0865938295,-0.0202812114,-0.0334289677,-0.0114417682,-0.0014953428,-0.026225536,0.0414055904,0.0355573032,-0.0491020354,-0.0470265311,-0.0068910028,-0.0058227849,0.0051756259,0.0012338111,0.0613996309,-0.0094532784,-0.0151412183,-0.0326387424,0.3807400119,0.0681695476,0.0305481094,0.0507790164,-0.073156339,-0.0585123358,-0.0845120885,0.0332550697,0.0354070287,0.1950925273,0.0486859942,0.0496892515,0.0074897679,0.0485459995,-0.0233343398,-0.039492911,-0.0062320036,-0.0052846263,-0.0010778135,-0.0163403705,0.0366221076,0.035586231,-0.0466110798,-0.0467533555,-0.0069259035,-0.0078982952,-0.0043275375,-0.3131072123,-0.0094306444,-0.0030207005,-0.011747193,-0.0051858841,0.0614977479,0.0480307535,0.0507511576,-0.0109034601,0.0545968288,-0.0342047853,-0.0581937864,0.0412785073,0.0238298452,0.0556729951,0.0470340426,0.046114132,-0.0456536479,0.0063242844,0.000341862,-0.0153132048,-0.0073091744,-0.0060956117,-0.0000575659,-0.0067101826,0.0210179925,-0.0211629338,-0.0472678864,-0.0471979626,-0.0108855701,0.0009729407,0.0010596854,-0.0030233096,0.0008985734,0.0461146367,-0.0033342765,-0.0164778216,0.0222401763,0.0632639757,-0.3054463375,-0.5187082288,0.052010581,0.0105551714,0.0370293576,0.0379600805,0.0349242694,0.0759981963,0.0533859612,0.0579699505,0.0336532632,0.0002910794,0.0423373977,-0.0060336654,-0.0071148045,0.0159235549,-0.0055121968,-0.0052670812,0.037483774,0.0102091532,-0.0472115415,-0.0543370075,0.0941147135,0.1004194729,0.0027756865,0.0084992514,-0.017912297,-0.0002114919,-0.0075125517,0.0274177524,-0.0462808867,0.0928947441,-0.0058653355,0.1226399254,-0.0350084722,0.0416531389,0.0425822668,-0.0190852392,-0.0643750703,0.0187866263,0.0783939163,-0.0895505387,0.0096338182,0.0067068105,0.0469265739,-0.0055577103,-0.0126749326,-0.0001951351,-0.0003137384,-0.0082133693,0.0362306908,0.0297049012,-0.0475521949,-0.054339568,-0.0068949229,0.0077875644,-0.0008299499,0.0429687701,0.0266176609,-0.0020975888,0.1402654093,0.0113670673,0.1371160081,0.4311086064,-0.1163469795,-0.2058048444,-0.0571990144,-0.0354735423,0.0336682878,0.0252823817,-0.1321188802,-0.008015437,0.4088155092,-0.0302868031,-0.8497089419,0.0046290409,0.0515409055,-0.0048540686,-0.0069033552,-0.0005610478,0.0008387645,-0.0034155313,0.0175835663,-0.0010031193,-0.0541453184,-0.0543586638,0.0938941784,0.1073262141,0.1195938715,1.0675692615,0.1812493075,0.0203565474,-0.0069222782,0.0139931323,-0.0506235186,-0.0248907835,-0.008902265,0.1019257825,-0.0082778159,-0.0248461288,0.231657606,0.0608403904,-0.0121238702,0.1110504088,0.5024057069,-0.0565616527,-0.0960911445,-0.0039995418,-0.0019276365,-0.0054731942,-0.0359289559,-0.0012964467,-0.001005501,-0.0037737198,0.0364307871,-0.0142276791,-0.0387309745,-0.0542923505,0.0961993206,-0.000129935,0.0956386785,0.08519705,-0.048353915,0.0116900494,0.0065599275,-0.1275713193,0.2291712752,-0.0317329911,0.0352235596,-0.0000295453,-0.0576699209,-0.1681200797,0.1661301145,0.1437810796,0.0922896627,0.1432305732,0.1033144277,-0.0672362547,-0.0370100974,-0.0039446065,-0.001597885,-0.0064785329,-0.0064825355,-0.0026289085,-0.0010351322,-0.0031097008,-0.0343455075,-0.1953945317,-0.0389395013,-0.0543779125,0.0942820453,-0.0092879207,-0.0100339409,0.0093399684,0.0442222947,0.2280844813,-0.0118902797,0.0457007057,0.0043886904,-0.0271389923,0.0172078562,0.1061333305,-0.0409915995,-0.018215332,0.0090529177,0.0135094167,-0.1257440269,-0.2135856292,-0.0267955059,-0.0504053984,-0.0565974264,-0.0221095393,0.0059994955,-0.0084141723,-0.0126170321,-0.0304200386,-0.0009425036,-0.003379207,0.0187576437,0.0078405001,-0.1108568233,-0.059431197,0.0580791768,0.0930464409,-0.0156571344,0.0656410816,1.2339448494,0.7761826395,0.0162260268,0.0464296805,0.0050983417,0.1053751639,-0.0446893486,-0.0659447129,-0.0582840509,-0.0551580056,-0.0432834929,-0.0451594539,-0.0534972744,-0.0404168474,-0.0427540726,-0.0456410388,-0.0310732814,-0.00284225,-0.0118467046,-0.0066553131,-0.0047435105,-0.0000156862,-0.0009856977,-0.0026131496,0.0304072557,-0.0031867278,-0.0411816517,-0.0618354024,0.0924287844,-0.0106430141,-0.0122755965,0.0007161741,0.000851151,0.0543477624,0.1657675962,-0.1302874399,-0.0676432676,0.1742553733,0.0350925386,0.025718472,0.0335274289,0.0233125445,0.0068241488,-0.3016975839,-0.0638039554,-0.0267364311,-0.0031137565,-0.003632705,0.0464005491,-0.0415605361,-0.0047435234,-0.0047254018,-0.0054222084,-0.0002402019,-0.0021539983,-0.0028425749,0.0033556187,0.005667172,0.0159069849,-0.0647063537,-0.0104371645,0.0923139507,0.0780835835,0.0937558752,-0.0141203587,-0.3358958933,0.0119349077,0.0910858855,0.252454589,-0.0243993511,-0.0293838274,-0.0212665559,-0.0536570127,-0.0509564139,-0.0833195523,-0.2017987887,-0.5191988737,-0.0004129124,0.0499870056,0.0002925683,-0.0106159324,-0.0400747541,-0.0292304838,-0.0097836124,-0.006743139,0.0000324333,-0.0023882785,0.096723066,0.0307220434,0.0233856467,-0.0409725054,-0.0589520166,0.0877462079,0.0189068659,-0.0124734368,-0.0092691892,0.0238411425,0.0676825186,0.1019903889,0.3019995154,0.0251229785,0.068157483,0.1232690877,0.0588118682,0.5018256525,-0.0116683693,-0.1382408034,0.055503992,-0.0166144925,0.0195302548,0.0997738798,0.0093389429,-0.0034674597,-0.0129940536,-0.0221715162,-0.0120382789,-0.005427321,-0.000283553,0.0008699055,-0.002673043,0.0302461041,0.0028906912,-0.0409766315,-0.0591273009,0.0941853175,-0.0097018013,-0.0070842715,-0.0090481953,-0.0007035014,0.381723085,-0.3625766635,-0.1724552253,-0.0019524826,-0.0276860973,0.0195150585,0.0012466323,0.0058381995,0.0121394453,0.0424063224,0.005247492,0.1087029713,-0.742106294,0.0949691969,0.103198273,-0.0115123434,-0.0318962125,-0.01077651,-0.0061060761,-0.006251109,0.0003927678,-0.0014518015,0.0977805275,0.0306765053,0.0053980249,-0.1326733505,-0.0225907094,0.0396783528,0.0665478216,-0.0849446637,-0.0201359078,0.2264523949,-0.2440029983,-0.5354369576,0.4601187026,-0.1826922902,-0.1425144339,0.0202660141,0.0833783111,0.0984768628,0.1065712012,-0.0048850357,0.9331533856,-0.2641741718,0.0783676323,0.133900933,0.3819105974,0.0947961155,0.0929039062,-0.0424867047,-0.0047963359,-0.0034351705,-0.000900064,0.0010454269,-0.0019376559,0.0304457154,-0.0012466955,-0.0591614471,-0.0778724822,0.0920580939,-0.0110204471,-0.2162414933,-0.056232455,-0.0013420042,-0.0432630004,-0.0911856816,0.0106900693,0.0041354756,0.0076313623,0.1092342358,-0.0166421008,0.2191363026,0.0196281163,-0.0071503805,-0.0202498383,0.1888396649,-0.0107325667,-0.0191064416,-0.0271824032,-0.0205537314,-0.0363724403,-0.0498393056,-0.0567529513,0.0070286453,0.0046603523,0.001149619,0.0970296499,0.0092895156,0.0172038027,0.0535789397,0.0419503266,0.0884120488,0.0887130951,-0.0076410113,0.0452190363,-0.0508140716,0.0859615861,0.0860009124,0.0104071725,0.0364549338,-0.1806484459,-0.0482813402,0.016119074,-0.0244344434,-0.047395825,-0.0228524187,-0.0699224698,-0.047751067,0.0465067008,0.3528373373,0.0129622913,0.0444725164,-0.0874345162,-0.0540242642,0.0040555466,0.0837440244,0.0023808983,0.0129875642,0.0984430303,0.0125973761,0.0233808778,0.0179507648,0.0424307317,0.0414023642,0.0582557697,-0.0496503043,-0.051156729,-0.04909669,-0.0553411216,-0.0175352095,-0.0177451272,-0.0150590803,-0.0148314197,-0.0158983973,-0.0260067146,-0.0148610167,-0.0508751108,0.0043154825,-0.014568096,-0.0146792652,-0.0145966322,0.0614160985,-0.0146491325,-0.0553587561,-0.0482609919,-0.017335593,-0.0119638205,-0.0119682762,0.0191101743,-0.5109030531,0.020931225,0.0531313178,-0.208430674,-0.0377089642,0.0518190676,0.0994879565,-0.0043954732,0.0953141084,-0.0103792252,-0.0032344142,0.0564956724,0.0888480745,0.0961384742,-0.0017729212,0.003714467,-0.0374614966,-0.0241337507,-0.0072014967,0.0033732403,-0.0093830337,0.0029856723,-0.0048111175,-0.0057095576,-0.0395335497,0.0067652282,-0.0012395275,-0.0522163372,-0.0622675672,0.0439499759,-0.0093517397,-0.0196539481,-0.0610087,0.0871619933,0.0637249405,-0.3226188521,-0.0709327121,-0.0310596814,0.0805156554,0.0987688272,-0.0290182719,0.0821459214,-0.0229492438,-0.0021954016,0.0825470645,0.0825372224,-0.0239167098,0.1247183132,0.0059017092,-0.0253198045,-0.0222384937,-0.0265614805,-0.0011829594,-0.0003634516,-0.0056144003,-0.0007816278,0.0840918972,-0.0281894068,-0.0006196722,-0.0278784438,-0.0005357181,-0.0384150181,-0.002543328,-0.0206531919,0.2571842505,0.0980479438,-13.2790053705,0.0519212007,0.0052587243,-0.0033839675,0.1474099939,-0.0051768741,0.0152243037,0.0045291879,0.0397513854,0.0436656457,0.0425057075,0.0519176312,0.0521934268,0.0554892476,0.0547523539,0.0516046916,0.0546223534,0.0901338095,0.0546899936,0.0512313086,0.0518815464,0.0543053297,0.1330282322,0.0548551886,0.0539291801,0.0164380698,0.0513950465,0.0514068548,0.053790989,0.1584937301,0.155379193,0.8112998313,-0.4321238373,-0.0062402471,0.0252686529,0.0044029358,0.0343417714,0.0214932875,0.0133369446,0.0124686211,0.010277028,0.0130955163,0.0720085448,0.0104971546,0.0151955131,0.0109866682,0.0136300558,0.0104198378,0.0101763576,0.0221995475,0.0109861767,0.0267590029,0.0101194247,0.0104208962,0.0140912704,0.0130330289,0.0214278386,0.0136614475,0.015846989,-0.0072467918,-0.0072075188,0.0280959203,0.0450019942,-0.1766979229,-0.0443777663,0.0304561557,-0.0206767565,-0.019849282,-0.1177813199,-0.0419977964,-0.0129119182,0.0106719538,-0.0190108321,-0.0112638278,-0.0006033802,-0.0109767788,-0.0172220969,-0.0111962977,-0.0063820468,0.0167637979,0.0090296515,-0.0055810264,0.0087036584,-0.0067498313,0.0102409778,0.0134320725,0.0062949945,0.0004048885,-0.0182644028,-0.0088822929,-0.012291591,-0.0005304841,-0.0084356638,-0.0000403877,-0.0126252719,-0.0300472865,-0.019465492,0.023659719,0.1533130011,-0.0905801637,-0.0870586702,-0.1253911908,-0.001854737,-0.0151148094,-0.0200733176,-0.0218401646,-0.0125054968,-0.0027247781,0.0095808905,0.0098956559,-0.0069266857,-0.0097010206,-0.0405840436,0.0157831888,0.008278326,-0.0092972065,-0.0004161888,-0.0194784471,-0.0086179519,-0.0088974812,-0.0118278971,-0.0016018775,-0.0243487888,-0.0017736185,-0.0118458895,-0.0118677714,-0.0098779367,-0.0010326504,0.065438822,0.0126179915,-0.11517016,-0.3398338925,-0.024393918,-0.088486575,-0.0215586706,-0.0094278094,-0.0248971321,-0.0224288957,-0.0221790263,-0.0138920836,-0.0006827099,-0.0887158041,-0.0099228485,-0.1059451313,-0.0201254359,-0.0183935914,-0.1343180741,-0.0145314506,-0.0249778437,-0.0108972323,-0.0248137713,-0.0019493107,0.008266275,-0.012915501,0.0082967121,-0.0243969317,-0.00293007,-0.003682227,-0.0104248938,0.0167216919,-0.0190539256,0.0306534752,0.1374970599,-0.1767769996,-0.0884769234,-0.0193873822,-0.0120772868,0.0000556935,-0.012288348,0.080420724,-0.0220923027,0.008469074,-0.0341684058,-0.0152637488,-0.005219287,-0.0025764257,-0.0027233366,-0.1142701046,-0.0910771131,-0.023020948,-0.0154776938,-0.021674224,0.0003384657,-0.0012344585,-0.0273637704,-0.0089478211,-0.0215978636,-0.0002324198,-0.0018338489,-0.008432328,-0.0083689571,0.1000980644,-0.0166639567,0.0272023396,0.027107362,-0.0893653132,-0.1171538802,-0.0853426361,0.0006273049,-0.0121648222,-0.0249175215,-0.0248823821,-0.0220987384,-0.0093560035,0.0037967695,-0.4538143501,0.0329271122,-0.4287305491,-0.0174768787,-0.0109391752,0.5576573469,0.2403288631,0.0507094661,0.0079702447,0.0082438659,-0.0130710926,-0.0276154351,0.0078377367,0.0049633419,0.0090660944,-0.0010674683,0.0003306226,-0.0121068875,0.110089226,-0.0141148355,0.0277460581,0.1009898677,-0.0200223795,-0.0884774598,-0.0873380241,-0.001894903,-0.0019449934,-0.0133143617,-0.0101515695,-0.0249847501,0.0597045128,-0.098053179,-0.0200580402,-0.0684704594,-0.1644449744,0.0303471324,-0.0786576942,-0.0184764236,-0.0074304971,-0.0061879501,-0.012727912,0.0049968629,0.0088826562,-0.0017060969,-0.0217645233,0.0082823672,-0.1255056963,0.0153650525,-0.0014190147,-0.0027748764,0.1792721176,-0.0166573567,0.0360180298,0.3678685457,-0.0845756864,-0.084469063,0.0396966353,0.0813983789,0.0753450531,0.0881345605,0.0775423518,-0.0125323069,-0.001983676,-0.1564121496,0.0789019741,-0.0844465326,-0.0474004716,-0.0005156938,-0.0378993145,-0.0590409751,-0.004799878,-0.003367996,-0.0078125748,-0.0187930354,-0.0120997157,-0.0616724618,-0.0094052829,-0.0132177042,-0.0608366716,0.0145921397,-0.0016784855,-0.0117746715,0.1093718166,-0.0099349858,0.0310223343,0.0652149116,-0.0891194448,0.0364767165,0.0410920661,-0.0002990749,0.1089442947,0.0405369663,0.0559471042,-0.0057053423,0.0051281418,0.0147667858,-0.0388472697,-0.1281153477,-0.0070869219,0.0167865547,0.7091803081,-0.0249768414,0.1844803015,0.2115888537,-0.0090773551,0.0224419496,0.0163334968,-0.0069525429,-0.0876126491,-0.0893943418,-0.0247292953,0.0111842053,-0.003697451,-0.0027073275,0.1169507957,-0.0020667398,0.036768074,0.0934023809,0.0537184353,0.0512470875,-0.0167358964,0.1231427,0.1143319725,-0.0037076517,-0.0160818442,-0.006857367,0.0360343571,0.0031396341,-0.0438605949,-0.0284354439,0.1915316637,-0.000088733,0.0797319496,-0.0104852027,0.032835255,0.006799625,0.0916119108,0.0107118244,0.0169019937,0.0014933319,0.0075981035,-0.0194290333,0.0060649314,0.0124298008,-0.0022566197,0.0016583661,-0.0114409369,0.0958730057,0.0277095664,0.1997664102,-0.0011346855,-0.012238539,0.0339703063,0.1113054127,0.0089430125,-0.0180112768,0.0029545419,0.1022742371,-0.0222747641,-0.0184844239,-0.027337394,-0.0470897783,-0.0113629502,0.1029575854,7.3042407278,-0.0023077713,-0.0347257416,-0.0190564975,-0.08711971,0.0045456337,0.1432285899,-0.0049342154,-0.1327055832,0.0100782962,0.0089744044,-0.0042406165,-0.0041841304,-0.0098178172,-0.0303451597,0.1072628312,0.0299288466,0.0420031062,-0.0599616888,0.0393947775,-0.0782886591,0.1244686059,-0.0062380235,0.186723268,-0.0511662849,-0.009524214,-0.027338725,-0.0219227266,0.0455337649,-0.0432402275,-0.0075073437,0.0200771789,-0.0000308462,0.0425850776,0.056107579,-0.0259864827,-0.0309554181,-0.0005202936,0.0133757315,0.0141990411,-0.0540399916,0.0174157423,-0.023530512,0.0003760666,0.006100805,-0.0020357832,-0.0829041961,-0.0016165166,0.0322821722,0.2286326965,0.0625263052,0.0476735304,0.0461689778,0.0515736732,0.011895638,0.1083955187,-0.1037704402,-0.0095307123,-0.1991252836,-0.0310507663,0.0017679847,-0.0235470333,-0.0268806052,-0.1303953326,0.0068559033,-0.0298532425,-0.0212798993,-0.0621534174,0.0672886765,0.0133185005,-0.0042533001,2.3586371375,-0.0626330774,-0.0074007168,0.1682016289,0.2160162231,-0.0035474179,-0.0150017748,0.0805707902,0.1076767067,0.0362006921,0.2338868881,0.0069977617,0.0254725709,0.0320828964,0.0001874574,-0.0062332319,0.004244634,-0.0136989038,0.0538835929,-0.0245647466,-0.0525401968,-0.0001152742,-0.0042505434,-0.0208325595,-0.0218129699,0.3142285559,-0.0202116166,-0.0252094786,-0.5132528383,-0.0235430488,0.0557234406,0.0814412999,0.0793043626,-0.1025900262,-0.0220836208,-0.0144581762,0.1116849895,-0.0040913064,-0.0046796098,-0.0372419092,-0.0036883162,0.0721278452,0.0551219207,0.0311887959,-0.018428478,0.0297741071,0.0870003512,-0.0081155308,0.0067617883,0.0854293545,0.0066051512,-0.0023325468,-0.1158735158,1.5450854807,-0.1207424656,0.5743543526,-0.1033530387,0.0550318681,-0.0935754645,-0.001453239,-0.020917436,0.0551608692,0.1084658222,0.1149730374,3.4866651226,0.6275930716,-0.0196372357,-0.0086577693,0.1095655987,-0.0079657736,-0.0047854803,-0.0043126989,-0.0037508071,0.0344303904,0.3436923456,0.0121490468,-0.0613817384,-0.1487556562,0.0797582937,-0.0028999968,0.1058479257,-0.0022752524,0.1602035666,-0.0402974519,-0.4562217363,-0.036774271,-0.1705939589,-0.0254193074,-0.0296387276,-0.0342239544,0.028249925,-0.0208434457,-0.0417225613,0.0101778876,0.1200327543,0.1306982789,0.1338858854,-0.0500576091,-0.0012978198,0.2800982962,-0.0022722754,-0.0116343339,-0.0244380713,0.1041971611,0.1029671604,0.0325426375,0.2441083623,0.0140658124,-0.0019358728,0.0355416216,0.1091445536,0.1064610636,0.1213205596,0.1167679826,0.0022036086,0.0056336409,-0.1068951173,-0.0313753575,-0.0484514048,-0.0008953916,0.0295693318,0.0789601169,0.0559522618,0.0571557624,-0.0274753556,0.018774072,0.0036021196,-0.0256086118,0.1196798192,0.0505894098,0.0178494645,-0.0095669486,0.0730793875,-0.0085820129,-0.0047101767,0.0271335383,-0.0162466501,0.0377517562,0.2184855339,-0.0004436661,-0.0001962773,0.0626729195,0.0637716189,0.1104359693,0.0638438023,1.6962496436,0.0010455703,-0.0064440079,-0.1368467376,-0.0415538167,-0.1491020905,-0.1515288847,-0.2556692975,-0.1061384149,0.0259776022,0.0442033014,-0.0369041528,0.0286418939,0.0239995062,0.0345120946,0.0461041406,-0.1234644376,0.0004096519,0.0841779364,0.0731617295,-0.0117909403,-0.0043595933,0.0812575255,0.0671825151,0.0231726566,0.0449858724,-0.0006287282,0.0314818827,0.0070301741,0.0612233363,0.0594725742,0.3806229189,0.1565382914,-0.0160033103,0.0033390432,0.0397738945,-0.1014723237,-0.3009269137,0.0236541656,-0.0193094435,-0.0853890514,0.0126696436,-0.0357780957,0.1169596104,-0.0002799412,0.0588366912,0.0826184703,0.0943096535,-0.1750312343,-0.0075966602,-0.011486924,0.1097052796,-0.0117786753,-0.0048886808,-0.0373792028,0.0117805814,0.0345914932,0.0124541723,0.0078848976,-0.0002506906,-0.0008248025,0.0805133959,0.0379247662,0.1102859569,-0.0348263171,-0.0044538654,1.2412991062,0.018620248,-0.0074036169,-0.1461180828,-0.0587831933,-0.0586695201,-0.0301745046,-0.0312323565,0.0391031437,0.0392629031,0.2033408233,0.094680053,0.0303884338,0.0940381433,-0.0789236704,-0.119011926,-0.0118314234,0.0823485047,-0.0118041357,-0.0301734254,0.0749158649,0.0669546919,0.034522194,0.2633684863,0.007808206,0.0356731641,0.0078013523,0.0823459967,0.085520963,-0.1023620084,0.1790648905,-0.0017186098,0.0620422114,-0.0002295296,-0.2497139817,-0.036443014,-0.1201131103,-0.0319959325,-0.0318429123,-0.0226196996,-0.0895538171,0.0836815609,0.0731681872,-0.0171748383,-0.0125674844,-0.0260881756,-0.0762050857,-0.1305844783,-0.0490303177,0.1076151472,-0.0125745936,-0.044451613,0.0448127875,0.0364477224,0.0349669859,0.2226164138,0.014059786,0.0078069761,-0.0427641122,0.0793935349,0.0526595057,-0.1241254158,0.0773613649,0.0306747143,2.1135792662,-0.0045469291,-0.1483368211,-0.0302359695,-0.0777382346,-0.0276562878,-0.016157495,-0.0202726517,0.0601696583,0.1294517031,0.0599710969,0.1103190939,-0.0094639294,-0.0064677309,-0.0092577345,0.0266354426,-0.0129066247,-0.0115989211,-0.0245311518,-0.0063661066,-0.5203341225,0.0999785397,0.0373316654,0.11090371,0.0378896692,-0.0087372798,0.0079532262,0.0433336649,-0.018891816,0.0545388741,0.0867347347,0.4012493611,-0.0027312784,-0.0397668682,-0.0052711862,-0.0478445713,-0.0508275424,-0.1644421683,-0.1437695358,-0.1644722691,-0.1169336426,0.0116812468,-0.0168033562,0.0107143633,-0.0179677209,0.0333052038,0.046703151,0.0230495251,-0.1922984859,-0.0070762975,-0.0112390052,-0.065486491,0.0921714412,0.0374001384,0.037122367,-0.0383200071,-0.7710071034,0.0444739389,0.0075849468,0.0347936804,0.054622628,-0.06145013,0.0063362504,-0.001477908,0.7312986822,0.0196167451,-0.0050388837,0.0029096763,-0.0359350241,0.0551803245,-0.0343417505,-0.0342927,0.1276378446,0.0577435115,-0.0216136857,-0.0021214758,-0.0036491651,0.0463212626,-0.0285559286,0.0220491664,-0.0478246133,-0.0892687335,-0.0118866556,-0.0035247598,-0.0847221133,0.0118458321,0.0345708396,-0.7912632657,0.0140430731,0.0379267551,0.0358225636,0.0445406574,0.0428527992,-0.0146964446,0.0038943053,0.0215392593,-0.0694890036,3.6135602324,0.1298589404,-0.0497358734,-0.0557252228,0.0945859574,-0.1323333708,-0.132133534,-0.1414528662,0.0367987228,0.0444708991,-0.0568977516,0.0553841704,-0.0386294783,-0.0403886163,0.2156281758,-0.0216119934,-0.0650039993,-0.0009472639,-0.0456319743,0.0811718873,0.0755605189,0.0757008321,-0.0149144352,-0.0656838496,-0.1559558125,-0.0435772544,0.0587506536,0.0764557222,0.0250087703,0.0594111345,0.0261383675,0.1071844279,0.0321528011,0.0847633397,0.092121976,-0.1549491699,-0.0721010754,-0.0729337814,-0.6778987215,-0.1996203046,-0.3153283501,0.0193768188,-0.0255995861,-0.2152894244,0.0668639236,-1.4742233775,-0.4423144451,-0.2714338523,-0.0244493217,-0.0010365165,-0.1085366913,-0.0692168558,0.0117057133,0.0322114121,0.1845390985,0.0136721284,0.0685908445,0.0730292965,-0.0250488921,-0.0473045146,-0.0245804501,-0.0244207981,0.0184714175,0.0198874946,0.0266077365,-0.0202220184,-0.0793681357,0.0028083863,0.0042170464,0.0271202716,-0.0202820303,-0.1185121086,-0.050037596,-0.1175430536,-0.048133851,-0.1559934313,-0.1880340025,-0.1779109797,-0.1070805502,-0.1530612873,-0.393025423,-0.005291954,-0.0051305918,-0.0849362934,0.0755041907,0.0571179882,0.1139330071,0.013733612,-0.0058894138,0.0324631003,0.0584820647,0.0252398958,0.1507476417,0.1075411803,-0.0710575069,-0.0738895767,-0.0734739815,-0.0489061518,0.000872178,0.0069977986,0.2848656969,-0.039305463,-0.0096215567,-0.0469301926,-0.0499324055,-0.0170581473,-0.1528333017,-0.0170506308,-0.0170746833,-0.0175034009,0.0932916745,-0.0403350272,-0.1480028625,0.0083645828,-0.0569093804,0.0816592615,0.0753060382,0.0410997378,0.1054101269,0.0542059277,-0.071754861,0.0532177351,0.0995449078,0.0986129216,-0.0127317426,-0.058493235,-0.0228145384,-0.0136591266,-0.0141840807,0.1294046706,-0.0184848395,-0.0374299426,-0.0520368719,-0.0162263063,0.0082502855,-0.0351550861,-0.0072637216,-0.0352283133,0.0742870366,0.0900837571,0.0738796509,0.2323282147,0.1234982694,0.0998699689,0.1009132821,-0.0124738631,-0.0320939594,-0.0297262531,0.0661513084,0.0888852724,0.2490559342,0.0336877597
   -0.0208629064,0.0828944337,0.0985449243,0.1021479284,0.0902859669,0.0986593667,0.0566518795,0.0923443699,-0.2145881212,0.251529574,-0.1096419337,0.1650094161,0.1339027363,0.252718455,0.1648436285,0.2527343145,0.1493593725,0.2515724655,0.0926311366,-0.0436067735,0.1300218131,-0.0517565057,0.0711073736,0.1085678565,0.1620179206,-0.0196526194,-0.0150756937,0.0950928293,0.1131676274,-0.0258413875,0.0562617743,-0.011552986,0.0512830282,0.0464352696,0.023225425,0.1151037699,0.103869571,-0.003696035,0.0990707962,0.0618706849,0.0667298986,-0.3452484641,-0.2428778471,0.1520956476,0.2722723262,-0.2379220451,0.3411505907,0.0892368232,0.069244057,0.3897926195,-0.2420170775,-0.2140687824,-0.0556862158,0.0564309782,0.1128649096,0.0139732469,0.056683279,-0.0496561774,0.1021439491,-0.011647726,0.1072708077,-40.5087030302,-0.0813598006,-0.0167142618,0.0012718666,0.0089058223,-0.0551702755,-0.0087201085,0.1095611392,0.1001217156,0.1095821296,0.0885487515,0.1077158429,0.0892370254,0.0588375756,0.1047997522,0.0989011794,0.1012821279,0.1049901189,0.0988149463,0.0982296724,0.0971945217,0.0824308253,0.104932993,0.0993402313,0.0988560357,0.0988113014,0.1092476255,0.1093295774,0.1052128529,0.1043117631,0.1640405246,0.0342745974,0.1807693272,0.0109685182,0.0207006197,-0.000790869,0.0000222968,0.0000883252,0.0001240718,-0.05492379,-0.0556373571,-0.0552460053,-0.0462035471,0.0001193112,-0.0531472748,-0.0552261382,-0.053207863,-0.0015772313,-0.0535526912,0.0753427707,-0.0552760957,-0.0001398772,-0.0553307299,-0.0545495582,-0.0553161464,-0.0552332467,-0.0549566809,-0.055254428,-0.0527630815,-0.0554609885,-0.0020154887,-0.0550611515,-0.0074156261,-0.0019751149,-0.0005629374,0.0216946152,-0.0723101641,-0.0553564966,-0.0763226307,-0.0083420101,-0.0685383583,0.0017862559,0.0001235626,-0.0046574735,-0.0002490692,-0.0042607744,-0.0067493318,-0.0001636544,0.0023827249,0.0015597207,0.0020831114,0.0000941717,-0.0050599251,0.0022056313,-0.0065740613,0.0000655827,-0.0001894909,-0.0016416121,0.0000556105,0.0001124044,0.0018318077,0.0002506564,0.0004248021,0.0002145143,-0.000035469,-0.0003069696,-0.0003995699,0.0229287455,0.0005282432,-0.0559214279,0.0002408425,-0.0004447512,-0.0501208529,0.0008529767,-0.0011305178,0.0003882236,0.0054665533,0.0017936149,0.0024724133,0.0083293141,0.0011241103,-0.0001848268,0.0002333838,0.0070081871,0.008115504,0.001274966,0.0001347962,0.0002330464,0.000657613,-0.0000317603,0.0036207041,0.0018387395,0.0002078607,0.0019121487,0.000454547,0.0001739108,0.0015022062,-0.0005887138,-0.000371089,0.048328764,-0.0154702226,-0.0132447413,-0.0006321998,0.0002925168,-0.0003737586,-0.0048147986,-0.0003866869,-0.0066679607,-0.000610618,-0.0001460465,-0.000414957,-0.000329575,-0.002362666,0.0000255506,-0.0072069692,-0.0540424367,-0.0544069178,-0.0552748175,-0.0009728676,-0.0063157981,-0.000425159,-0.000249291,0.0001514821,-0.0003212959,-0.05531478,-0.0551975108,0.0004013598,0.0003674198,-0.0004931923,-0.0009829495,-0.0002036196,0.0106429548,0.0084279872,-0.0003827697,0.0004195584,0.0001429496,0.0045981005,0.0061407538,0.0098028872,-0.0003471798,0.0007805374,0.0013348745,-0.004522189,-0.0135525787,-0.0012680974,-0.0050152917,0.0565115808,0.0048553457,0.0310320642,0.0072825988,0.0011037893,0.0001041091,-0.0542536963,0.0021952356,-0.0000131195,0.0000489978,-0.0000553371,-0.0000941535,0.0003279925,-0.0000314512,0.0036057259,-0.0002823585,-0.0001315978,0.020825723,-0.0529398114,-0.1069694717,-0.0569868072,-0.0678824964,0.0003776856,-0.038770912,-0.0553374777,-0.0015042333,-0.0603468381,-0.0062024028,0.170264642,0.0246234863,0.0241804828,-0.0013854236,-0.025389859,-0.0096368357,0.3221878604,-0.002935301,0.1191323201,0.0248365419,-0.0006638315,-0.0556167381,0.0000634154,0.0245945177,-0.0021773076,0.0260353824,-0.0018664558,0.0043037653,-0.0062224998,-0.0005525435,0.0007103475,-0.007570091,-0.0422470698,-0.0003289452,-0.0534693988,-0.0001643873,0.0023917894,0.0031884592,-0.0547867837,-0.0588040968,-0.0555636223,-0.0075410293,-0.1583339753,-0.2875371499,0.0184040131,0.0981141528,0.0206421184,0.2417452069,0.1267735956,0.0083878968,-0.0554940256,-0.0562618,0.0243749125,0.0324632357,0.0515812417,-0.000484917,-0.0001896782,-0.0002805262,0.0003499173,0.0001906924,-0.0005245467,-0.000183341,-0.0001139059,0.0175862375,-0.0391599138,-0.0041502797,-0.0006639025,-0.052651747,0.0018955492,0.0496213852,-0.0515398654,-0.0554785011,-0.0080604492,0.0002209417,-0.1270374035,-0.0339369298,0.0014065536,0.0015698069,0.0068468317,0.1860791983,-0.0151169355,0.3087529999,-0.0786750894,-0.0723686983,-0.1662618128,-0.0501668587,-0.0604303939,-0.001120308,-0.0002436805,-0.000250973,0.0014018098,0.0026329855,-0.0004946458,-0.0004232367,-0.000105278,0.0185573938,-0.0526065988,-0.0552412048,-0.0699988676,-0.0529353506,-0.0000979707,-0.0002614461,0.0198238349,-0.1414778361,-0.0007423742,0.2680989439,-0.0003872994,-0.110729655,0.0152723021,-0.0013904262,-0.0026223302,0.0491231619,0.0293118741,-0.0150906262,-0.0600907029,-0.105301351,-0.0753021431,-0.0803450395,0.0123133017,-0.0010699728,-0.0009160689,-0.0004544005,-0.0001762207,0.0516092937,-0.0011750869,-0.0003643123,-0.000039056,0.0404930619,0.0057394356,0.0012876346,0.0006951643,0.0510469338,0.0057546387,-0.0003340425,-0.00115766,-0.0014079223,0.0993228736,0.0035282484,-0.0633320515,0.0004700043,-0.128122406,0.0156239003,0.094457663,0.1856103293,0.0904225285,0.168418469,0.0170937521,-0.0979161644,-0.0372114475,-0.0554315968,-0.0035100083,-0.0005985318,0.0007073782,0.0004822437,-0.0002302721,0.0002588344,0.0048768772,-0.0001544283,0.0000344858,0.0237441727,-0.0569451088,-0.0028353084,-0.0618560138,-0.0550349759,-0.0001054418,-0.0753739117,0.0493824613,0.0022585478,0.0018008362,0.002824117,-0.0219867427,-0.0016548839,-0.0772973856,0.0716698443,0.0769309478,0.0992154501,0.077547816,0.024947783,0.0466854792,-0.0939506083,-0.0468235156,-0.0570770169,-0.0680575338,-0.2435610581,0.0000832684,-0.0000433006,-0.000022417,-0.0018127882,0.0002004746,0.0009713828,0.0002874377,-0.0058262291,-0.0424605885,-0.0002720429,0.005449112,0.0000164312,0.0015242323,0.0000574563,-0.0002685578,-0.0002198302,0.0001962807,-0.0195977275,-0.000804921,0.0001107816,0.2043911042,0.1480616408,0.1755102004,0.0029182272,0.002402071,0.0573145474,0.0598777485,0.0159294246,-0.0609968987,0.023008158,0.0005839834,0.0434803985,-0.0544686423,0.0004725171,0.0026286888,-0.0009446881,0.000218509,0.0007241971,0.0004072919,0.0223883637,-0.057274075,0.0013893753,0.0004673253,0.0058110035,0.0013105991,0.0010477892,-0.0007543283,0.0496149592,-0.0059845543,-0.0069221874,-0.0004355162,0.0465646561,-0.0831487424,0.0696508287,0.104460593,0.094555454,0.0511093667,-0.0028958196,0.0511869988,0.0215640367,0.0028750293,-0.2317537931,0.0197742505,0.0191224166,0.0188957349,0.0004817177,0.001533639,-0.0016638344,0.0013189141,-0.0001723056,0.0074544995,0.0180109325,-0.0562826315,-0.0000843186,-0.00110371,-0.0495334646,-0.0551696428,0.0000583715,0.0000153621,-0.0067466817,-0.0058460782,-0.0047547769,-0.0074255791,0.0050859838,-0.029861772,0.0306021223,0.0009094868,0.0494902585,-0.0754666499,0.044525493,0.0498231885,0.0009917339,0.0355658666,0.0232336569,0.0015089989,0.0623374157,-0.0557332036,-0.0544608869,0.0025428831,0.0005290179,0.0005639237,0.0021670944,0.0007476125,0.0260345129,0.0053047551,-0.0076454188,0.0005958085,0.0012517654,0.0008799521,0.0006474034,0.0007208884,-0.0003475508,0.0566989751,-0.0051331517,-0.0139028834,-0.0066840787,-0.0470841124,0.0222833016,0.0696521729,-0.0000404504,-0.1133257494,0.0460738414,0.0536609318,0.0380053944,0.0165561947,0.0490630576,0.0617522501,0.0217016982,-0.0584877712,0.0222777093,0.0045492966,0.0046979306,0.0050982033,0.000076098,0.0003273272,0.0179982399,0.0182542244,0.0013269695,-0.0034214981,0.0694604573,0.1026482207,-0.0063287883,0.0006291254,-0.0002886081,0.0026522748,-0.0552341292,-0.2883970614,-0.0621058153,-0.304238972,-0.0090249196,0.1063469866,0.0008987091,-0.0336012073,-0.1214584768,0.0351914068,-0.0385000308,-0.0042043764,0.0210636283,0.0322571599,0.0284232805,-0.0592661565,0.0211172155,-0.0007344355,0.0015894429,0.0003203895,0.0041828713,-0.0000113365,-0.0013892773,0.0209179347,-0.0553809393,-0.0003200029,0.0001846442,0.0005583903,0.0007536579,0.0508899607,-0.0015237048,0.0021129916,-0.0312006007,-0.0486651688,-0.0950761283,-0.0234821629,-0.1145052591,-0.1430203712,0.0699856737,0.0139469122,0.054470494,0.0246330433,0.0177804105,-0.0549719652,0.3619313496,-0.0504040626,-0.0529956327,-0.0539160578,0.0200094366,0.0006646654,0.0005146075,0.0050541079,0.0001366459,0.0013147894,0.020732421,-0.0538479282,-0.0020008817,0.0012778634,0.069277834,0.0708430218,-0.0570722534,0.3674174689,-0.0005210461,0.0029959444,-0.0124576504,-0.0199775525,-0.0087300676,-0.1783331426,-0.03018097,-0.2427015497,-0.0271480344,-0.0185323729,0.0967686526,0.0858692791,0.0712141804,0.0262985052,0.072404217,-0.0504827933,-0.0521147535,0.0052235623,-0.0531744558,0.0005347811,0.004709638,0.0003029469,0.0005915106,0.0011203396,-0.0138933302,0.0142066634,-0.007852058,-0.0558384032,0.0641620378,-0.0615756228,0.0768767587,0.0207025825,-0.0001744213,-0.027924387,-0.0363242249,0.4523208474,0.1029483498,-0.1563345172,0.0099357459,-0.047515334,0.0265695895,0.0536135202,0.4621828459,0.0487819191,0.1662826938,-0.0531327187,-0.1432356093,-0.0593283195,-0.0506774407,-0.0011349239,-0.0518832703,-0.0528683631,0.0008851053,0.0005950602,0.0045942214,0.0003497024,0.0241231494,0.0177296245,-0.002972944,-0.0581409893,0.0934715558,-0.0598877387,-0.0582173911,-0.1173014182,-0.0229153794,-0.0870831142,0.0125995481,-0.7376332634,-0.033800192,-0.1913193036,-0.3248446121,-0.0400878285,0.0288754215,0.130437302,0.0448462244,0.0863727619,0.0414913534,-0.2856444936,-0.1187675595,-0.0579012643,-0.059119482,-0.0580475185,-0.0516576882,-0.0520413051,0.0017686921,0.0013226281,0.0000394194,0.0006206587,0.0207323983,0.0183442513,-0.0769252079,-0.0938413093,0.0650818314,0.0677768599,-0.0607612715,0.0652678396,0.0005292982,-0.0266300503,-0.1382530131,-0.4952907852,-0.0090364655,-0.0370789534,-0.0880386514,-0.0503113012,-0.0157499721,-0.0080629873,0.012842389,0.1301595176,0.0219105825,-0.0449072866,-0.0834139007,-0.0659840756,-0.067050224,-0.0586008063,-0.061754007,0.0021329537,0.0015995386,0.0005540295,0.0045473964,0.0002960089,0.0095995901,0.0181368372,-0.0631331715,-0.0005445655,0.0696648853,0.0713299596,-0.0538110023,-0.1311544048,0.0000142087,0.130316067,0.4575174843,-0.0185803133,-0.0020166109,-0.0589437879,0.0436064848,0.097598325,0.0476293892,0.0552866822,0.1070547179,0.1152172192,0.1950843872,-0.0271170361,0.091776823,-0.0832735802,0.0143178233,-0.0569106389,0.0001008743,0.000521512,0.0017506828,0.0008937767,0.0001927564,0.0011411269,0.024328655,0.0138308777,0.0965711701,-0.0567990308,-0.0550399621,0.0649836929,0.0704675039,0.0664715459,-0.0017707669,0.0797085235,-0.1589138138,-0.0882876141,-0.1016995688,-0.1827041627,-0.1395763102,-0.0258280558,-0.0032112979,0.0230715646,0.0242225032,0.0675094141,-0.1384158492,-0.181971314,-0.1338192969,-0.0662885989,-0.0732283836,-0.0575100571,-0.05631072,-0.007946037,-0.000719572,0.0022934721,0.0011774402,0.1247836368,0.0208081326,0.0086341177,-0.0637373094,-0.0853918246,0.0940677063,0.1061482314,0.2433465824,-0.0030980744,0.0022250965,0.025221729,-0.033352833,0.1143364123,-0.2654157686,-0.0275522277,-0.2067566831,0.0137302231,0.0146193876,0.0157602925,0.1248284339,0.5720790507,0.0358549365,-0.1301745342,-0.1916005112,-0.3058463433,-0.0930238285,-0.0563731614,-0.0674298016,-0.0840827285,0.0017311849,0.002635444,0.00382361,0.0006457057,0.0106610585,0.0084903251,0.0000025974,-0.0109250081,0.086485702,-0.0000289399,0.0026176721,0.0176923894,0.0059517412,0.0337599627,0.1705444033,0.0044917156,-0.0878909977,-0.054680488,0.0201277215,0.1005004583,0.0496986888,0.098929639,-0.1675933699,-0.0208198613,0.1792290665,-0.0754907704,0.0902938965,0.0938011129,-0.0156544004,0.0005391612,-0.0572877439,-0.0553830696,0.0015078774,0.0007050794,0.000131623,0.0009116033,0.0207061087,0.0087578867,-0.0089545307,0.0859921008,0.0894185056,0.099799822,-0.0021409883,-0.0102786168,0.3449833276,0.0045639756,0.00631453,0.0753394088,0.0848300192,-0.0986115306,0.0568702429,0.0582377484,0.0780424956,0.0929894281,-0.0636820206,-0.0050436624,-0.2004271488,0.0418823005,0.0661443762,0.0638934356,0.0586697219,0.0990136697,-0.0548296712,-0.0597125631,0.002145499,0.00202168,0.0037665853,-0.0001842939,0.0197065966,0.0025603396,-0.0572055452,0.0001855026,-0.0009306853,0.0005334744,0.0005172745,0.0008044012,0.0537256746,0.0449301901,0.0027277151,0.0032861767,0.0004885667,0.0016349263,0.0006126595,-0.0029894716,-0.0011640094,-0.0034168388,0.0012924577,0.0012215,-0.0021428138,-0.0007370569,0.000882289,0.0008110679,0.0001314247,0.0013180579,0.0312084126,0.0012530038,0.0028599232,0.0087457522,0.0045844689,0.1087496224,0.020321187,0.0151885472,0.0956867678,0.0967004018,0.0522930385,0.0628071453,-0.0124558217,0.0505903772,0.0008534998,0.065904615,0.0522204145,0.0612706944,0.0624478423,0.0004488012,-0.0018535881,-0.0432670387,-0.001031212,-0.0028155919,-0.0035859356,0.0011274744,-0.000757588,0.1598617551,0.0629421953,0.0532208084,0.0568836478,-0.0265096156,-0.0016191587,0.0473669957,0.0373218995,-0.4426730101,-0.0871575599,0.0472090015,-0.3178752611,0.0752203197,0.1087329648,0.052579436,0.057437262,0.1001646918,-0.0104393568,-0.0018201842,-0.0024812306,-0.0480086772,-0.0506514058,-0.0365422152,-0.0485826937,-0.0113795788,-0.0477287537,-0.0298402118,-0.0238181796,-0.0489275137,-0.0430628256,-0.0357980003,-0.0426814853,-0.0357643157,0.1729396183,-0.0357542627,-0.0267087817,-0.0432041111,-0.002470108,-0.0441217434,-0.0012555068,0.4995285671,0.006625241,0.0784817087,0.0239257089,0.3184552357,0.1231577502,0.0731612642,0.0667313838,-0.0567583483,0.0960641555,-0.053490302,-0.0556892724,0.0683807242,0.0885748975,0.1199137168,-0.0345841853,-0.0518988067,0.0056825035,0.0209921019,-0.1016705467,-0.0232173881,-0.104614972,-0.0875428458,-0.0770580412,-0.0736966939,-0.1058471116,-0.0814980149,-0.1021964229,-0.0603271619,-0.0587520261,-0.033582929,-0.0033768915,-0.018550148,0.133409675,-0.1279610553,0.0494469209,0.0230692053,-0.0663071013,-0.0507751029,0.100862143,0.1012360113,-0.0019972192,0.1040321101,-0.0054613889,0.0024087343,0.0443412071,0.11846616,-0.0061884042,0.0747615081,-0.023554846,-0.019054281,-0.0492623764,-0.0137249071,0.0545640234,-0.0311802476,-0.0914672146,0.0275709749,0.0728602248,0.0096244117,-0.0267172772,-0.0910701126,-0.1067147084,-0.0932561773,-0.0315192499,-0.0391928921,-0.1263940053,0.0324987951,-18.4603520076
##end
biasActivation=0,1,1
[BASIC:ACTIVATION]
"ActivationSigmoid"
"ActivationLOG"
"ActivationLinear"
