encog,BasicNetwork,java,3.1.0,1,1363117984314
[BASIC]
[BASIC:PARAMS]
[BASIC:NETWORK]
beginTraining=0
connectionLimit=0
contextTargetOffset=0,0,0
contextTargetSize=0,0,0
endTraining=2
hasContext=f
inputCount=1024
layerCounts=7,11,1025
layerFeedCounts=7,10,1024
layerContextCount=0,0,0
layerIndex=0,7,18
output=0,0,0,0,0,0,0,0,0,0,0,0,0,0,0,0,0,1,0,0,0,0,0,0,0,0,0,0,0,0,0,0,0,0,0,0,0,0,0,0,0,0,0,0,0,0,0,0,0,0,0,0,0,0,0,0,0,0,0,0,0,0,0,0,0,0,0,0,0,0,0,0,0,0,0,0,0,0,0,0,0,0,0,0,0,0,0,0,0,0,0,0,0,0,0,0,0,0,0,0,0,0,0,0,0,0,0,0,0,0,0,0,0,0,0,0,0,0,0,0,0,0,0,0,0,0,0,0,0,0,0,0,0,0,0,0,0,0,0,0,0,0,0,0,0,0,0,0,0,0,0,0,0,0,0,0,0,0,0,0,0,0,0,0,0,0,0,0,0,0,0,0,0,0,0,0,0,0,0,0,0,0,0,0,0,0,0,0,0,0,0,0,0,0,0,0,0,0,0,0,0,0,0,0,0,0,0,0,0,0,0,0,0,0,0,0,0,0,0,0,0,0,0,0,0,0,0,0,0,0,0,0,0,0,0,0,0,0,0,0,0,0,0,0,0,0,0,0,0,0,0,0,0,0,0,0,0,0,0,0,0,0,0,0,0,0,0,0,0,0,0,0,0,0,0,0,0,0,0,0,0,0,0,0,0,0,0,0,0,0,0,0,0,0,0,0,0,0,0,0,0,0,0,0,0,0,0,0,0,0,0,0,0,0,0,0,0,0,0,0,0,0,0,0,0,0,0,0,0,0,0,0,0,0,0,0,0,0,0,0,0,0,0,0,0,0,0,0,0,0,0,0,0,0,0,0,0,0,0,0,0,0,0,0,0,0,0,0,0,0,0,0,0,0,0,0,0,0,0,0,0,0,0,0,0,0,0,0,0,0,0,0,0,0,0,0,0,0,0,0,0,0,0,0,0,0,0,0,0,0,0,0,0,0,0,0,0,0,0,0,0,0,0,0,0,0,0,0,0,0,0,0,0,0,0,0,0,0,0,0,0,0,0,0,0,0,0,0,0,0,0,0,0,0,0,0,0,0,0,0,0,0,0,0,0,0,0,0,0,0,0,0,0,0,0,0,0,0,0,0,0,0,0,0,0,0,0,0,0,0,0,0,0,0,0,0,0,0,0,0,0,0,0,0,0,0,0,0,0,0,0,0,0,0,0,0,0,0,0,0,0,0,0,0,0,0,0,0,0,0,0,0,0,0,0,0,0,0,0,0,0,0,0,0,0,0,0,0,0,0,0,0,0,0,0,0,0,0,0,0,0,0,0,0,0,0,0,0,0,0,0,0,0,0,0,0,0,0,0,0,0,0,0,0,0,0,0,0,0,0,0,0,0,0,0,0,0,0,0,0,0,0,0,0,0,0,0,0,0,0,0,0,0,0,0,0,0,0,0,0,0,0,0,0,0,0,0,0,0,0,0,0,0,0,0,0,0,0,0,0,0,0,0,0,0,0,0,0,0,0,0,0,0,0,0,0,0,0,0,0,0,0,0,0,0,0,0,0,0,0,0,0,0,0,0,0,0,0,0,0,0,0,0,0,0,0,0,0,0,0,0,0,0,0,0,0,0,0,0,0,0,0,0,0,0,0,0,0,0,0,0,0,0,0,0,0,0,0,0,0,0,0,0,0,0,0,0,0,0,0,0,0,0,0,0,0,0,0,0,0,0,0,0,0,0,0,0,0,0,0,0,0,0,0,0,0,0,0,0,0,0,0,0,0,0,0,0,0,0,0,0,0,0,0,0,0,0,0,0,0,0,0,0,0,0,0,0,0,0,0,0,0,0,0,0,0,0,0,0,0,0,0,0,0,0,0,0,0,0,0,0,0,0,0,0,0,0,0,0,0,0,0,0,0,0,0,0,0,0,0,0,0,0,0,0,0,0,0,0,0,0,0,0,0,0,0,0,0,0,0,0,0,0,0,0,0,0,0,0,0,0,0,0,0,0,0,0,0,0,0,0,0,0,0,0,0,0,0,0,0,0,0,0,0,0,0,0,0,0,0,0,0,0,0,0,0,0,0,0,0,0,0,0,0,0,0,0,0,0,0,0,0,0,0,0,0,0,0,0,0,0,0,0,0,0,0,0,0,0,0,0,0,0,0,0,0,0,0,0,0,0,0,0,0,0,0,0,0,0,0,0,0,0,0,0,0,0,0,0,0,0,0,0,0,0,0,0,0,0,0,0,0,0,0,0,0,0,0,0,0,0,0,0,0,0,0,0,0,0,0,0,0,0,0,0,0,0,0,0,0,0,0,0,0,0,0,0,0,0,0,0,0,0,0,0,0,0,0,0,0,0,0,0,0,0,0,0,0,0,0,0,0,0,0,0,0,0,0,0,0,0,0,1
outputCount=7
weightIndex=0,77,10327
weights=##0
##double#10327
   -0.0381186747,13.0644404065,0.0871768897,-0.0629910077,9.2176493333,0.3235701958,0.0774073368,-1.3475117503,-0.5550293841,0.890936626,-0.8993197354,-0.3650066194,-0.1201982992,1.0181197249,1.6651491859,-1.4632189252,2.094054873,0.5194313248,-0.2971171357,-2.687343684,-2.8212924374,-23.7824744891,-1.4485854035,-1.2772684293,3.3551617858,0.202888218,3.764365881,-0.7394925111,-0.7967602141,-3.9714334326,4.3003681245,-4.8625552297,-7.1983600451,3.4739323582,2.3858050114,0.0136773779,1.5247370283,0.83080978,-1.9691035065,-1.507231796,2.8550884464,-3.3127253099,-1.9759195786,-13.4167764449,2.5445049273,1.482014705,2.1861978464,-1.9993296378,-1.927384369,0.0760767702,3.5407731442,-0.5471630319,-2.5765843866,4.0604215114,-6.8658282249,0.9180178912,1.7250849387,3.8212695904,1.8678563696,-0.2399825443,1.6219283488,-2.19796034,3.4437540373,2.5201810427,0.3392501954,-4.8537313292,-3.2775954001,0.1238497723,0.1488464892,1.315797392,-1.7882942316,0.2600717168,3.204704802,-0.9120755624,2.8844405869,1.8042514511,-27.7718687809,-0.2479775414,0.0360551329,-0.0615307289,-0.1496802067,0.0284131127,-0.0789646848,-0.2027210724,0.076465203,-0.1544987975,0.1499392717,0.1472509653,0.1745086083,0.0927459684,0.0997180996,0.1102215072,0.1017240707,-0.1350688443,0.1207732527,0.1076117299,0.2927811501,0.0149927798,-0.152574668,0.0116017681,0.0218439621,0.1081646834,0.1176423472,0.1037848605,0.1010295349,-0.0013996142,0.1970118021,0.1301818333,0.184733858,0.2766317076,-0.1190118825,0.0356804511,0.0360420177,0.0211664137,0.0417558193,0.0206511173,0.0396761613,0.0417269183,0.0202228149,0.0228138414,0.040408597,-0.0024240589,0.0418660821,0.0396027778,0.052208679,0.0418570235,0.0300531853,0.0407000602,0.0404873646,0.0574987819,0.0412994976,-0.0018110929,0.0414681816,-0.0292758329,0.0415716013,0.0524600912,0.0711728562,0.0426458373,-0.5106730193,-0.0203757436,-0.9561707463,0.0355785143,-0.0247503807,-0.0244102619,-0.0125206824,-0.0103020001,-0.0059198788,-0.0200692894,-0.0066490393,0.0111620755,-0.0096134782,0.0091028234,0.0053945723,0.0103040073,-0.0196421645,-0.0191979486,-0.017081304,-0.0211727278,0.0004671053,-0.0203866698,-0.0192801135,-0.0193297762,-0.0193408771,-0.0071784529,-0.0008579664,-0.0060107873,-0.015949567,-0.0122568338,-0.0192153393,-0.0095811448,-0.0011339671,-0.0055549049,-0.0590921198,0.0353203484,-0.0274585506,-0.0250796973,-0.0264049781,-0.0214231249,-0.0118346543,-0.0119031196,0.0083291759,-0.0119809841,-0.0113600717,-0.0107824093,-0.011866503,-0.0201303701,-0.0120235006,-0.0075591252,-0.014096457,-0.012969434,-0.0201388101,-0.0115775312,-0.0106816261,-0.0124681417,-0.0089389138,-0.0078692294,-0.0073873467,-0.0098988707,-0.0060122839,-0.0097491478,-0.0244166394,0.0064491934,-0.0001405845,-0.0259711171,-0.0535877876,0.0354014657,-0.0167215345,-0.013266927,-0.0264161792,-0.0265560676,-0.0103641874,0.0094888801,0.0067354499,0.0123886153,0.0003756555,-0.01129932,-0.0195501846,0.0053745987,0.0113168442,0.0247380879,0.0082347522,-0.0205700251,-0.0411890776,0.0101270821,0.0221776803,0.0135819146,-0.0098569544,-0.0200039068,-0.0386629589,-0.007829406,-0.0157555621,-0.0086336031,-0.0268023219,-0.009185964,-0.0017664206,-0.0527715917,-0.0187301541,0.0333681568,-0.0283153416,-0.0261823595,-0.0266178139,-0.0391634303,0.0131873544,-0.0268433862,-0.02554259,-0.0072032586,-0.0079061198,-0.0380354012,-0.012212916,-0.0109737653,-0.012252537,0.0254109612,-0.0251666572,-0.1380722906,-0.0117973118,-0.0144605051,-0.0158387366,-0.0125621464,-0.0093121107,-0.021841666,-0.0123749582,-0.0128340526,-0.0148422911,-0.0135436072,-0.0195183995,-0.0051503851,-0.0100809801,-0.0348153511,-0.0149845494,0.032551527,-0.0897347272,-0.0257196704,-0.0263052886,-0.0411182534,-0.0350546992,-0.0128397878,-0.0084069748,0.002786002,-0.0096474808,-0.0057331049,0.0319123405,0.0293513903,0.0685611912,-0.0114605698,0.0477737537,1.2452958762,0.001925359,0.0214348485,0.035112349,0.0372916731,-0.0074132192,-0.0080278421,0.0175447292,0.026452559,0.0370783427,0.0230451479,0.0072658928,-0.0381027208,-0.0057942359,-0.0255142534,-0.0216026911,0.0326149887,-0.1250364438,-0.0262569864,-0.0263965316,-0.0277092168,-0.0268879355,-0.0268247268,-0.0274181208,-0.0381418744,-0.0120841807,-0.0258512842,-0.0380606858,-0.0146816619,-0.0097460809,-0.0058013026,0.0518796289,0.3667168839,0.2428913359,0.1217343447,-0.0278445316,-0.012630002,0.0302044476,0.0105457376,-0.0201427746,-0.0133556418,-0.0202974112,-0.0122435555,-0.0381711341,-0.0242211172,-0.0049530219,-0.0873762979,-0.0148671984,0.039742275,-0.2205176682,-0.0259933691,-0.0260122027,0.0175891233,0.0632274887,0.0736448595,0.0598862745,0.0999060599,0.0063028442,-0.0220708562,-0.0052163852,-0.0128421514,0.3710111631,0.1095365099,-0.0326630774,-0.0322622427,0.0801789555,0.0212652373,-0.0058772218,0.0045610272,-0.0137439267,-0.0146677709,-0.0169011905,-0.053525366,-0.0136307863,-0.0244818172,-0.0122706227,-0.0050133372,-0.011747572,-0.0254695885,-0.052916044,0.0345953953,-0.5900890122,-0.0249678869,0.086213278,-0.0655030807,-0.0258873524,-0.0132290278,-0.0073645502,0.0098539554,0.0115439972,-0.0078939362,-0.0100646077,0.0104708459,0.0390796511,-0.0223638798,-0.0284730539,-0.0263507065,-0.0270707887,0.0345617201,1.184558064,0.0252272828,-0.0202099669,-0.0263724019,-0.0379506385,-0.0267449354,-0.019939067,-0.0230778182,-0.0120894936,-0.0399189943,-0.0109922271,-0.0526819629,-0.0167369325,0.0363863484,-0.0656127944,-0.025908096,-0.0269526253,0.0735937142,0.0543179382,-0.0109681865,-0.0155163659,-0.0159891972,-0.0081698794,-0.0156602127,-0.0063810552,0.099376451,0.0395808886,-0.0180236536,-0.0253075549,-0.0261108322,-0.0264236257,0.0059572892,0.1316411784,0.6698723569,-0.0266505439,-0.0261801379,-0.0263544634,-0.0276982395,-0.0318661972,-0.0249129587,-0.0122695488,-0.0047140302,-0.010006062,-0.0254436034,0.0018809686,0.0351660883,-0.0270025451,-0.0265001037,0.0874225018,0.0757162477,0.0516912633,-0.0131356516,-0.010230321,-0.0341375494,-0.0106357119,0.0048192901,0.4950254793,0.1073909321,-0.109466672,-0.0013989425,-0.0023290071,-0.043591366,0.0052667584,0.0949719034,-0.0210323851,0.4378906001,0.1307191871,-0.0280086488,-0.0202088765,-0.0263467525,-0.0406017591,-0.040525212,-0.0243365903,-0.0085369873,-0.012188149,-0.026336018,-0.0399177311,0.0369531207,-0.0531434541,-0.0258626587,-0.0249405472,-0.0255791511,-0.0272860068,-0.0262202879,-0.025344482,-0.0106068805,-0.0071600779,0.2488356926,-0.0081805662,0.0462619823,0.0367882192,-0.0232736334,0.0979938322,-0.3481327459,-1.5155965329,0.0415722078,-0.0192112033,0.4230548283,0.1298179623,-0.0100686757,-0.027177376,-0.0097878382,-0.0265971251,-0.0874179526,-0.0797562693,-0.0197595924,-0.0142692383,-0.020309297,0.0347083685,0.0323415033,-0.0264828944,-0.0261205942,-0.0259757164,0.0553096848,0.0867690061,-0.026805248,0.0773390797,0.0959100146,0.0087832109,0.0170111383,-0.0042495921,0.0427031746,-0.021346056,-0.0260742261,-0.002112916,-0.0325866937,-0.0062004968,-0.0176299756,0.3505275232,0.3271323709,-0.0207694603,0.0383607383,0.0370958865,-0.0112943965,-0.0496783895,-0.2180863385,-0.2542397656,-0.0122132374,-0.0052455206,-0.036736148,-0.0150433776,0.0630160844,-0.0270739372,-0.0263571798,-0.0257765414,-0.0256870599,-0.00808951,-0.0129417152,-0.0101848355,0.0095428797,0.0085544549,0.0252547767,0.106656185,-0.0187528044,-0.0163862141,-0.0190821414,-0.027481038,-0.0257114286,-0.0283378647,-0.019035506,0.0431679927,-0.0193151436,-0.0178013614,0.0314760217,-0.0205455409,0.0507655832,-0.0193763879,-0.0200983687,-0.6060840977,-0.0127778519,-0.0147289988,-0.0244068354,-0.0109935265,-0.0058711737,-0.0561800222,-0.0240157545,-0.025980868,0.0916243805,0.099573083,-0.026149759,-0.0519333434,0.1020225692,-0.0122141029,0.0130709263,0.1652149445,-0.0257916442,-0.0095087238,-0.019404257,-0.0211366305,-0.0255530476,-0.0282678275,-0.018315033,-0.0179077532,-0.011948361,0.069410212,-0.0091426204,-0.0183130479,-0.0191763303,-0.0281241465,-0.1333410247,-0.2377922217,-0.0153540332,-0.0080695864,-0.019942901,0.0331304954,0.0344867491,0.0352416162,-0.0260375611,0.0997486106,0.0995375837,0.098985709,-0.0117434343,-0.0338746896,-0.010320836,0.0089967371,2.8534386035,0.1273917215,0.0175819665,0.0933694482,0.010247491,0.0144853744,-0.0263278978,-0.0264949697,-0.0197349882,0.0955598192,-0.0089969716,-0.0133163893,0.4559912955,0.0095802964,0.0397817811,-0.0211457454,-0.097670463,-0.0225165821,-0.0143137659,0.0074563969,-0.0877693534,-0.0099691102,0.0371328073,0.0344932735,-0.0260167981,0.0882133716,-0.0591897359,0.1010985917,0.0860493426,0.0830771775,-0.0129834885,-0.0151694352,-0.0106991179,0.1154145291,1.1269065328,0.0402456042,-0.0225760627,-0.0392013583,-0.0389103484,-0.0200192653,-0.1003044082,0.3509978879,0.0918000246,0.0931718491,0.14885972,-0.01516707,-0.0277322893,-0.0277422974,-0.0916960512,-0.0298127606,-0.0167726461,-0.020975215,-0.0205053249,-0.0156648129,0.0594026318,0.0359409449,0.0864784508,0.086377974,0.0974423373,0.1000796527,0.1001221339,0.100372608,0.0995759161,-0.0127677837,0.0083443584,0.4997380694,-1.6261291289,2.9194938787,0.3215771012,0.088785621,0.0786517247,0.1634613602,0.1237544875,0.4544367282,-0.1083927199,0.1665541893,0.111451463,0.1356288385,-0.0275950694,-0.0498761428,0.0809706255,0.0953306639,-0.020265323,-0.0814973176,0.0761705612,-0.0132843371,0.0320275883,0.0357338668,0.1036121909,0.1008524862,0.1000456013,0.1024380992,0.1027027586,0.1210387145,-0.0107025951,-0.0147133048,0.0097173365,0.1010763314,0.5642093495,-0.0033590653,0.0061196784,-0.0019998045,-0.0040708492,0.1240740964,0.0148006618,0.4363401981,0.0594314814,0.147321865,0.1311036728,0.1297521423,-0.02081602,-0.0355640302,-0.031468638,-0.0131933543,-0.0309821265,-0.015385461,-0.0195038182,-0.0205303077,0.0080887464,0.0345757393,0.0998014442,0.0996042284,0.1003144307,0.106635939,0.1043480067,0.1011970902,-0.0820526152,-0.0136501793,-0.505928408,-0.0697336592,0.0033090914,-0.0155302262,-0.6010189748,-0.0174799442,-0.0014261975,-0.0066885227,0.1152199781,0.0478839957,-0.0748506118,0.0717108055,0.1273224484,0.1281193557,-0.0312648552,-0.0497714165,-0.0172768607,0.0994359019,-0.0166184021,-0.0118720244,-0.0247808375,0.0148266351,0.0362705772,0.0184559305,0.0861195156,0.0643883707,0.1005658477,0.1015968129,0.1013414544,0.0959389532,1.4339142237,-0.0200521858,-0.5502158102,0.0075258218,0.3836464761,4.0310279943,1.6144720548,0.1994695184,0.3478085785,0.0078558623,0.0552887829,0.0192512909,-0.0115351382,0.0800342422,-0.0024596979,-0.0014819299,-0.4903574992,-0.0164822111,-0.0133555378,0.087324878,-0.0083197384,-0.0137933077,0.0356100207,0.0911903975,0.0287321174,0.0309604796,0.0821009831,0.0059391891,0.0989177789,0.1019792441,0.1018566929,0.0991994044,-0.0149137091,-2.417686718,-0.0679400261,0.0072443085,0.3996019697,0.0083606517,-0.001799499,-0.0005857156,-0.0234069472,-0.016125426,-0.0208614996,-0.0700126215,-0.0370689887,-0.000854679,0.0151155967,0.0059752642,-0.0115302919,-0.1707894566,-0.057805786,-0.0141386301,-0.0153437082,-0.0123077668,-0.0400779276,-0.0252820636,-0.1008613653,-0.2202404002,0.0803586267,-0.2930186095,-0.0617205064,0.101118613,0.1011189046,0.1148182599,-0.0194670349,0.039521287,0.0084574854,-0.0003821487,0.1112467806,0.0367839753,1.0668410482,0.2938576366,0.1124904805,0.0672346433,0.0216988257,0.0890037693,0.1022274966,0.0902151644,0.3425806676,0.0893630543,0.0793941408,-0.5970170829,-0.0270638503,-0.0151742614,-0.0128118181,0.0195939322,0.0968417686,0.0751334394,-0.0708770087,0.0025891003,0.0845492063,0.0766533675,0.0962791492,0.0978309283,0.1059232305,0.9994028223,0.173446515,-0.0184602049,-0.025137524,0.0057678361,0.0094565157,0.0979024354,0.156431044,0.0672617119,0.0761704828,0.0425702761,0.0292064014,-0.0009065613,-0.2821925996,-0.0196604401,0.0320461784,-0.0041401638,-0.0034081669,-0.0038282453,-0.0126616696,-0.0133320911,-0.0145640175,-0.0129224468,0.0995752904,0.1281274998,-0.0538155717,-0.2195121991,-0.0069598943,0.0274236699,0.0921482355,0.0990986875,0.0981306263,-0.014518687,0.0525233051,-0.0074006081,-0.0106454428,-0.2291716648,-0.0399526904,0.0102768004,-0.1558266846,-0.1437593332,-0.026291963,-0.0229535491,-0.015664534,-0.0346732218,-0.2684060279,0.1917798348,0.1169343163,0.0963420966,-0.069544623,-0.5822249653,-0.0680697558,-0.0738315362,-0.0128881489,-0.009114528,-0.030325394,0.0803529704,-0.3108628311,-0.6521078298,0.0849397234,-0.0660835153,0.082933856,0.0985872555,0.0992125294,0.1782820254,0.5345458281,-0.0296803091,-0.0351971928,0.1519786096,0.3333898595,0.3388374731,1.3506977988,1.0816458056,0.7450491646,0.4282418368,-0.1575768702,0.2421474867,0.2039933784,-0.0235729396,0.2599379284,0.4534321295,-0.0591980223,0.0942350631,0.0951352339,-0.0125120636,-0.0091955427,-0.0133792814,-0.0249842074,0.080969052,-0.059368151,-0.2316072317,0.0862173459,-0.0292269143,0.0706038294,-0.0121696391,-0.0104597679,-0.0082315865,0.0584554431,-0.0524699079,-0.1124201421,-0.1253695586,-0.1482805652,-0.1098598264,-0.1154221414,0.1338274626,0.0077980341,0.0102147895,0.1529357816,0.102099117,0.1600405781,0.0062539435,0.0023108284,0.0216089727,0.0047383614,-0.220057909,-0.0166988063,-0.0105884081,0.0448653374,-0.0170195493,-0.0120230617,0.0793655655,-0.3411785729,-0.1982608721,0.0839695642,-0.0401570495,-0.1933787955,0.1031490361,0.1053596851,0.3621896583,0.1258508427,0.1171849167,1.1146772018,-0.0393324905,0.5069941489,-0.0192112202,-0.1929701583,-0.1774558987,0.0355078233,-0.011219862,-0.0103510695,0.020775792,-0.0095147118,0.195627592,0.1874916287,0.1014494727,0.1047531998,-0.0485156188,0.1007906989,-0.0106276369,0.0935510111,0.5451980198,0.1190599055,0.0788420815,-0.1734889462,-0.1770043397,-0.2957269485,-1.1231186617,-0.0960418578,0.0944183406,0.1031288848,-0.0133746369,-0.0129714754,-0.018244348,-0.0116934179,-0.3160218112,-0.0115363052,-0.016310379,-0.0129338248,-0.0395808113,-0.0126021016,-0.0152189219,-0.0132300599,-0.0135152186,-0.012758095,0.098713026,0.0951242146,0.095580317,0.0225951199,-0.0174311416,0.0985857926,0.0987813235,-0.0097983687,-0.0134068639,-0.30104819,0.0752150612,-0.1152939623,-0.7193091756,0.0650477026,0.0678957507,-0.0340402464,0.0976935462,0.0969144895,0.1022581612,0.1111624161,0.0904762063,0.0990203298,0.099129158,0.099235496,0.0989240536,-0.0484897441,0.0987749236,0.0671939072,0.0988447922,0.0925760534,-0.0535031277,0.092814198,0.0816359359,0.0957017462,0.0967318906,0.0904926752,0.08020714,0.0990297881,0.0885516704,-0.0105368342,-0.0090854161,-0.9656602961,0.4624469723,-0.0539171915,0.1464413034,-0.0185056843,0.0447886712,0.0448682476,0.0422715098,0.0448867308,0.0553960951,-0.0803391363,-0.0648599871,0.083904749,0.0860228294,-0.0194273174,0.0881528408,0.0860269315,-0.0031125103,0.0857375158,0.0923039051,0.0857286069,-0.0202149336,-0.0279837807,-0.0209419336,0.0850139038,-0.0172650203,0.0923165729,0.0923895498,-0.0029521847,-0.0203199021,-0.0097496609,-0.016291736,-0.0278665409,0.0219618146,-0.3861226451,-0.0166910052,0.0059996356,0.047195697,0.0499347378,0.0506721619,0.0493874037,0.0551135603,0.0551525759,0.054496199,0.0543953189,0.0551133785,0.055106228,0.0506649525,0.0890099174,0.050544151,0.0894536011,0.0897761357,0.050606671,0.0968927475,-0.0071932853,-0.0071459014,0.0064587678,0.0067391308,0.0062184062,0.0062383146,0.0971917484,0.006731004,0.0085894434,0.0092121646,0.0969519875,0.1591087654,0.3008614997,0.0706346474,0.0980399659,-0.0085038495,-0.0086766054,0.0071663529,0.0101081962,0.0100183815,0.012570387,-0.0099721219,0.015185202,0.0125694119,0.0151249855,-0.0061714578,0.0097931035,-0.0119674004,-0.0126749654,0.0058990794,-0.0148455621,-0.0148548097,-0.0119728653,0.014337914,-0.0129373409,-0.0115061153,0.0060427659,-0.0149144715,0.0058094523,0.0058030543,-0.0129277236,0.00498249,-0.0126842152,-0.0574719993,-0.0294051386,0.0704716477,-0.0372469985,-0.0130009679,-0.0086706525,0.004781693,-0.0149809429,0.0062675423,-0.0106348754,0.0046093126,-0.0148397419,0.0101469445,0.0038929054,-0.01480663,0.0098342861,-0.0089863731,-0.0142473913,-0.0089454521,-0.0148276006,-0.0128001269,-0.0148254144,0.0116637699,-0.0128993207,0.0037775077,-0.0089362369,0.0100266947,0.0060695935,-0.014747911,0.0100014362,-0.0089773213,-0.0089345413,-0.0084410426,-0.0218794935,0.0541241277,-0.8555352676,0.0057604673,0.0066312453,0.0037934797,0.0097951826,0.0097802709,0.0100971096,0.0097822256,0.0058073604,0.0099322229,0.005783523,0.010029817,0.0080017721,0.0114416211,0.0037593249,0.010010752,0.0060224026,0.009776424,0.0124547182,0.0098952853,0.0064015804,-0.014946284,0.005964487,0.0059692479,-0.0089682758,0.0060111185,0.0059862095,0.005773503,0.006659915,-0.0149684378,-0.0046398901,0.0538352113,-0.0331195083,0.005844596,-0.0029442882,0.0047036752,0.0058005888,0.0059694977,0.0080257543,0.0059498803,0.0059954879,0.0037912672,0.005827764,0.008007279,0.0059846876,0.0099945339,0.0097552275,0.0100844317,0.0098383289,0.0097918856,0.0098444966,0.0099942653,0.0098799684,0.0059266832,0.0057814157,0.0037837589,0.0058233985,0.0037906576,0.0037862735,0.0059008544,0.0080120405,0.004476089,-0.0125857329,0.0551572216,0.0052970209,0.0055678954,-0.0011525074,0.003797762,0.0062381759,0.0059650987,0.0060280096,0.0059789462,0.003791349,0.0057849892,0.0080127533,0.0062479692,0.0099058454,0.0133798261,0.0212447863,0.0963578536,0.0350271747,0.0206689073,0.0100358666,0.0098743335,0.0100422911,0.0090099633,0.0077359228,0.0057958041,0.0037823578,0.0037745113,0.0065505152,0.0035531339,0.0046770375,0.0046253272,-0.0126024577,0.0559412053,-0.1156714182,0.0058693663,-0.0029327413,0.0046766346,0.0097620777,0.0059904679,0.00998549,0.0097711992,0.0060506465,0.0100410727,0.0104044929,0.0104005924,0.0133721197,0.0140355865,0.0063522937,-0.0190120132,0.0243778098,0.018994299,0.019941727,0.0104697024,0.0103585959,0.0100702778,0.0059297538,0.0057682975,0.0077337228,0.0061805203,0.003793349,0.006339739,0.0058875227,-0.0149484896,-0.01254882,0.0534198071,-0.0113609857,0.0058219496,-0.0009494417,0.00359077,0.0059824646,0.0059395826,0.0038005021,0.0060842895,0.0078930182,0.0063705393,0.0059152643,0.0087064163,0.0144808667,0.0187171943,0.3867363247,0.6787364707,0.1094192512,0.0175446654,0.0190781841,0.0062185592,0.0101025505,0.0116765933,0.0059231055,0.0096649981,0.0057911029,0.0037799856,0.0060925555,0.0037911012,0.0038003001,0.0054159007,-0.0125977664,0.0532586681,-0.0079270517,0.005594639,0.0043709585,-0.0011028894,0.0043044809,0.0046236495,0.0065759111,0.0088286008,0.0058776882,0.0075127503,0.0045751938,0.0062161229,0.0128979368,0.0200541599,-0.1534189228,0.3525479056,0.4660911169,0.2216831459,0.0255495359,0.0062066864,0.0063735765,0.0056658151,0.0058741857,0.0062582427,0.006057008,0.0063621993,0.005968888,0.0041542233,0.0039919308,-0.0148816145,-0.0129421497,0.053816093,-0.0337877447,0.0063748158,-0.0030006366,0.0051998361,0.0037880644,0.0064867087,0.010077159,0.0100653125,0.0059600569,0.0120202013,0.0062625657,0.0101856771,0.0189446421,0.0199437957,0.4210761543,0.2043351686,-0.1821230395,0.1730468195,0.0915618476,0.0099837962,0.0172421196,0.0059437136,0.0089573337,0.0054593797,0.0060613788,0.0060722416,0.003791349,0.0061687332,0.003563189,0.0054427321,-0.0129570452,0.0529089795,-0.0280670702,0.0055821202,-0.0013055402,0.0038233988,0.0065875012,0.0046320568,0.0066684247,0.0104998418,0.0099167624,0.0057702343,0.0106503731,0.0168406215,0.0225432331,0.0013566688,-2.73954248,0.4045071357,0.121694772,-0.0191294623,0.0215801923,1.1420682643,0.0064498105,0.00994822,0.0117409126,0.0064433555,0.0061132709,0.0059655308,0.003819376,0.003795564,0.0063325474,-0.0129269449,-0.0129503612,0.0539197585,0.0004070459,0.005656766,0.003829719,0.0062155177,0.0058256857,0.0062092215,0.0069941509,0.0063594069,0.0106312924,0.0097579268,0.0098739998,0.0205237797,0.1047345343,-0.0319219815,0.4227951966,0.3761849578,-0.534204651,-0.1954741633,-0.649813498,-0.2139896771,-0.0019452472,0.0097304318,0.0101344003,0.0101325395,0.0062315498,0.0059215653,0.0060089537,0.0038001259,0.0057674111,0.0060642586,-0.0129522881,0.0533992412,-0.0155177751,0.0059731244,-0.0011686757,0.005793185,0.0038188086,0.0167625582,0.0083875036,0.0061566402,0.0101637285,0.010071267,0.0099283861,0.037458728,0.1247445037,-0.1564213655,-0.8060151408,1.0556567758,-1.9434962253,0.3078789103,-0.1935709364,-0.1960343265,-0.0010510785,-0.001452194,0.0101538345,0.0101241356,0.005706142,0.0059013153,0.0046923544,0.0038040735,0.0058522307,0.0048279578,-0.0149582973,0.0546765902,0.0055376457,0.005586831,0.0035693037,0.0045796562,0.0058223648,0.0094697855,0.0087647925,0.0047424339,0.0101723637,0.0104347833,0.0051133345,0.3494966082,-0.4093380262,-0.5049393395,-0.2318466041,0.959579183,-3.4294600602,-1.3880354358,0.1652058197,-0.1969535396,-0.001113685,0.0061854622,0.0078216829,0.0098681631,0.0057866554,0.0065760683,0.006143961,0.0035624239,0.0042106796,0.0046959913,-0.0129732681,0.0541986881,0.0076658657,0.0060037304,0.0041845313,0.0045294368,0.0058143214,0.0084610851,0.0125958252,0.0060699111,-0.0125409643,0.0746406929,0.0026171742,-0.0977170805,-0.2143359603,-0.4606375747,-0.1087875111,-0.2913281938,-1.1326079473,-0.5626064547,-0.2043264013,0.0216993691,-0.1947627873,0.0114570369,0.0030780987,0.0096717315,0.005778587,0.0076645947,0.0062322623,0.0058370285,0.0059857283,0.0060754228,-0.0149566097,0.0570112673,-0.2237143765,0.0057686187,0.004445695,0.0040247673,0.0063894801,0.0063254694,0.0072907074,0.2765259383,0.1050319149,0.8861266118,0.0099050221,0.1338110603,-0.243470349,-0.6331065683,-4.3218311613,-1.8373584613,-7.5145632801,-0.5444388409,0.4202295004,-0.2375589859,-0.1806205793,-0.0271056312,-0.0044328166,0.0091945291,0.0059042444,0.0061141644,0.0061573424,0.0059712332,0.0058859388,-0.0147879294,-0.0129455336,0.0553958246,0.0990259129,0.0063523268,0.0036740337,0.0075331256,0.0059865162,-0.0088047469,-0.0123224552,0.0105312277,-0.0125287995,0.1001909883,0.0528188892,0.4874544243,-0.4913769441,0.1417305809,-0.0115033864,-1.9114825004,-1.6545361774,-2.6517514422,-0.5475318626,-0.1799345869,-0.5037596344,-0.0313776621,-0.0212937787,-0.0090411016,-0.0123683548,0.0099633034,0.0059546507,0.0098446546,0.0099394715,0.004741733,-0.0129472342,0.0548757961,0.0992145429,0.0057481153,0.0044113425,0.0038313474,0.0101421719,-0.0124420232,-0.008930103,0.6521155433,0.0695659714,0.0026546644,-0.0137573644,-0.1441473938,2.1938381359,-3.1835139954,-0.9153196807,-1.3137790492,-8.0280016833,-4.5737827582,-0.0155792279,-0.1351330315,-0.5406809658,-0.0313101283,-0.0298212969,-0.0095568285,-0.0127368695,0.0100296722,0.0100488122,0.0038043459,-0.0017822032,-0.0147607328,-0.0129515564,0.0548243841,0.0991558224,0.0055154592,0.003797762,0.0041322541,0.0101179621,-0.0086592739,-0.0086791909,-0.0129820977,0.0514513346,0.0412877068,-0.0108265339,-0.5779015849,0.0093475526,0.042785397,0.0694757748,0.3308890591,-0.2164374197,-0.2188934164,-0.2815482431,-1.5394886947,-0.1366914326,-0.3078168773,-0.0513419353,-0.0134883613,-0.0128002316,0.0098533175,0.0039524576,0.0060137153,-0.0039132683,0.0048217438,-0.0129575715,0.0551374998,0.109658159,0.0059149268,-0.0004172419,0.0064434115,0.0059527152,-0.0080520696,-0.0089570811,-0.0129822159,-0.012986941,-0.0197361734,-0.0126017398,0.0147734366,0.0291416947,0.000845022,-0.4366758588,-1.0560930429,-1.608728505,-0.9321983685,-0.4686590346,-1.1946089653,-0.306958251,-0.0141853092,-0.0151231827,-0.0092980129,-0.0130951247,-0.0130233547,0.0064872734,0.0057851545,0.005763035,-0.0140607365,-0.0129529612,0.0548605276,0.1085176268,0.0055979342,0.004651024,0.0036319766,0.0109201656,-0.0089565882,-0.0087989103,-0.0088482542,-0.0207865533,-0.1224287875,-0.0122432716,-0.0283810821,-0.037876148,0.06367789,-0.1847968838,0.2032965304,-0.147890274,-2.6384504138,-0.8667706506,0.1746588348,-0.3233773645,0.0024542986,-0.010109618,-0.0133858618,-0.0130014409,0.0190258959,0.0057629256,0.0060498314,0.0059543962,-0.0147850631,-0.0129561292,0.057753365,0.1076928808,0.0053946542,0.0044436072,0.0045176987,0.0058886861,-0.0085345418,-0.0086365525,-0.0088140687,-0.006288085,-0.0634551432,-0.0401173816,-0.1427961027,0.0008262669,0.0043445716,1.9333324513,-0.189948849,-0.5668374003,2.3021603155,0.0302853004,-1.0490669797,-0.2557172606,-0.0131068953,-0.004305436,-0.0125341883,-0.0096396395,0.0088380483,0.0061961968,0.0059398703,0.0042150457,0.0048129656,-0.013120139,0.054728521,0.0849233239,0.0053008722,0.0054299365,0.0038847209,0.0059794571,0.0099962049,-0.0086872819,-0.0086826304,0.0007706287,-0.0039157906,-0.0546576871,-0.020650872,0.0123082203,-0.2022361874,-0.1923464837,-0.2722502879,-0.0760577373,0.5912616863,-0.3996370889,1.8193321006,-1.3925362961,-0.2778423571,-0.0412915651,-0.0088121396,0.0097113732,0.0047676075,0.0059312664,0.0058503733,0.004348049,-0.0148139998,-0.0129561292,0.0547177303,0.0984114127,0.0057922668,0.0038002875,0.0049578338,0.0087038096,0.0106680138,0.0095309751,0.010294984,0.0189841244,-0.0123020615,-0.3853062718,0.0616450809,-0.1273417052,-0.3862200596,-1.966873257,-1.3462603366,-3.3526065272,-0.8479675347,-3.226326813,-3.5756139227,-3.1336380458,-2.8003863234,-0.0155995218,0.0102122631,0.0085599988,0.0095143818,0.005865007,0.004127167,-0.0031628777,0.0046444632,-0.0128483028,0.0579037903,0.1108076551,0.0057352759,0.0044870588,0.0059185291,0.0132256344,0.0062745455,0.2406941105,0.0556740022,0.0157982208,0.0029281235,0.0035063109,-0.1080547831,-0.1916794968,-0.4833316279,-1.2196208873,-0.7098852796,-0.2678432539,-1.4161529371,-1.84936643,-5.0185379155,-1.2520958715,0.0422065761,0.0103244721,0.0011036324,0.0085881962,0.0080408848,0.0056324191,0.0037436986,0.0043516166,0.0050785318,-0.0129595691,0.0548274626,0.0979462667,0.0057747054,0.0044892313,0.0039700479,0.0061087992,0.0102398235,0.0568712654,0.1362930644,0.0000606772,-0.0020037796,0.0029806838,-0.1459834733,-1.2103575434,-1.175668827,-0.266417262,-0.6842785709,-0.5857842095,-0.3792199924,-0.2287895782,1.593610163,-0.1037258898,0.032945354,-0.0039899035,0.0043296197,0.0079872561,-0.0789276963,0.0056963098,0.0059614799,0.0059116544,0.0040320749,-0.0333984153,0.0537842641,0.1116353848,0.0053204176,0.0037675673,0.0043657553,0.0064620399,0.0101708492,0.2349562009,0.0719141122,1.6294798949,0.0379841981,0.9762186289,0.0126516641,0.0048143921,0.0031917101,-0.004364188,-0.0037657485,-0.0096612187,-0.0176780991,0.0228130617,0.0606832516,0.0810823412,0.1536288941,0.0118948081,0.0055304853,-0.0097778858,0.0037037675,0.0054965721,0.0103426739,0.0045109445,0.0171353975,-0.0129561292,0.0547199261,0.1094606698,0.0051806201,0.0036865492,0.0045904287,0.0060997058,0.0119227386,0.0564236608,0.0644983797,0.0565872986,0.0107378871,-0.0113363516,-0.0104748924,-0.0118301369,0.0050457678,-0.0125458626,-0.0146202652,-0.0410436403,-0.0162453654,-0.0217333816,-0.0186054019,-0.0163934565,-0.0104795373,0.0080700067,-0.0292335297,0.0028559638,0.0062133231,0.0153578146,0.011595872,0.0011930099,0.0048320518,-0.0127804253,0.0522464756,0.1102428573,0.0081919282,0.0054731897,0.0048387201,0.0371514107,0.083308492,0.0218253329,0.0215769529,0.0210739741,0.0857349386,-0.008495721,0.0123292096,-0.0062321395,-0.0028653947,-0.0056346042,-0.0073146231,-0.0095663318,0.3079091634,-0.0076044901,-0.0095565966,0.0114511361,0.0090398086,0.0097535044,0.0088249273,0.0094196811,0.0111370322,0.0200155617,0.0213309849,0.0220766634,-0.0006183743,-0.0090878334,0.0542352417,0.0106548768,0.1404841222,0.004858186,-0.0126993619,0.0191096081,0.0483591595,0.0886682707,0.0901098493,0.0209249414,0.0027740014,-0.0000642331,-0.0140364244,-0.0117297465,-0.0130173456,-0.0130651544,-0.0129100874,-0.0180689219
   -0.016546992,-0.0141534384,-0.0125650082,-0.0166815443,0.0059111434,0.0019254015,0.0023931291,0.0065249874,0.0040048698,0.0196903419,0.0155427559,-0.0756318701,0.0075381893,0.1349686238,0.0375710198,0.0855469459,-0.0022736871,-0.0037064055,-0.0037965973,0.0154678759,0.0753148344,0.0036029749,-0.0439027852,0.008827628,0.0242070644,-0.0164416048,0.0288592381,-0.0035759998,-0.0096688458,0.0108517753,-0.0194815126,0.0489319745,-0.0169044163,-0.0446460826,0.007453717,0.0054334108,0.0190513956,0.0273838602,0.019038083,0.0252671614,0.0250852569,0.0126510848,-0.0438421119,-0.1742622324,0.0226224781,0.1384015993,0.9845976897,-0.0204178936,0.0006632913,-0.0549776278,-0.005622202,-0.0064215784,-0.0012809701,-0.0063186935,0.0011123035,0.0027640922,0.0258658881,0.0062287147,0.0062495795,-0.0146101902,-0.0113975939,-0.0255799939,-0.0286723306,-0.0426098828,-0.028694692,0.0038312888,-0.0016005588,0.0009154336,0.0153935055,0.0012429995,-0.0176174749,0.0013054525,0.0057457777,0.0009348477,0.0021292774,0.0024911126,0.0010071095,-0.0095514865,-0.4889082104,2.289067374,-0.0592243984,0.1561375653,0.1261898728,-0.0410456065,0.1961074832,-0.0211661395,0.0024565344,-0.0197447246,-0.0033989155,0.2478227902,-0.0311005199,0.1414370142,0.1637753409,0.214793069,0.1624421368,0.060535551,0.0632927118,0.018611027,0.0316043241,0.0307695561,0.0307695561,0.0307695561,0.0313346864,0.0307725421,0.0102894016,-0.02150715,-0.0533886638,-0.0340134043,-0.0443415916,0.0005537979,-0.0071355625,-0.126963668,0.0178381747,-0.0023257548,0.0260378827,-0.00270302,-0.0025407999,0.0048196374,0.0074377825,0.0070184998,0.0085005948,0.0011003824,0.0354442033,0.0870487203,0.0013732186,0.0149436478,0.0366898271,0.0225571398,0.0517267898,0.0417692117,0.0052003772,-0.0267495466,0.0213398246,0.0264239662,0.0206459992,0.0281992698,0.0071379863,-0.0062833349,-0.0103587475,-0.0059548654,-0.0223931175,0.0213017132,0.0343599613,0.0520007776,0.1139072524,0.0184524957,-0.0504310987,-0.0311753218,-0.0386652057,-0.0246671893,0.0099186197,-0.0430994601,0.0059886077,-0.0453515603,-0.0445936676,0.0002552707,-0.0253851746,0.0104784094,0.0081359521,0.0099652367,-0.0389442707,0.0111093019,-0.009488674,0.0100062029,0.0053623741,-0.0386981512,0.0051620419,-0.0251854455,-0.0027529401,0.0107766337,-0.0211584801,0.0171154391,-0.0031894736,-0.0026462418,-0.031481433,0.0970030593,0.0999357357,-0.0146494456,-0.0278616401,-0.0305269421,-0.0210591111,0.0061482974,-0.0459285022,0.0029013962,0.0033154327,0.0072308728,0.0049828562,0.0067474448,-0.0310170961,-0.0158113491,-0.0642239334,0.0043900914,0.0055344361,0.0036858232,0.0081973133,0.0003478535,0.0051784103,0.007472134,0.0077270846,-0.0240422927,0.0025799191,0.0047706353,0.0089519449,0.0048868277,-0.0021560965,-0.0017881295,0.0996085505,0.0980807797,-0.0993335772,-0.0583135309,-0.0273542049,-0.0277483238,0.0035696601,-0.0388733534,0.0039652224,-0.051318582,0.0083859595,0.0078334112,0.0069682693,0.0055043811,-0.0029662615,-0.1976582553,-0.193568667,-0.5805901251,-0.1367626875,-0.4354105484,-0.2688484629,-0.0471049349,0.007406988,0.0072821772,0.0074286139,0.0069252408,0.0082043564,0.0059577822,0.0180884095,0.0085122879,-0.0109393845,0.0025702715,-0.0314928075,0.0985964917,0.1014164585,-0.0283949454,-0.0520233179,0.0084678751,0.2626535107,0.0106484396,-0.0024004134,0.1440454436,0.0033089494,0.0037498608,0.0052434075,0.0012980314,-0.0130958301,-0.0007978052,-0.0522080913,-0.2094499002,-0.0863834622,-1.0728553125,-0.1044580657,0.0015334395,0.0075783819,0.0043096763,0.0037386234,0.0047575001,0.0007973581,0.0051132321,0.0055793373,0.0490168612,0.5837171825,0.1301603258,-0.2254434008,0.052119475,0.0491856622,-0.0411495901,0.0991323875,-0.0395512627,0.0056202032,-0.0478110261,0.0039829371,-0.0114357159,-0.0967487717,0.0094806391,-0.0343673699,0.0435681386,0.1391531753,-0.2083051015,-0.0853510861,-0.3547783845,-0.0060585044,-0.0258566777,-0.01758778,0.0107372267,-0.086244109,-0.0680604312,0.0106811531,0.0076502715,-0.0169639704,-0.0205970883,0.0049196558,0.0057179159,-0.0402845134,0.1463936715,-0.2266135096,0.101081913,0.0618876779,0.0913059144,-0.0470118689,0.0993190325,0.0029985548,0.0052131558,0.1447730229,0.0040707292,0.0029679529,0.028056757,-0.0006759633,-0.0245065723,-0.1070220323,-0.0442614909,-0.0455400802,0.0179669457,-0.1692595675,0.0178442672,-0.0239018823,-0.0246728541,-0.0272166397,-0.0034737084,0.0068026412,-0.0473811656,0.0072934211,0.0036635527,0.0109700827,0.0108114702,0.0947789487,0.1470485407,-0.208341593,0.0525154372,0.1697550264,-0.0407369827,-0.046738325,0.0996628665,0.0987417357,0.0966059329,0.0770563161,0.131635447,-0.039370431,0.0118522821,0.0240074421,0.0794654959,0.1693690094,0.002220459,0.0150380641,-0.0108299031,0.0959582515,-0.0293824105,-0.0016957688,0.0070562958,0.0009506462,-0.1279530461,0.0087768341,-0.0260310343,0.0035146142,0.0078190677,0.0063058334,0.0079302979,0.0058642522,0.1466347983,-0.0751823986,0.0523859387,0.0521766515,-0.0296984792,0.0749357351,0.0752856742,0.1469460311,0.0734235195,0.1550726497,0.0777459022,0.0102224371,0.2019478295,0.0178046782,-0.0400107008,0.291358293,0.0676672315,0.0008156559,0.7962251418,0.4828703278,0.1026133194,0.3458774891,0.091058825,-0.1048166618,-0.0195681563,-0.0384674097,-0.0270173979,0.0100825055,-0.025354262,0.006136745,-0.014118342,-0.0259623965,0.1262002768,-0.1145625245,0.100781465,0.0218608098,0.0902605887,0.0992353813,0.0990918865,0.147838847,0.145914275,-0.0268455571,0.077250931,0.0136041369,0.2650661845,1.126630907,-0.0357739238,0.04606485,0.0031231811,0.0036556886,0.0802780838,0.0068417994,0.0445841871,0.0919816483,0.6268171726,0.0109237129,0.0061204266,-0.0270410642,-0.0248653784,-0.0409465328,0.0099513222,0.0997312302,0.0102002871,0.0137153013,-0.0462519933,-0.1178232779,0.0507645673,0.3691780361,0.0691868442,0.0985343837,0.0446409937,0.1012972192,-0.0454968009,-0.0884949127,-0.0492618619,0.0117647324,-0.0446584721,-0.0419408474,0.1298961845,0.0063136778,0.0387335081,0.0036891037,1.256322546,0.0144308986,0.0142477809,0.0034670332,0.0132632344,-0.2346236983,0.000583211,-0.0463298782,-0.0711891743,-0.0254203835,0.0523987158,-0.0232176434,0.0983592734,0.1474810647,0.124825399,0.0104352755,0.0983405136,0.0522077315,0.0985982176,0.0795551127,0.0087355886,0.0782218925,-0.0262086484,0.0034694221,-0.0051211785,0.0035406139,-0.0461591897,0.0921484583,0.0750834985,0.0025397638,0.0035842646,0.023133002,0.096937747,0.1380790144,0.1969583082,0.0018349012,0.0477533069,0.0447714918,0.0002341776,0.0038249716,-0.0134962801,0.0352423842,-0.0244152333,0.0499629379,0.0983938064,0.0506543042,-0.0013106879,-0.1144244525,0.0510108815,0.3685478961,0.1020061391,0.0825947682,0.0787391351,0.0782823397,0.0772392016,0.0984923304,0.096789778,-0.0210476452,-0.0482687404,-0.0028760719,0.0414631472,-0.0670424455,0.0008106069,-0.1540573813,-0.010865642,0.1307535139,0.0011638297,0.0005219067,0.0717173117,0.130226209,-0.0590537988,0.4242325143,-0.0423700488,-0.0196329131,0.3642190399,-0.0246899321,0.0502054049,-0.0002880251,0.0805722971,0.010513858,0.1049647728,0.3693529392,0.0553826305,0.0785541068,0.048618239,0.0036942247,0.0743593363,-0.0459304958,-0.0015050398,0.0860733712,0.001102631,-0.0375351584,-0.0212517633,-0.0295294902,-0.0901747195,0.0009349414,0.1268195546,0.1389426788,0.0038469353,0.00135032,-0.0316797933,0.0719112617,-0.0639745619,-0.0022666409,0.068973144,-0.0249383848,0.0802738789,-0.0247616648,-0.0248957746,0.0051636182,0.1060486884,-0.1144266525,0.0508805705,0.1891158154,0.0854816779,0.0789411456,0.0354139008,0.0617937252,-0.0520823177,0.0785463238,0.1098731212,0.0014172703,0.0040744165,-0.0017923303,-0.0139078732,-0.0041842724,0.0001341342,0.1621102561,0.1346341181,0.1569635175,0.0044711651,-0.0238080976,-0.2953100376,0.0920864512,0.1297512021,0.1276823476,-0.1710195605,-0.0461969735,-0.1792596491,0.3178114166,-0.0461122431,0.0277396512,0.1257370209,-0.1145498748,0.0507893865,0.3115967845,0.0839858637,0.082564994,0.0509139108,0.0148099151,-0.0471232837,0.0947540704,-0.0479072552,0.0104259918,0.0850227607,-0.0012106022,-0.4632306499,-0.2630135346,-0.0167708145,-0.0084728979,0.0033247695,0.0853395374,-0.4114884223,0.0029136493,-0.1848245922,0.0978156064,0.0856524801,0.1223334864,0.0015593501,-0.0248112851,-0.0337042676,0.3641082678,0.0800808452,-0.0454241787,0.0803936783,0.0104649923,0.0783591665,0.1883923229,0.0994916385,0.0829639465,0.0633991447,0.0759346366,0.0684290349,0.1030922749,0.123970497,-0.0142290408,-0.0418502876,-0.0686956743,-0.001025382,-0.3563614491,0.0001231191,0.0016623275,0.0747034564,0.1357439824,-0.4894346616,0.1023896792,0.0611291353,0.2150783547,0.5740161674,0.3029038945,0.0319722199,0.0992853355,-0.0249975973,0.0797105869,0.0295055832,0.0290344249,0.3022808804,-0.1153307949,-0.0100467976,0.1933710116,0.0839655016,0.0948361494,0.0827519729,0.0794642318,0.0753656253,-0.0927697139,-0.1149032175,-0.0456165883,-0.0939842399,-0.1118224856,0.0052973452,-0.0163643921,0.0019813084,-0.0165138932,0.1276381713,-0.0087529535,-0.3017727475,0.1004020112,-0.5004759028,0.106071336,0.3176688403,0.3203844019,0.035215702,0.0177165441,0.0733846067,0.0804658473,0.3084365978,0.0549147101,0.3027380822,0.0104923509,0.0982691722,0.3195894232,0.1009178045,0.0790534204,-0.0441666636,0.0796721444,0.0742948273,0.1380920343,0.0642018784,-0.0568085135,-0.0446028558,-0.0034001129,-0.025828203,-0.3651805277,-0.0201681247,-0.0274682161,-0.0010664263,-0.0180597834,0.0977598856,0.1390870929,0.068682636,0.1297066389,0.0844117246,0.0845421358,0.0521636471,0.0473443994,0.0782952658,0.0801322173,-0.0445655803,0.0284414525,0.069318397,-0.1175459571,-0.0115322242,0.1658344019,0.075870825,0.0785048028,0.0784349986,0.0856404145,0.0801854931,0.0764324338,-0.1166939899,-0.0933087926,0.0324307275,0.0555951439,0.0067170614,-0.0574474902,-0.0232102082,-0.0218129313,-0.0211681836,0.0846658624,-0.0103765875,0.0852213194,0.5138589836,0.1414144538,0.0795916436,0.3210290802,0.0523251289,0.0492772816,0.0184772218,0.3083797376,0.0309946394,0.0203331498,0.3027890644,0.0105013193,-0.0115776669,0.2281308747,0.0373507608,0.0809278476,-0.0252699588,0.3179192331,0.0854058109,0.0754481257,-0.4403854003,-0.119574935,-0.0339095508,-0.0441415871,-0.1636678645,-0.0824624503,-0.0539579975,0.0364342449,0.0543892577,0.027699233,0.0285233542,-0.0437293259,-0.0292355415,0.2331648569,-0.041048369,-0.0458539074,-0.0426339203,0.0333364774,0.0281923585,0.3081362676,0.3075095963,-0.0491519915,0.2898068154,0.0104938497,0.0781380115,-0.0788620879,0.0847522237,0.0780916647,0.0790631844,0.0850701472,0.079775168,0.0853716996,-0.0209341234,-0.5328403225,0.0042202411,-0.0008046848,-0.0208145246,-0.0021185716,0.0040554911,0.0054534718,0.0631377369,-0.0270209329,0.0065404522,0.0180112651,-0.0007964054,0.0052201685,0.0550564004,0.0288566804,-0.2201103085,0.0206502904,0.0285853097,0.0299315864,0.0292470266,0.0434602906,0.2761121845,0.0105028793,-0.0116568301,0.0270427571,0.3203522543,-0.0206253338,-0.0237322172,0.0783869074,0.0853887591,0.0770693998,0.0841230001,-0.0506266271,0.7368943845,0.2138008008,0.0850317348,0.0465311582,0.0372089867,0.0067766241,0.3218268936,0.2439526381,0.257026695,0.6685558739,0.685661857,0.303157273,1.0374533614,-0.7606759803,0.3164903439,0.0322110763,0.0315474057,0.0490036302,0.0245154819,0.0219143446,0.2898827306,0.0105047706,-0.0121483846,0.0317988122,-0.0103486666,0.0806722736,-0.0760602112,0.0795701497,0.0818178633,-0.0423981495,-0.0071678442,-0.1041853372,0.0263932638,0.1063896207,0.9339749847,0.0457211396,0.0376952759,0.1745025667,0.0786352737,0.1535864535,0.1266976595,0.1018730711,0.124678467,0.0895299455,4.1532147368,-0.0292702424,0.0028133319,-0.0558508783,0.0340313179,0.0330589073,-0.0506201498,0.0307057234,0.0739030579,0.0104986793,-0.0114688693,0.0337582753,0.1012111509,0.0989227059,0.0761673861,0.0783615879,0.0800698682,-0.0419041835,-0.0362614783,0.0185375895,0.0284597857,0.0481148671,0.9860382122,0.0469219267,0.7239975912,0.0448167984,0.0365865359,0.0458169805,0.0241837813,0.5220661847,0.2175899959,1.5786981485,0.0782638506,-0.5387006995,-0.4803615591,-0.3410360857,0.3067563721,0.0347888996,0.0299767767,-0.0556882128,0.2898602806,0.0199607154,-0.0115112305,0.0262796618,-0.0103881478,-0.026922594,-0.0269169712,0.0681197482,0.0854664373,0.0738881503,0.0059992944,-0.0800558111,0.0116044584,0.3180655151,0.5686439922,-0.2206584883,0.2609020007,0.8747308584,0.7336523031,0.7247160952,0.1127531993,0.7142483726,0.1255525007,0.2203205888,-0.0124809215,0.080883782,-0.7398980098,0.3097028333,0.0482074525,0.0016447981,-0.044901457,0.0262922349,-0.1967316476,0.0199574418,-0.0114676609,0.1850587029,0.0828256712,0.0769508805,-0.012937104,0.0865385589,4.7559533841,-0.0342724172,-0.203233554,-0.0149458719,-0.0044622143,0.4559080906,-0.0364276316,-0.0035722105,-0.0325846717,-0.0533371263,-0.0035275283,-0.0333799767,-0.0142992018,-0.0139578952,-0.0636590828,-0.0733566592,-0.2559742359,-0.1804349342,-0.1544767441,-0.0151358554,0.0097552055,-0.8180639019,0.0299580622,0.0285947361,0.0680368142,0.0199563154,0.1869539512,0.0285336374,0.3190198607,-0.0206369405,0.0853512123,0.083837959,0.0985468396,0.2273498862,0.0800463406,-0.2231709046,-0.2059134099,-0.2339164462,-0.2202309622,-0.1702798191,-0.0402127601,-0.1173946444,-0.0446416249,3.1519030214,-0.0446024626,0.4394215768,-0.0125312776,-0.4109946716,-0.3212804287,-0.3832177493,-0.3842739675,0.302581457,0.3046403077,0.0189065079,0.0344401976,0.306262049,0.0103046952,0.0217555348,-0.011989464,0.0501668731,0.0085510983,0.0040131273,-0.258495973,0.0881024157,0.0851368936,0.0843899259,-0.041215321,-0.0001981171,0.0852840434,-0.0399586846,0.0804126513,-0.147074789,-0.1466475462,-0.1479500491,-0.1857612408,-0.0433357937,-0.1477334372,-0.1146665781,-0.0446843721,-0.0228214935,-0.0232614681,-0.0228622624,-0.0221075668,-0.022677698,0.0804195897,0.3072801206,0.0302328317,-0.1856563797,-0.342457062,0.0199543154,-0.0139485827,-0.1594780994,0.0293590773,-0.0827082695,-0.0596859338,-0.0130254948,-0.0573136151,-0.0104020603,-0.0102505289,-0.0099899625,-0.0250289366,-0.0104489366,-0.0100860947,-0.0246244253,-0.0237925812,-0.0100444253,0.0515825645,-0.0099287573,-0.024397377,-0.0091523367,-0.0244365516,-0.0229867203,-0.0244305684,-0.0240986838,-0.0236655539,0.0103139741,-0.0387009433,0.0114697072,-0.0379766641,-0.1475448897,-0.099202118,-0.0991793298,0.0498458892,0.0108343146,0.0689024599,0.0634015498,0.0634125677,0.0630424997,0.0700367161,0.0649576498,0.0646624039,0.0649808603,0.0649843044,0.0649778294,0.0649778294,0.0649778294,0.0649800294,-0.0606527196,0.0651134295,0.0651107919,0.0649778294,0.0649800294,0.0643623988,0.0649651788,0.0649663248,0.0650864123,0.0649651788,0.0643237548,-0.0627090981,0.0642179749,-0.0602440783,0.0654137074,-0.1163882781,0.8622469697,-0.0122963711,-0.0177711576,-0.0249774412,-0.0284026717,-0.0140666196,-0.2545729322,-0.2954216229,-0.0402666111,-0.0448442774,-0.0369907312,-0.0223065399,-0.0167214774,0.031858066,-0.0039754455,-0.0039671527,-0.0166815399,-0.0039649527,-0.0320899527,-0.0039671527,-0.0161946967,-0.0272374274,0.0060245156,0.0257316014,0.0059853683,0.0027025368,0.0067059902,-0.0306118202,0.0027025368,0.0235892266,0.0168557905,0.0672937495,0.0804613961,0.1124829326,-0.0072115466,-0.0600351987,0.3135503944,0.3357354307,0.3304903661,0.1492937051,0.0143853721,0.0110428297,0.0130553347,0.235045914,0.0223466383,0.0183603323,0.0338531486,0.0355125704,0.0120114526,0.0196036219,0.0286213309,0.0150845102,0.0071098583,0.0071137039,0.0074102288,0.0302182838,0.0227016406,0.0230564085,0.023686779,0.0265139496,0.0181637316,0.0207870113,0.0067497745,0.0935370432,0.0756305839,0.0854899229,-0.065094496,-0.1617808262,0.0011742883,0.1334135845,0.4783387554,0.0562391043,0.1787978777,0.0497509971,0.2705577174,0.0486844645,0.6078518097,0.6086931577,0.2290040268,0.0910045683,0.2251547414,0.2166065792,0.4965052354,0.1048444571,0.1924769507,0.0162227738,0.0528739165,0.0083339616,0.0970662148,0.1478585681,0.0342792961,0.0404267581,0.0316835761,0.0094240652,0.0556820173,0.0263214471,0.0222051946,0.000065722,0.0381994179,-0.0179097086,-0.0184335112,-0.0058520223,-0.0245910872,-0.020441564,0.0280196972,0.0094713786,0.007957594,0.0155634474,0.0063418413,0.0145839742,0.0086310679,-0.0246807726,0.0065345874,0.0063359033,-0.0232086868,0.0159475243,0.0066671779,0.0066162679,0.0068197967,0.0071946615,0.0065688435,0.0342266011,0.008780567,0.0077857372,-0.0182974932,0.0067788098,0.0064258617,-0.0193300859,0.0080653353,0.1319243404,0.0390141817,-0.0693175565,-0.0231889987,-0.0054939102,-0.0086107319,-0.020568374,-0.0228121597,0.0062651986,0.007295507,0.0059523625,0.0058535726,0.0061436725,0.0041148895,0.0070832735,0.0089827827,-0.0015975967,-0.0245058661,0.0054761586,0.0129860187,0.0067122834,0.0064926227,0.0063975432,0.0068153544,0.0068566151,0.0073516446,-0.0246223196,0.0066398438,0.0302489664,0.0061084211,0.0105087134,0.0088275038,0.0026629408,0.038065865,0.0877407988,-0.0293360926,-0.0056270952,0.0128841429,-0.0177001585,0.0034833534,0.0075431423,0.1485485196,0.0050234778,0.0059532527,0.0032012086,0.0047922455,0.0061250922,0.0560691091,0.0092580943,0.0088365864,0.0070346877,0.0100058732,0.0188999853,0.0206940127,0.3540272349,0.0092908049,0.016939075,0.0068883673,0.0090353114,0.0076408294,0.0064773366,-0.0002411388,0.0066864567,0.0090260112,0.0018954595,-0.0495207082,-0.0029571626,-0.0197131427,-0.0057108233,-0.0240962223,-0.030497088,-0.0242143074,0.0063973504,0.005977273,0.0041752351,0.0177909329,0.0775919732,-3.5898184832,-1.617342867,-0.0055887554,0.0005110818,0.0070909225,-0.2068764373,-0.0148971958,0.0881168188,0.0191062315,0.0163158966,0.02231727,0.2608629762,0.3507161184,0.0222070365,0.059125191,0.0059682353,0.0060966458,0.0071563537,0.0083783763,0.1441093949,0.0381291405,0.0338432346,-0.0294558065,-0.0056369288,-0.0027033801,-0.0232810713,0.0066660083,0.0058964748,0.0059884876,0.0001481162,0.1126716881,0.0015858916,-0.883601978,-0.0627774448,-0.055402847,0.0046267436,0.0621678187,0.094482578,-0.0001270653,0.1751874688,0.0078795351,0.0391596871,2.4961661181,0.0156025756,1.9684501651,0.0212747402,0.0065666005,0.0069554863,0.0059889238,0.0064523024,0.1579973983,0.0028727363,-0.0524282619,0.352875479,-0.0237252679,0.0308619255,0.1025220718,0.1004537848,0.100994917,0.1475991396,0.1291589787,0.0052918187,0.0133194107,0.0041902462,0.3346104713,0.1665864111,0.0034476445,0.0074135317,0.0677865443,0.0389723871,0.8062832166,0.0062075579,0.0276008896,0.0207886687,0.6424218106,0.0071646175,0.0161468626,0.1731579934,0.0074886859,0.0064856373,0.0013560042,0.0042409941,0.1564156548,0.004770052,-0.0526165797,0.0340163206,-0.0532239341,0.0874940987,0.1004106785,-0.0253045092,0.1004148352,0.1490057143,-0.0178857769,0.0019899888,0.0060966292,-0.0210585719,-0.0102788831,0.1918222104,-0.0817258333,0.0001105306,-0.0085625426,0.0243051862,0.0830920674,0.0348594001,0.0078647783,0.006483324,0.0121821989,-0.0008655306,0.0340999191,0.0568904877,0.0059463807,0.0069894399,0.016793523,0.0079023778,0.1777858994,0.1445947335,0.0382149371,0.0486511852,0.1046857487,0.120071407,0.1066674362,0.1040224106,0.1335184623,0.0093723148,0.0059353187,0.0067832329,0.0057688067,0.0029633347,0.0103064103,0.0240981487,0.0051875401,-0.0019831847,-0.0011927885,0.0082113413,0.0026329827,0.0758983615,0.1014045948,-0.0076303621,0.0448981538,0.0278714264,0.0466537067,0.0285017968,0.0068769325,0.0061119244,0.0056669134,0.0214748841,0.0165055205,0.1480553082,-0.049586764,0.3310892382,0.0249910463,0.1000494469,0.0999126629,0.1029828422,0.0065037179,0.006374219,0.0046405935,0.0975744521,0.0034848665,-0.0091930411,0.0793287549,0.0167069231,-0.0037808918,-0.0450772303,0.001023583,0.0152544427,-0.100580814,-0.0210977492,-0.0252152067,0.0059477635,0.0023794012,-0.007310406,0.0118934229,0.0147116889,0.0065389182,0.0060635467,0.0052874106,0.0068643807,0.016340112,0.1440152865,0.037046803,0.0269514726,0.0640527871,0.1006084596,0.0992639358,0.103174025,0.0059096336,0.0044277218,0.0026789708,0.0275656568,-0.0145902693,0.1531267448,0.008114971,0.0127905644,0.1908602763,0.0284187309,0.0067645335,0.0138255328,0.0045053349,-0.0018496099,-0.002311873,-0.0188594535,0.0062573053,0.0054988225,-0.5707508831,0.0084954976,0.0262636165,-0.0209150997,0.0059072903,0.0108981937,0.0097853689,0.004102335,-0.0495226433,0.2981356976,0.1012699613,-0.0213433093,0.1001774106,0.0991110722,0.0056263065,-0.2847377216,0.1250201704,-0.0395813408,-0.0106339776,0.005534191,0.0018238213,-0.0129100146,-0.0059499693,0.0125390527,0.0135959281,0.0060055799,0.0055320854,0.0027967655,0.0866188966,-0.0225015119,-0.0022333313,0.0955913803,-0.0099930049,-0.0039841593,0.0062089593,0.0240009458,0.0003515086,0.006534803,0.1565515317,0.1488939904,0.0383553209,0.3156148317,-0.1055132181,0.1086847325,0.1000113343,-0.0288551638,-0.0255319304,0.0047114619,-0.0032576041,-0.0037670626,0.0018837531,-0.0018878183,-0.0024426618,0.0022543218,-0.0184845053,0.0055069171,0.0786186887,0.0016027483,0.0071307101,0.0040758005,-0.002182039,-0.3216973324,0.0021347472,0.0060051796,0.0742347688,0.0039058262,0.0368332486,-0.0245881719,0.0058574337,0.0214381254,0.0092895079,0.0036773643,-0.0492079801,0.3179038496,0.0851058452,0.1003350417,0.0998493004,0.0990900247,0.0059912165,0.005921381,0.1038888559,-0.0045644328,-0.003525146,-0.0042542806,-0.0023262797,-0.0200238949,0.0008488309,-0.0008752322,-0.0016147791,-0.0019241071,-0.0018069238,-0.0018897209,-0.0013752585,0.0661047913,0.125035797,0.142438461,0.0045888937,0.0060490966,0.0062042279,0.0065138943,0.0064931905,0.0071010205,0.009469913,0.1773205868,-0.0495954431,0.3415718953,0.0699820363,-0.0507946449,0.0998570145,0.0879083477,-0.0220372127,0.0041531776,-0.0096402598,-0.0382346553,-0.001445676,-0.2220168926,-0.0134363585,-0.0201253152,0.0062289583,-0.0003480592,-0.0018615766,-0.0024781047,-0.0017315968,-0.0024028088,0.0855604753,0.0577062055,0.1241106618,0.1429755506,0.0049215358,0.0084842284,0.0088281347,-0.0249467085,0.0089523672,0.0106681743,0.1484421581,0.1500644009,0.039590648,1.8667618263,-0.0453064134,0.1000629693,0.0998782621,0.1005820455,0.1106666429,0.1739759585,-0.7084788638,-0.0270364438,0.0052518864,-0.006060974,-0.0029566789,-0.0193707963,-0.0013600655,-0.0019050116,0.0972834826,-0.0020589632,0.1244733871,0.1375255436,0.1240077221,0.1382977998,0.1750928387,0.1530676396,0.0798131193,0.0063657604,0.0149594803,0.1005029049,0.0047427352,0.0073007279,0.1565259607,0.0036178087,-0.0505380711,0.3394084676,-0.2543792289,0.0912997835,-0.0551617802,0.0998544519,0.1004654902,0.1020186002,-3.3180205864,-0.0082298729,-0.0717436902,-0.0541273525,0.0154974903,-0.0211733385,-0.0054160806,-0.0146460687,-0.0125852093,0.1959091962,0.3044883479,0.1456111577,0.1425317363,0.0419232293,0.1218981446,0.1306029438,0.0055881929,0.006250798,0.1013556155,0.0992628148,0.0004499037,0.0061799915,0.147871906,0.14439774,0.0360764679,0.3567044919,-2.2327918427,0.1254052206,0.0872081556,0.0690660129,0.0884190199,0.367419102,-0.0023334258,-0.0095816366,0.0169460093,0.019844501,0.0332128913,-0.0048066404,-0.0659645979,-0.0707958194,-0.0327073197,0.030113557,0.1092374012,0.1083994208,0.1284270569,-0.0011656248,0.1192986606,0.1245037951,0.0147085218,-0.0103335399,0.0097873787,0.1488724047,0.006088545,0.0067452902,0.146758986,0.1213664085,-0.0505398571,0.5122045831,-0.8805137976,0.0999441802,0.0829848434,0.0693604186,0.0990757967,0.1273707771,0.0303786154,-0.0030508205,0.0320137019,0.0010803652,-0.0036009445,-0.0495531446,-0.0467748302,-0.0070464304,-0.0840378424,-0.019112598,0.0790352266,0.1250316243,0.1421441088,0.1210239195,-0.0010905897,0.1207999464,0.0061792561,0.0053010274,0.0101416149,0.1322874101,-0.0268044436,0.0103944566,0.1462540261,0.1447446569,-0.0531720893,0.37327978,-0.0393876653,0.1218451405,-0.0504358925,0.3476456207,0.0827662278,0.0922107633,0.2201802033,0.0008940216,0.0186599805,-0.0020100012,-0.0414826828,-0.2892172553,-0.0757112534,-0.0458710436,-0.0175475409,-0.0002431122,0.0124018211,-0.0025381701,-0.0051512613,0.0129871577,-0.0537597862,-0.0242751395,-0.0099001394,0.0041956123,0.006540016,0.1478693406,-0.026779231,-0.0281667369,0.1476681849,0.1434775564,0.0362903093,0.3669917369,0.0816697026,0.0587895322,0.097667761,0.1001087495,0.0955668242,0.1144519954,0.1585778586,0.0139111055,0.0332149934,0.0285697982,-0.0376517468,-0.0136277845,-0.017444053,-0.01725208,-0.0135733967,-0.0732426676,0.0195493915,0.0003142546,0.126201835,0.003915359,0.0114399429,0.0330283441,0.004171709,0.0979994163,0.0062533958,0.0058958653,0.0057993546,0.0072477302,0.1435710737,0.1653558794,-0.0534890695,-0.2895207257,0.0996565078,-0.0933775478,0.0535483348,0.0942940541,0.0512695403,0.1026459428,0.0068083274,0.1754801015,-0.009568674,-0.23379305,-0.0074824468,0.0008244532,-0.1332917643,-0.2893038939,-0.0790625101,-0.0152299133,-0.0509736021,0.0733371933,-0.0182070696,0.0836106868,4.2688082026,0.083966494,0.0410458696,0.0157960385,-0.0025055527,0.0058376811,-0.0056331476,0.0044093821,0.1484891401,0.143329528,-0.0776610551,-0.0134957913,-0.0275452111,0.0919399135,0.1004589667,0.0965449161,0.0929945272,-0.0301914368,0.0189395514,0.0743162252,0.2941773705,1.0281301841,0.08174058,0.0298775644,-0.0721129555,-0.0405505979,0.0025472255,0.003396117,-0.0051652622,-0.0021400618,-0.0014125566,0.0011385722,0.0073960249,-0.0075389319,0.0043750645,0.0346375325,0.0059631413,0.005552701,0.0055081355,-0.0240201054,0.0984955038,0.0933833264,-0.0543942982,0.0740398134,0.0940884183,0.1001245329,0.0916041853,0.0944672903,0.0715630382,-0.0200124008,0.0082237703,0.0048013259,0.3133520112,0.0444482718,-0.0427051399,-0.0602967563,0.0425975948,-0.0343513235,-0.0096255334,-0.0114836724,-0.0125367399,-0.1245749998,0.216115263,0.1020138018,0.04526959,-0.0191230716,0.04714813,0.394543047,0.1477776053,0.0064793747,0.0065493428,-0.0267948118,0.1004860741,0.0970857816,-0.1244900517,0.3293447137,-0.2528396344,0.0556392934,0.0524150143,0.0594765629,0.0618805406,0.0747633137,0.121269962,0.0029535926,0.1403294925,0.0927809546,-0.0612568544,-0.1702809311,-0.1103090313,-0.1103693965,-0.4779539265,-0.190083521,-0.6377810727,-0.4428269467,-0.097805734,0.0070719439,-0.0723881736,0.0978317999,-0.0500409498,0.0777794956,0.0700530756,-0.0673012999,-0.0839660248,-0.0500532088,-0.0468004018,0.0751595704,-0.0785579446,-0.1813171603,-2.119354827,0.0984911263,0.0319774055,-0.0280485416,-0.0785259787,-0.0327988059,0.0042860869,0.0009269461,0.0071862361,0.0066679425,0.0061124654,-0.024179382,-0.0245908065,-0.025256665,-0.0242073945,-0.0265615955,0.0060800475,0.0063227262,-0.0261384063,0.004373924,0.0051727609,-0.0000008542,-0.0718062048,-1.1595234177,-0.0252257338,-0.0202618782,0.0050525525,0.0001761736,0.1458010654,0.140959349,-0.0682636897,0.0586154125,-0.1688258011,-0.0970270432,0.1000611348,0.0993130397,0.0985433637,0.084969753,0.1001526423,0.007946385,-0.0203200069,-0.0166376116,0.0112864232,0.0747228859,0.0185442261,0.0736123523,0.0104628947,-0.0229208804,0.0103493824,0.006478444,-0.024711046,0.1494785625,0.1532202016,0.1531494319,0.1492779156,0.1479651952,0.1069033339,0.0718613283,0.0256615584,-0.003507776,0.1312272375,0.0775044693,-0.1161137411,0.0393643022,-1.1972459262,0.0538508356,0.0801771043,0.0919794397,0.0795187725,-0.0164645613,-0.0470282167,-0.0433323742,-0.0455241826,-0.0453948883,-0.0143410108,-0.0178056579,-0.0250584543,-0.0458444112
   -0.0280735046,-0.0075027198,-0.0247032583,-0.0022404208,-0.0178141015,0.0689541582,0.0788425365,0.0756823753,0.0880657605,0.0786325325,0.0767824801,0.0802218011,-0.0463605201,-0.0373650033,0.3093519229,9.3429939864,-0.3760758421,0.1758070219,-0.0143017356,-0.0224601716,-0.0096059639,0.0753395566,-0.0102285968,0.0826033401,0.0751234618,0.0791654519,0.0776441905,0.0853756086,0.0841366029,-0.0338152692,0.0868774722,-0.0268836185,0.0867454692,0.0764331033,-0.0323314355,0.0844053303,0.0767800709,0.0879547291,0.0858244957,0.0876171761,0.0478539644,-0.0379583405,0.0611840506,-0.1099459507,-0.0464962905,-0.0584226083,0.1028178428,-2.6055233657,-0.0872509294,0.0122314342,0.0456802971,-0.0061073447,0.062100807,0.0504388405,0.1957947728,0.0714931463,0.1147274462,0.4872689902,-0.0286435894,0.0831657319,0.1445006446,0.0960492746,0.1022390676,-0.0393383681,0.0752706019,0.0756242323,0.178990662,-0.0204710389,-0.1011688297,-0.0219594263,0.2298158986,0.0641950737,0.0536342447,0.0947239647,0.2305554045,-0.0570792345,-1.7265853143,-0.0537810955,-0.5019984956,1.1599410516,-0.2640546242,0.0190406233,-0.0123934165,0.0219587668,0.0239455623,0.021145814,0.0486046008,0.1482073874,0.2198144283,0.0380608922,0.2461680458,0.1451569729,0.0389796981,0.0378768552,0.0377109655,0.0195267522,0.037204005,0.0373297404,0.0198253859,0.1527695254,0.008771878,0.0154943616,-0.0759992974,0.0145573051,0.0178268858,0.0182970341,-0.1050166637,-0.1086737923,-0.1093686415,-0.0654612119,0.0298341365,0.0532449337,0.02176174,-0.1546306199,0.0561396618,0.0728487379,0.0288820905,0.0536995544,0.0234422193,0.0061062175,0.0269279628,0.0074472341,0.0719641257,0.0113606379,0.0062986783,0.0683222659,-0.0022933412,0.0118691602,-0.0023893709,-0.0026729868,-0.0018686517,-0.0027133508,-0.0023785092,-0.002373044,0.0211895579,-0.0023162688,-0.0023917659,-0.0137828164,-0.0026057986,-0.0019491113,0.0034232121,0.0185302349,0.0015824945,-0.0076637379,-0.0142338747,-0.151327388,0.0394773453,-0.0078334434,-0.0290635882,0.00015914,0.000009976,0.0019228875,0.0018734866,0.0017640275,0.0000832305,0.0018847517,-0.0561101479,0.0019443902,0.0016721905,-0.0527235447,0.0017587099,-0.0493632061,-0.0560881495,-0.0000105016,-0.0560930563,-0.000353385,-0.056093778,-0.0549849147,-0.056036278,-0.0561161608,-0.0563320552,-0.0561508004,-0.0561537095,-0.063260943,0.0185869948,-0.0037903901,0.0105075351,-0.035975671,0.0607617394,-0.0735694161,-0.0525458009,0.0027122425,-0.0494519438,-0.0475528289,-0.0495456344,-0.0496032343,-0.0547497096,-0.0496140596,-0.0479541923,-0.0472039436,-0.0476856148,-0.0561228255,-0.0515874706,-0.0494677355,-0.0421887358,-0.0471129738,-0.0527002213,-0.0495023016,-0.0527979377,-0.0561239123,-0.0561411192,-0.0561928566,-0.056168437,-0.0528087105,-0.0561948838,-0.0563747518,0.0157849703,0.0122695341,0.0130373639,-0.1645627712,-0.0244678937,-0.0735091163,0.0045115788,-0.0421608365,-0.0263066383,0.002592552,-0.0527485704,-0.056098932,-0.0561199431,-0.0498409573,-0.0497940545,-0.0526123212,-0.0561115009,-0.0547262152,-0.0529690338,0.0009524132,-0.0324459901,-0.052506665,-0.0557657822,-0.0559579738,-0.056121466,-0.0526443689,-0.0526497349,-0.0560737329,-0.0560731987,-0.0561578011,-0.050151041,-0.0636876242,0.012335005,0.0135304805,0.0122329869,0.0463976285,0.0202546749,-0.0055184798,-0.0492955092,0.0044025823,0.0000383915,-0.0495011336,0.0188405814,-0.0529095604,-0.0500879469,-0.0444733541,-0.0526323579,-0.0027739142,-0.0591611702,-0.063744485,-0.0008370441,-0.0582301402,-0.049537132,-0.052925097,-0.0319992033,-0.0337868615,-0.0559533827,-0.0478898307,-0.0559835957,-0.056072868,-0.0549595652,-0.0561196734,-0.0501151974,-0.0633618943,-0.0167980877,0.0127690439,0.0099517516,-0.0305007785,0.0622282784,-0.028805012,0.0026269251,0.0044898936,-0.0294582747,0.0018925997,-0.0501386202,-0.0500420969,0.0030544346,-0.0692580069,0.0323133976,0.0428135114,-0.0052866944,0.0010867755,-0.0608328113,-0.0552022919,0.0915074534,-0.0109142912,-0.0105704923,0.0031220301,-0.0520926556,-0.052098408,0.0009343147,-0.0003001641,-0.0560179097,-0.0003424887,-0.0562526893,-0.0551066066,0.0185955656,0.0122988137,0.0127808747,0.0045310087,0.0287743587,-0.0590279646,0.0045124592,0.0026273637,0.0025769914,0.0018900758,-0.0500311944,0.0016920149,-0.0088594557,0.022354395,0.0257662818,-0.0617096532,-0.0583205046,0.014454839,0.0652867399,0.0356758678,-0.0798792421,0.0424235353,-0.0773233545,-0.0441675117,-0.05582522,-0.0478631934,-0.0859645351,-0.052670038,-0.0526496695,-0.0560627821,-0.0527881339,-0.0633320283,0.0041185292,0.0124333141,0.0101402651,-0.0289392915,0.0172813407,0.0110453534,0.0091279713,0.1227822773,0.1707603697,0.1055312484,0.1685653467,0.1239950204,0.0228593708,0.0122388146,-0.0736400841,-0.2584031523,0.40455564,0.0008867077,-0.1349597696,-0.015462211,0.0222620688,0.2175994017,-0.0529579078,-0.0422759717,-0.0524726901,-0.0466739704,-0.0516676896,-0.0526601431,0.0009227899,-0.0526153558,-0.0561519836,-0.0633085264,0.0159045052,0.0123076646,0.0120776483,-0.030352395,-0.0069946964,-0.0907170598,0.1617918384,0.002538464,0.0085738871,0.0083965127,-0.0880422991,0.0015141311,0.0235447774,-0.0734310755,-0.0239002477,0.026515023,0.0503127506,0.0010708852,0.0095783062,-0.5828279232,1.6840584753,-0.0017805471,0.0319237935,-0.0387049728,-0.0373638784,-0.0361539382,-0.0788857068,-0.0526540638,-0.0383806154,-0.0559879088,-0.0561274679,-0.1049767032,0.0124236534,0.0131081,0.0103704983,0.0467007995,0.0005137419,-0.0500693777,0.0008350475,0.1035710939,0.1199225479,-0.052823519,0.0005317815,0.0224550067,0.0227670997,0.0131727248,-0.0610865124,0.0355955216,0.0975823703,-0.0454502885,0.0099047735,0.035626678,-0.3167478243,-0.0551502022,0.021915966,-0.0191580388,-0.0946940279,-0.0350423207,0.0058378733,-0.0385724822,0.0020169194,-0.0499597076,-0.0561508236,-0.0632737102,0.0040201629,0.0017022844,0.0118826161,-0.0303909892,0.0233609151,-0.0357237123,0.1173590325,0.1172378127,0.1237947222,0.0027963292,-0.0630672194,0.0112970346,0.0148483315,-0.0182962947,0.0091192952,-0.2497397405,0.4167410301,0.0476740151,0.0107721087,-0.0120831201,-0.0298129683,-0.0526888255,-0.0535234134,-0.0586012517,-0.0790875814,0.0058785445,0.0067590322,0.005746704,0.0009422858,0.0126707568,-0.0560678,-0.0562254229,0.0141577953,0.0122065444,0.0129377391,-0.02893464,0.0200783052,-0.0752637241,0.0089725272,-0.0004405917,0.0015107364,-0.0486038416,-0.0478887484,-0.0030072096,-0.0186343335,-0.0071154057,0.4875988296,0.0552541964,0.0172896137,-0.0131211569,0.0341237616,0.0121042683,-0.4674118303,-0.0009823007,-0.0314877983,-0.0243388383,-0.0483635147,-0.0764413218,-0.0383820474,-0.0380014929,0.0006341526,-0.052711421,-0.0560423415,-0.0632618443,0.0141563388,0.012415527,0.009600196,-0.0297401185,0.0214746863,0.006840781,-0.0382008397,0.1204169929,0.071423845,-0.0515879465,0.1457104118,0.0986261749,-0.0190390076,-0.0012514967,-0.0290197294,0.4777492789,-0.0211650492,-0.0340550785,-1.1687503247,-0.0724772916,-0.0284509538,-0.0083900827,-0.0449825519,0.1277433399,-0.0513141856,-0.0705330811,0.0058194907,-0.0376165776,-0.0086895403,-0.0300185757,-0.0463315564,-0.0632635118,0.0158078239,0.0124094239,0.0081009053,-0.0305553996,0.0597196422,-0.0826634541,-0.0526708412,-0.0527464723,-0.0530320964,0.0015817845,-0.0471430475,-0.055184906,-0.0027875548,0.0530802086,0.0621699798,-0.2176674353,-0.193868023,-0.0577011231,-0.0900083358,-0.3303681042,-0.0785657894,-0.000777231,-0.0691741964,-0.025585987,-0.0560865344,-0.0590027063,-0.0384084605,-0.0406951902,-0.0482578696,-0.0560548971,-0.0464805455,-0.0631931203,0.0158928208,-0.0005714657,0.0080260656,0.044316151,0.0011258652,-0.0772725051,-0.0494731957,0.0683685459,0.0719230875,-0.0530830299,-0.0469849465,0.1281102518,-0.0848206113,0.3698238496,0.065587297,-0.0083876423,-0.0750686361,-0.0344978658,0.0015068519,-0.1073503298,-0.0646790258,-0.3979264337,-0.1408528339,-0.0460717456,-0.0442251084,-0.0745693743,-0.0391019897,-0.0263862344,-0.0560204533,-0.0933128282,-0.0528133869,-0.0633418279,-0.0152293474,0.0021682923,0.0121080936,-0.0321481293,0.0035149002,-0.0632605372,0.0723760433,0.1170022351,0.0686506975,-0.0564536913,0.0049211398,-0.0543917444,0.026364332,-0.1005647939,0.0763638092,0.0222404426,0.0015571729,-0.084194752,-0.0007718312,-0.007848028,0.252972379,-0.3762060911,-0.1025124604,0.0323264956,-0.0367394159,0.137503375,-0.0623307917,-0.0602280921,-0.0560422912,-0.0770876334,-0.0561394247,-0.0632812981,0.0125076456,0.012457932,-0.0008480872,0.0440515945,0.0365496612,-0.048808781,0.0859878657,-0.0545643552,0.0685802765,0.0686792601,0.0280041835,-0.0045024179,-0.0630481399,-0.0614682137,0.0009448518,-0.0011125853,-0.003079057,0.5741714038,0.0372164658,-0.051428675,0.5335090021,0.0787890382,0.3967133786,0.0320153437,0.6023879476,0.0604754499,-0.0623693778,-0.0319268728,-0.056124916,-0.1051795933,-0.0561978987,-0.0633830076,-0.0041712031,0.0122996115,0.0096292494,-0.0318933401,0.000937384,0.0471124428,0.0749566156,0.1133314739,0.1137733871,0.0720241207,0.0982719503,0.1169678016,-0.0556167552,0.4533716919,3.6610832174,0.1339326203,0.0636054684,0.4128073165,0.1004004214,-0.3144063647,0.0990028248,0.0161639603,-0.3572596549,-0.3176319173,0.2014244788,0.1396747132,0.1054951968,-0.0378748282,-0.0527643205,-0.1051514495,0.0687841616,-0.0633577094,-0.0005087568,0.1137526013,-0.0013043244,-0.0303133575,0.0481678853,0.0280620946,0.0721565757,0.1170627915,0.068690615,0.117050001,-0.0017533291,-0.0000640195,-0.0358734517,-0.0147381094,0.0479679452,0.1013077247,-2.0686329732,0.0987464718,0.6386012048,-0.0223195176,0.20218385,0.0766932773,-0.1482955545,-0.160698403,0.1840666432,0.2075263169,0.0660166857,-0.060960274,-0.0560157646,-0.0562518685,-0.0561979679,-0.0632852578,0.015852972,-0.0006403197,-0.0008879515,0.0447415637,0.0096136711,0.028007837,0.1171670491,0.1136818955,0.1136951029,0.0613098975,0.0687019122,-0.0528884155,-0.0673054637,-0.0605135157,-0.063694081,-0.0576264179,0.0442279739,0.6247478384,0.0510011939,-0.07036543,-0.7116545761,-0.057278656,-0.6912077602,-0.8476757332,0.126272689,-0.0232779474,-0.0426104508,-0.019354278,0.0060215994,-0.056184654,0.068813138,-0.0634348395,-0.00053807,-0.0008568265,-0.0008214217,-0.0321530744,0.0321575704,0.1179630439,0.1313123798,0.1170596235,0.1332318804,0.0687126424,0.0722161443,0.0272532448,-0.2593186187,0.0838504854,-0.008210151,0.038726959,0.0347598256,0.1111587585,0.3172981347,1.0601932342,0.0070093904,-0.0509721941,-0.0818274648,0.1837335128,0.136856322,0.0788296518,-0.0427255099,0.0843991829,0.0057623968,-0.0524618316,0.0687861176,-0.0635057428,0.0006281581,0.1136669397,-0.0007216821,0.0417806569,0.0506214875,0.065813354,0.1320682023,0.0720778286,0.0688488149,0.113978662,0.0655209574,0.0734806003,0.012076574,-0.4556852683,0.0112159824,0.0109203461,0.0165575133,-0.0226055304,-0.0363639017,0.7319621676,-0.0575918201,-0.0473067075,-0.0335728735,-0.0275785861,0.0079360647,-0.0400250105,-0.0659197195,-0.055315005,0.0326326431,-0.0525092748,-0.0561110409,-0.0634238148,0.0006228775,-0.0006924418,-0.000839455,0.0446373857,0.0566499352,0.1410242854,0.1602556229,0.1279798235,0.0691432737,0.0640469735,0.1249805426,-0.0540503727,0.1183978787,-0.8462199501,0.1705214418,0.1862215614,1.0062052509,0.0317998277,2.0433569808,-1.265396283,-0.6559198762,-0.043652807,0.1896910205,0.2702392016,0.2479980728,0.4168263425,0.05509927,0.1961256725,0.0984649525,-0.0456961323,-0.055739752,-0.0633443489,-0.000530001,0.1136379615,0.1135392792,0.0445943986,0.053039447,0.1107520413,0.1225202005,0.1146443691,0.0702889927,0.1141654797,0.0006528965,-0.0050480838,-0.0161090604,-0.5587127878,0.0120833108,0.0045502616,0.058829558,0.1624795544,0.0774886534,-0.0511676901,-0.0218655453,-0.4339227855,-0.2423435842,-0.1460159055,0.241354503,0.7306100751,-0.1093324729,-0.6482375831,0.0808020503,-0.0189413788,-0.0556987448,-0.0633632968,0.0006119225,0.1136377719,-0.0006308286,0.0448643318,0.0517758743,0.0695067782,0.1321060437,0.0691137314,0.0691228004,0.1258589152,-0.0467951511,-0.1386571394,-0.0506144174,-0.022154442,-0.0160255294,0.0002178895,-0.0066991733,-0.0936327785,-0.0669448319,-0.1076420529,-0.0852321632,-0.0132628618,-0.0737836544,-0.2572444996,0.1440967799,0.090075365,0.059785485,0.0845407938,0.0989662364,0.0031538946,-0.0540483235,-0.0673372459,-0.0005547335,-0.0006651179,0.1137520161,0.0445833192,0.0651525143,0.1322457441,0.1176783698,0.1178591471,0.0728835449,0.0835546737,0.0368647773,0.1953991932,-0.0873053389,-0.0490739582,0.0817677601,0.0714805699,0.0591585194,-0.1208600998,0.0546562293,0.0525727968,0.0893742641,-0.0061867959,-0.0060394379,0.1005896114,0.1014546747,0.1008026144,0.4247337498,0.1094861072,0.1176057595,0.1180873006,-0.0530111517,-0.0659593789,-0.0000400914,-0.0013517857,0.1136095946,0.0440993592,0.0721270515,0.1021941249,0.1181467416,0.1173765226,-0.0525394532,0.0012473467,0.0026841595,0.0298834496,-0.0129912938,0.0420845707,-0.0028649086,0.0558975078,0.0033767411,-0.0052077396,0.0034617528,0.0017748218,0.00219022,-0.0050826133,-0.0073723468,-0.0767570542,-0.0031138528,-0.06123901,-0.0778725704,-0.0082276469,0.0055949837,-0.0077566443,-0.0770373843,-0.1073579144,-0.0004788415,-0.0006244346,0.1135568926,0.0472937193,1.8164276355,0.1174054913,0.1139371123,0.1136043941,0.1139454448,0.0686655737,0.275022044,0.1132133691,-0.1070381656,-0.1330840102,-0.1146839637,-0.1146739666,-0.0000330327,-0.0076669804,-0.0092418058,-0.002396322,-0.0017068668,0.0018959567,-0.0599459381,-0.0065856604,-0.0897405501,-0.0081041803,-0.0204134286,-0.1323446155,0.1137278762,-0.0037779784,0.0186262319,-0.0138013856,-0.0053680792,0.101840181,0.0467487975,0.0415605634,0.4242355268,0.1636009419,0.1198206225,0.1069163426,0.1146695302,0.0715622382,-0.002228496,-0.0630143062,-0.0524387756,-0.0624654969,-0.0556368084,-0.062963066,-0.0631749619,-0.0030340656,-0.0025368632,-0.0555920294,-0.0628715262,-0.0542604432,-0.0028047771,-0.0632574738,0.0625959901,0.1069417347,0.062155695,0.110609508,0.0813221473,0.0620655692,0.0363658496,-0.0879730648,-0.0040212004,0.1102526513,-1.1284783085,-0.0247958691,0.0219778739,0.1046835979,0.174287335,0.0508173069,0.094863668,0.1131114815,0.0477158516,0.1192248717,0.1074839567,0.0496443963,0.1101066514,-0.0573092456,-0.0161369237,-0.5495383319,0.1110120946,-0.1939362145,-0.2367349611,-0.484523945,-0.1297132672,0.0272582874,-0.0121519579,-0.076562787,0.0648390697,-0.0335911744,-0.0335251362,-0.0001183187,-0.2164685483,0.0811942757,-0.1903956599,-0.3488179161,0.1468455235,0.2559841957,-0.1167127907,-0.4391097437,0.2207847808,-0.685071483,-0.1820004364,-0.0034307236,0.1665336963,-0.0378569621,0.1523555905,0.166360618,0.1021968902,0.0099014413,0.1100061556,0.1182506795,-0.1212520915,0.1157514905,-0.0263819551,0.1196635093,-0.0178558871,0.0130907673,0.013872536,0.1367486389,0.1510921826,0.1531762536,0.1505105669,-0.0160955981,0.1098474941,0.0442753863,0.7874940909,0.2350681155,0.17581355,51.1632775011,-0.0096320043,-0.0419465832,-0.0132596101,0.0307971412,-0.0191006459,-0.1947128108,-0.003493782,-0.0184981796,-0.003648349,-0.0223100986,-0.1767515101,0.0239388168,0.0094333283,-0.1288380134,0.0313337794,-0.1663175966,0.0289397562,0.038204502,-0.2319192067,0.0406597768,0.040478177,0.0404852835,0.0397576711,0.0397516695,0.0397761033,0.0288125757,0.0471742206,0.0488654995,0.0410309599,-0.8804786266,0.040173439,0.0086276585,0.0478819178,0.034310735,-0.0455902584,-0.0370161909,-0.0410375539,-0.0412600009,-0.0363814367,-0.0406221206,-0.0404849585,-0.037586459,-0.0513339086,-0.0505329607,-0.0502415604,-0.0455190177,-0.0431434099,-0.1254225646,-0.0488563711,-0.0483810299,-0.0353085921,-0.039762589,-0.0501551395,-0.0446792772,-0.0393801633,-0.0378893828,-0.0239268933,-0.0472830118,-0.0450248373,-0.0408199837,-0.0318728868,-0.1012078477,-0.0280914131,-0.0365629692,0.0277313914,0.0556663686,0.0045433726,-0.0238583496,-0.0081970793,0.0319736551,-0.0165190012,-0.0256429203,-0.024795791,-0.0224405773,-0.0229761712,0.1058605911,-0.0048964617,-0.0210405069,0.1835677206,-0.0232875181,-0.0240785185,0.0816668695,0.2850827608,0.2890084073,0.0821396037,-0.0176394761,0.1313858509,-0.0117404187,-0.0056209765,0.0045463312,0.1488671285,0.0077930293,0.0389151814,0.0063069924,-0.0260035321,-0.0232107919,-0.0054728765,0.0572996732,0.0784167443,-0.0235835288,-0.0268806978,-0.0188370891,-0.0251629135,-0.02496455,-0.0262267537,-0.0266368831,-0.0231419702,-0.0204137578,-0.0208372982,-0.0264663332,-0.0284369584,-0.0280038065,-0.0247654305,0.0096333547,-0.0249211779,-0.0120113225,-0.0246870738,-0.0249817434,-0.0249299972,-0.0241069559,-0.0115784064,-0.0238765092,-0.020147308,0.4216915475,-0.0239413158,-0.0283816862,-0.0235621181,-0.0231060299,0.0262662552,0.0530664038,-0.0197849914,-0.0241776604,-0.0245385282,-0.0254415354,-0.0198864245,-0.0256995198,-0.0250967002,-0.0253255749,-0.0250234963,-0.0243274393,-0.0253478467,-0.0241544188,-0.0284021437,-0.0305143113,-0.03629389,-0.0304634557,-0.0290839348,-0.0257030475,-0.0144072719,-0.0244476647,-0.0231321036,-0.0254968797,-0.0247698559,-0.0124221125,-0.0216343867,0.9363338893,0.5339919981,0.0143389926,-0.0294625025,-0.0219983678,-0.0062316422,0.0548614571,-0.022068484,-0.0237220651,-0.0228851886,0.0346439492,-0.0051683082,0.0619435778,-0.0222698306,-0.0236328258,-0.0236493309,-0.0243617104,-0.0321557401,-0.0341628065,-0.0257150745,-0.0245821458,-0.0279301679,-0.1053213643,-0.0349535667,-0.0269523735,-0.0298834814,-0.0036153133,-0.0245710369,-0.0232060916,-0.0248746837,-0.0232094555,0.0733531778,0.2224948233,0.1507575667,-0.0246457896,-0.0324383725,0.0902270812,-0.0047920232,0.0594068065,-0.0253235181,-0.0229414664,-0.0217568726,-0.0048940669,-0.0345108111,-0.0383834768,-0.0261958626,-0.0299928778,-0.0083930483,0.0061193354,-0.1291971421,0.0702687526,-0.0262058836,-0.683725272,0.0479545596,-0.0203975896,0.9486331101,0.1070195561,0.0060921971,-0.0254741127,-0.0257734339,0.0360022233,-0.0002325332,0.1514631468,0.150901275,-0.0091352953,0.0927325418,-0.0317289616,-0.0245000701,0.0899061071,-0.0065316737,0.0649869246,-0.0235880881,-0.0245241841,-0.0051228126,-0.0194491412,-1.0225825505,-0.0161416105,-0.035694851,-0.0255305689,0.00979975,-0.0236721439,-0.0228577531,-0.0387866264,-0.034645012,-2.7316614033,0.0627579787,0.548134968,-0.127023788,-0.0237604836,-0.0280877879,0.139846594,0.0912296055,0.030111627,-0.0254010873,-0.0241927055,-0.0250570986,0.6913399472,0.8559185749,-0.0113743857,0.0253596615,0.0907482953,-0.0055346943,0.051315465,-0.0252260997,-0.0152319844,-0.0247241159,-0.0939199821,1.2191778602,-0.0349102121,-0.0249150014,-0.0598722178,-0.0108008046,0.012391601,0.0141378967,-0.0204703492,-0.0181772266,0.3932704246,-0.0924154725,-0.0089462135,1.1459574039,-0.0345888999,-0.0244347984,0.0416098185,0.0061249857,-0.0248390334,-0.0222399225,-0.0240779837,-0.0245479797,0.06595185,-0.0171281138,-0.0251070843,-0.0200438889,0.0911902285,-0.0052967758,0.0820636081,0.0684982498,-0.0247836529,-0.0243668883,-0.0215482509,-0.0252497228,0.0526593232,-0.0258845441,-0.0290825641,-0.0270464882,1.4703144251,-0.0251218439,-0.0428588755,0.0135769051,-0.0316427205,1.6563147551,0.0203798187,-0.0215408163,0.0500210066,-0.0205181451,-0.0121573739,-0.0034376219,-0.0278677744,-0.0247120336,-0.0249771813,-0.0252465879,0.2247894511,0.0297301427,-0.0139065304,-0.0200048689,-0.0208664497,-0.006507859,0.0635231231,-0.0222081762,-0.0173255806,-0.0126990285,-0.0222928564,0.2144949735,-0.0510993538,-0.123148512,-0.1190144905,0.4149345143,0.2625788582,-1.0804529752,-0.4320907153,-0.2020397491,0.0253587054,0.0601601047,0.0175780917,0.004113916,0.0180123297,0.0820621332,0.2674493289,-0.0069561676,-0.0025218714,-0.0253109736,-0.0250752593,0.0050553019,0.0607827059,-0.0229343088,-0.0133594713,-0.0228712397,-0.0142985963,-0.0053723479,0.0535508587,-0.0269136006,-0.0245341332,-0.0244846307,-0.0170032765,-0.0023900142,-0.0383493357,-0.3622204976,-0.0934299621,-0.0293262639,-0.0624840583,0.3230213922,-0.2073800682,-0.0379707789,-0.0211389394,0.2107095762,0.0508951708,-0.0461622857,-0.1510838069,0.0172998773,-0.0013836618,0.0525690014,0.0630099467,-0.0268348862,-0.0189325826,-0.0050309849,-0.0209470536,-0.0130852345,-0.0240054028,-0.0251190005,-0.0209083492,-0.0056790904,0.0599605512,-0.0242884207,-0.0236369922,-0.0255200651,0.0781438707,-0.0199219613,-0.0261370722,-0.0309682521,-0.028894862,-0.0508518796,-0.0733564432,0.0517607543,-0.0374981967,-0.0943898311,0.0630814098,-0.0513884906,0.497213572,0.0672240905,-0.0004764491,-0.0029857092,-0.0481706621,0.0555282955,-0.0157160432,-0.0470492367,-0.0228527545,-0.0207071618,-0.0209437848,0.0488050195,0.0077727061,-0.0084298913,-0.0209127682,-0.0051785849,0.0501998784,-0.022555572,-0.0162060981,-0.0183362591,-0.0242387034,-0.0248799919,-0.0290095267,-0.1958753578,-0.0284782261,-0.1497534884,0.0598195949,0.2615397658,0.0706028361,0.0292092635,-0.0087889312,-0.013265878,0.0218255149,0.2108798753,-0.003557965,-0.0068095126,-0.0283205769,0.0107306494,0.0867238325,-0.0445651722,-0.0278530295,-0.0225757689,-0.0108146067,-0.021923163,-0.0081354242,-0.0180276593,-0.0204094634,0.0024873422,0.0502070795,-0.0251218416,-0.0198987854,-0.0255973992,-0.0251540293,-0.0246188917,-0.011244701,0.0071574246,-0.022666482,-0.0446916752,-0.1774107505,0.0485519681,0.042765617,0.0120749843,0.0376472527,0.6479165922,0.0948440492,0.013872368,0.0032989215,-0.0022487525,-0.0303685526,0.0270294043,0.0566601308,0.0344616453,-0.0237575542,-0.0252054805,0.1578497263,-0.0244552518,-0.0076917255,-0.0265395015,-0.019159079,-0.0058676414,0.0745989682,-0.015038359,-0.0238214182,-0.0096605365,-0.0251520551,-0.0250432169,-0.0088469883,-0.0273307963,-0.0059242475,-0.0509105224,-0.1342389087,0.022504546,0.0087738839,0.0339746188,0.0612093365,0.0283445786,0.0077292707,0.1722270027,-0.0461323272,0.0007448644,-0.0188551151,-0.1176083894,-0.0228089354,0.047155948,-0.0110820255,0.0096543186,-0.0240300365,-0.0241505037,-0.0046538666,-0.0236781229,-0.020892922,0.0007135304,0.035007067,-0.035284888,-0.0238603959,0.099465519,0.098382028,0.023858189,-0.030458024,-0.0263215943,0.0053191145,-0.0282447578,-0.2098795992,-0.0058995135,-0.3635134646,-0.015738485,0.018699966,0.0670685587,0.0000401545,0.0048995486,0.003059609,-0.0004281137,-0.0184941384,0.0124882864,-0.0797250058,0.0486231413,0.0382266211,-0.1136878352,-0.0217472922,-0.0258436939,0.0387478453,-0.0279979751,-0.020898956,-0.0058900361,0.0372534214,-0.0246378559,-0.0248076218,-0.0237782301,-0.0053832055,-0.0223537601,-0.0240745165,-0.0323887696,-0.0244367936,0.6912190567,-0.0977873316,-0.006206282,0.4364086987,0.0262587963,0.0559351402,0.2151910812,0.01241523,0.0292818256,-0.0786502407,-0.0013091949,-0.0090946924,-0.0221441291,0.0472221635,0.0359603602,0.0374139363,0.0815923838,-0.0244874862,-0.0238292003,0.0293583348,-0.0245602385,-0.0089062203,-0.0058674592,0.0466800437,-0.0367744208,-0.0247872613,-0.0163747165,0.1082883716,-0.0103688382,-0.5119441608,0.4366532219,-0.0289680908,-0.0271989337,-0.5535731522,-0.0158673499,-0.2930432067,-0.0090703046,-0.0306554885,-0.0293684836,-0.2449778993,-0.0975022365,-0.0456018381,0.1197481812,0.0750804878,0.0996583501,0.0464152027,0.0040169602,-0.0029239566,-0.0268820481,-0.0231987456,-0.0211061098,0.0272962636,-0.0244543167,-0.0203555351,-0.0077158939,0.0359809392,-0.0244015039,-0.0249098829,0.1000713241,-0.0216822938,-0.0245892443,-0.0436699109,-0.096083959,-0.0462979361,0.0053359591,0.0085097318,-0.1275666483,-7.0507131328,-0.1445974159,-0.1060321862,-0.0333426516,-2.844390937,0.0082711846,-0.0896596586,0.0682229145,-0.020447435,-0.0362785151,-0.0228264838,0.0159285007,0.1555755131,0.0847401915,-0.0150767581,-0.011124982,0.0295675423,-0.0245052724,0.0928111641,-0.0072811041,0.0362415051,-0.0391745005,-0.0253539206,-0.0242331005,-0.0215209377,-0.0232606521,-0.0125862718,-0.0248456815,-0.0272257081,11.4903392138,0.0319418772,0.0096225119,-0.2266690995,-0.0128140579,-0.0225275282,-0.01843981,-0.0183616855,-0.025268776,-0.0191751159,0.0402160031,0.1784165383,0.0381274752,-0.0324974104,-0.0173113879,-0.0226993386,1.0231615765,-0.0238293366,0.6105888268,-0.0226603136,-0.0181077422,0.1051655551,-0.0070794579,-0.0664489544,-0.037080665,-0.024571894,0.1000745017,0.0991440059,-0.0425741719,0.0779552323,-0.0234020043,0.8726722143,-0.091685444,-0.0167378827,-0.2932484902,-1.2923692609,-2.17304384,-0.0186984307,-0.2254988772,-0.0747739159,-0.1015601495,-0.0202973833,-0.0475670827,0.3675506046,-0.2585386433,-0.042802967,-0.0232951518,-0.0272090133,-0.0257115877,-0.0214940769,-0.0273898758,-0.0072732164,-0.0263399911,-0.020519821,-0.0052840011,-0.0526598423,-0.0246996235,-0.023308074,-0.0467840411,-0.0259470987,-0.0668474702,0.0987540157,0.020376769,-0.2312761682,0.8245403103,0.0245974481,-1.5007504657,-0.005304932,-0.0070813969,0.7069587796,0.0067593257,0.0063160217,0.0405300548,0.0037511837,0.0060584876,0.0522557128,-0.0007421123,-0.1155896729,-0.5275313036,-0.0294556302,0.0635966325,-0.0132489303,-0.0245265483,0.2985345888,-0.0252931766,0.105127299,-0.004766784,-0.0932573787,-0.0348131257,-0.0238743836,-0.0276282133,-0.0260813893,-0.06556867,-0.0388320089,-3.0546319529,-0.0582776569,-0.1340671448,-0.4189537724,1.6759730456,-3.0457544111,-0.3145740252,-0.5553693247,-0.2553499637,-0.2337801444,-0.1817061259,0.0286627375,0.3361454238,0.019616431,0.0844016825,-0.6520180262,-0.0411072891,-0.0657877984,-0.0279447589,-0.0183155222,-0.0238757734,0.2347802204,-0.0245594429,0.0999234693,0.0015447407,-0.0778632673,-0.0384851765,-0.0247383317,0.0779805075,0.1002317106,-0.0395958242,-0.0203335615,0.1113029081,0.2171526816,0.4068348241,-1.1237479977,-0.197118978,0.4652325555,0.0182032248,-0.0002167042,-0.0052914524,-0.0043146473,-0.002730169,0.3378599109,-0.1295679271,0.6195874871,0.1024336874,-0.0281568857,-0.057122336,-0.0564553473,-0.0218601462,-0.0227874445,-0.0244568185,-0.0155289141,-0.0239155181,-0.0207535197,-0.0022516811,-0.0608720309,-0.0261301976,-0.0250027494,0.1000178563,-0.025091848,-0.0468345599,-0.0012119985,-0.1185586023,0.0424981873,0.0338497796,0.1191329357,0.0197024762,0.1242341214,6.1354145732,0.0272890319,-0.1207262358,0.0167282582,-0.0187405376,0.0972301722,1.1518565684,-0.3725707919,-0.123182735,-0.3388981368,-6.1394444784,-0.0304996388,-0.0249930438,-0.0057189392,0.005075896,-0.0226914849,-0.0242815601,0.1050167463,-0.0022962286,-0.1152923637,-0.0473843885,-0.0427589146,0.1003804744,0.0956095479,-0.0184822167,-0.0643966962,-13.1897848879,0.0152539468,0.0628141357,0.1095483373,0.1088786658,-0.0818422925,-0.021393149,0.1002596288,0.1004189397,0.0754816673,-0.1832168379,-0.0563410936,0.3449056187,0.0499342855,0.0506460321,-0.8095281963,-0.4358816662,-0.0725700993,-0.1247320597,0.049696661,-0.0240054688,0.0904348854,-0.0253045161,-0.0211314408,-0.0050283356,-0.0649018735,-0.0128678406,2.411008316,0.1703908274,-0.0247423579,-0.0268691582,-0.0245328782,-4.3979855899,-0.1120171268,-0.1169966622,-0.0115143285,0.0792922662,0.8368906318,0.8445050781,-0.0157583634,0.149587421,-0.0146453344,-0.0125669567,0.0474169893,-0.0390309615,-0.0575047777,-0.0862791287,-0.0594216777,-0.0526540561,0.1372868421,-0.0298195751,-0.2661886554,-0.0323110142,0.0308742065,-0.0296506906,0.105031588,-0.0026076509,-0.195857412,0.0872966196,0.1259703017,0.7389006975,-0.024721055,-0.1069375573,0.0461375008,0.0507889015,-0.0719308807,-0.100137065,-0.1358961419,-0.1053267085,0.0443895796,0.1380928331,0.0641072138,-0.5400919504,-0.0089307289,-0.5515516581,-0.1524173801,0.0449393055,-0.166804661,-0.0263000974,-0.0780993916,-0.056621065,0.0838678334,0.0401933878,2.0315834203,0.0529226381,0.2080207273,-0.02202563,0.0871250629,-0.0023635505,-0.0561744104,0.0977085417,0.100274835,0.0997000238,-0.0099962009,-0.0357417781,-0.0088688533,-0.0364114887,-0.0213718898,-0.0217262871,-0.0240476275,0.0548336732,-0.0218840959
